<unk> 0.024020586162805557 -0.001306893303990364 -0.017983369529247284 0.049518316984176636 0.026685623452067375 0.018781675025820732 -0.04078294709324837 -0.04581081122159958 -0.051863979548215866 0.08258426934480667 0.07941383123397827 0.06289010494947433 -0.038177475333213806 -0.04043024405837059 -0.06926881521940231 -0.08903729915618896 -0.011324108578264713 -0.06309600919485092 -0.03900925815105438 -0.058392081409692764 -0.057049088180065155 0.03181655704975128 0.006076027639210224 -0.12027367949485779 0.11708074808120728 -0.027980947867035866 0.06981222331523895 -0.004880568478256464 0.07543877512216568 -0.04467656463384628 -0.05334360897541046 -0.10984137654304504 0.01994430087506771 0.04201775789260864 0.05848851799964905 0.021625908091664314 0.08913309127092361 -0.02700646221637726 -0.0698888748884201 -0.049434177577495575 0.05678647384047508 0.011389913968741894 0.10219758003950119 -0.06447704881429672 0.01390407606959343 0.020042188465595245 0.04123900085687637 0.05627714842557907 -0.0005662829498760402 0.027630914002656937 0.01853892020881176 -0.06136017292737961 -0.0808643326163292 -0.0054328409023582935 -0.03733488917350769 0.007456498220562935 -0.02500324510037899 0.01902392879128456 0.09048474580049515 0.03407913073897362 0.07393750548362732 0.00930024217814207 0.033934447914361954 -0.015761401504278183 0.04344592243432999 0.01990179345011711 0.011597857810556889 0.09327268600463867 -0.06539571285247803 -0.04016953334212303 0.1297583431005478 0.14199842512607574 0.008420631289482117 -0.050909485667943954 0.03897049278020859 -0.06605368107557297 0.03270278126001358 0.05122247338294983 -0.02107820101082325 0.011044367216527462 -0.0016406833892688155 0.0503104105591774 0.055729903280735016 0.024775391444563866 0.029029469937086105 0.06411965936422348 0.032739028334617615 0.09940890967845917 0.0356081947684288 0.017595693469047546 0.020575180649757385 -0.02642957679927349 0.14606016874313354 0.10203250497579575 -0.08985602855682373 0.07448650896549225 0.05297046899795532 -0.0549718476831913 -0.0478946678340435 0.12056828290224075 -0.0009079829906113446 0.03094901330769062 0.011553074233233929 0.0033854201901704073 0.01740262843668461 0.015049316920340061 -0.014013554900884628 0.10875149071216583 0.06527535617351532 -0.07821422070264816 -0.07475431263446808 -0.06870104372501373 0.001051071914844215 -0.05351615324616432 0.04444435238838196 -0.025388440117239952 0.017550062388181686 0.07674985378980637 -0.041446927934885025 -0.0986088439822197 -0.084641233086586 -0.02340969257056713 0.0650455430150032 -0.051428064703941345 0.06028134003281593 0.04812309145927429 -0.04136959835886955 -0.013890963047742844 0.07846160978078842 0.0027586687356233597 0.13242127001285553 0.07879596203565598 -0.04864826425909996 0.009748383425176144 -0.002525602700188756 0.04228343069553375 0.04304753616452217 -0.0558009147644043 -0.02146657183766365 0.024589044973254204 -0.029298994690179825 -0.0012592138955369592 0.014074458740651608 -0.04137827455997467 0.0019842693582177162 -0.03433080017566681 0.057460568845272064 -0.01397528126835823 -0.016815880313515663 0.07196104526519775 -0.02018740028142929 -0.10651680082082748 0.06035550311207771 0.012339930050075054 0.005774923134595156 -0.07315350323915482 0.003466440364718437 -0.0289164911955595 -0.03118017688393593 0.01693595014512539 -0.15214581787586212 0.08082945644855499 0.026719078421592712 0.07786806672811508 -0.0780930146574974 0.008509092032909393 -0.06421729177236557 0.050341054797172546 0.052840616554021835 0.0021846292074769735 0.046757206320762634 -0.0753665342926979 0.15898488461971283 0.045477885752916336 -0.011110435239970684 0.09933068603277206 -0.04054923728108406 0.010308531112968922 0.0003098333836533129 0.039685603231191635 0.032232366502285004 -0.059418171644210815 -0.010646232403814793 0.08346159756183624 0.04104752466082573 0.03246139734983444 0.06071034446358681 -0.06830775737762451 0.02603122405707836 7.45667566661723e-05 -0.008545816875994205 -0.04720918834209442 0.014192003756761551 0.047574128955602646 -0.15426097810268402 -0.019138189032673836 -0.08365557342767715 0.03799162805080414 -0.09946727007627487 -0.014978148974478245 -0.01059744507074356 0.026478270068764687 0.015169345773756504 0.10425188392400742 0.002331273863092065 -0.0036990370135754347 -0.019966058433055878 -0.13030920922756195 -0.0887976810336113 -0.06756798923015594 -0.003330962499603629 -0.014587823301553726 -0.059590745717287064 0.09652365744113922 -0.05855798348784447 0.04190491512417793 0.041342832148075104 0.006240378133952618 -0.0022114370949566364 -0.004214505199342966 -0.009002957493066788 -0.04707911238074303 0.003409912809729576 0.0871877372264862 -0.03430002182722092 -0.017969943583011627 0.1534850150346756 -0.0501159206032753 0.02882855385541916 -0.0805312767624855 -0.06012480705976486 0.0910174772143364 0.0629592090845108 -0.063590407371521 0.03739269822835922 -0.07744342088699341 -0.023819848895072937 0.06919700652360916 -0.031360089778900146 -0.06977178156375885 0.008582090958952904 0.06578978896141052 0.013926275074481964 0.03129468858242035 -0.10821308195590973 -0.035664137452840805 -0.035693392157554626 -0.0169029850512743 -0.06700208783149719 -0.037055958062410355 0.02669522725045681 -0.04229903221130371 -1.799206802388653e-05 0.01451125182211399 -0.03076038509607315 0.001666014431975782 -0.09964693337678909 0.08278609812259674 -0.04910692200064659 0.013096839189529419 0.09246000647544861 0.04014190286397934 -0.03435942530632019 -0.03556642308831215 0.01767524518072605 0.07208216935396194 0.06911036372184753 -0.039838433265686035 0.04888222739100456 0.029592221602797508 0.037645936012268066 -0.07431173324584961 0.026854200288653374 0.08758202940225601 -0.06728041917085648 -0.03419570252299309 -0.029138870537281036 0.04696383699774742 -0.10813122242689133 0.008179455995559692 -0.09314348548650742 0.05409570410847664 0.022348159924149513 0.007329348009079695 -0.07261018455028534 -0.0534084253013134 -0.03417209908366203 -0.05151628330349922 0.02885761857032776 -0.10109411925077438 -0.035767581313848495 -0.05721469968557358 0.013603262603282928 -0.013081884011626244 0.024496115744113922 -0.0068585495464503765 -0.15002229809761047 0.0037254977505654097 0.02740480750799179 0.04267236590385437
<unk> 0.024020586162805557 -0.001306893303990364 -0.017983369529247284 0.049518316984176636 0.026685623452067375 0.018781675025820732 -0.04078294709324837 -0.04581081122159958 -0.051863979548215866 0.08258426934480667 0.07941383123397827 0.06289010494947433 -0.038177475333213806 -0.04043024405837059 -0.06926881521940231 -0.08903729915618896 -0.011324108578264713 -0.06309600919485092 -0.03900925815105438 -0.058392081409692764 -0.057049088180065155 0.03181655704975128 0.006076027639210224 -0.12027367949485779 0.11708074808120728 -0.027980947867035866 0.06981222331523895 -0.004880568478256464 0.07543877512216568 -0.04467656463384628 -0.05334360897541046 -0.10984137654304504 0.01994430087506771 0.04201775789260864 0.05848851799964905 0.021625908091664314 0.08913309127092361 -0.02700646221637726 -0.0698888748884201 -0.049434177577495575 0.05678647384047508 0.011389913968741894 0.10219758003950119 -0.06447704881429672 0.01390407606959343 0.020042188465595245 0.04123900085687637 0.05627714842557907 -0.0005662829498760402 0.027630914002656937 0.01853892020881176 -0.06136017292737961 -0.0808643326163292 -0.0054328409023582935 -0.03733488917350769 0.007456498220562935 -0.02500324510037899 0.01902392879128456 0.09048474580049515 0.03407913073897362 0.07393750548362732 0.00930024217814207 0.033934447914361954 -0.015761401504278183 0.04344592243432999 0.01990179345011711 0.011597857810556889 0.09327268600463867 -0.06539571285247803 -0.04016953334212303 0.1297583431005478 0.14199842512607574 0.008420631289482117 -0.050909485667943954 0.03897049278020859 -0.06605368107557297 0.03270278126001358 0.05122247338294983 -0.02107820101082325 0.011044367216527462 -0.0016406833892688155 0.0503104105591774 0.055729903280735016 0.024775391444563866 0.029029469937086105 0.06411965936422348 0.032739028334617615 0.09940890967845917 0.0356081947684288 0.017595693469047546 0.020575180649757385 -0.02642957679927349 0.14606016874313354 0.10203250497579575 -0.08985602855682373 0.07448650896549225 0.05297046899795532 -0.0549718476831913 -0.0478946678340435 0.12056828290224075 -0.0009079829906113446 0.03094901330769062 0.011553074233233929 0.0033854201901704073 0.01740262843668461 0.015049316920340061 -0.014013554900884628 0.10875149071216583 0.06527535617351532 -0.07821422070264816 -0.07475431263446808 -0.06870104372501373 0.001051071914844215 -0.05351615324616432 0.04444435238838196 -0.025388440117239952 0.017550062388181686 0.07674985378980637 -0.041446927934885025 -0.0986088439822197 -0.084641233086586 -0.02340969257056713 0.0650455430150032 -0.051428064703941345 0.06028134003281593 0.04812309145927429 -0.04136959835886955 -0.013890963047742844 0.07846160978078842 0.0027586687356233597 0.13242127001285553 0.07879596203565598 -0.04864826425909996 0.009748383425176144 -0.002525602700188756 0.04228343069553375 0.04304753616452217 -0.0558009147644043 -0.02146657183766365 0.024589044973254204 -0.029298994690179825 -0.0012592138955369592 0.014074458740651608 -0.04137827455997467 0.0019842693582177162 -0.03433080017566681 0.057460568845272064 -0.01397528126835823 -0.016815880313515663 0.07196104526519775 -0.02018740028142929 -0.10651680082082748 0.06035550311207771 0.012339930050075054 0.005774923134595156 -0.07315350323915482 0.003466440364718437 -0.0289164911955595 -0.03118017688393593 0.01693595014512539 -0.15214581787586212 0.08082945644855499 0.026719078421592712 0.07786806672811508 -0.0780930146574974 0.008509092032909393 -0.06421729177236557 0.050341054797172546 0.052840616554021835 0.0021846292074769735 0.046757206320762634 -0.0753665342926979 0.15898488461971283 0.045477885752916336 -0.011110435239970684 0.09933068603277206 -0.04054923728108406 0.010308531112968922 0.0003098333836533129 0.039685603231191635 0.032232366502285004 -0.059418171644210815 -0.010646232403814793 0.08346159756183624 0.04104752466082573 0.03246139734983444 0.06071034446358681 -0.06830775737762451 0.02603122405707836 7.45667566661723e-05 -0.008545816875994205 -0.04720918834209442 0.014192003756761551 0.047574128955602646 -0.15426097810268402 -0.019138189032673836 -0.08365557342767715 0.03799162805080414 -0.09946727007627487 -0.014978148974478245 -0.01059744507074356 0.026478270068764687 0.015169345773756504 0.10425188392400742 0.002331273863092065 -0.0036990370135754347 -0.019966058433055878 -0.13030920922756195 -0.0887976810336113 -0.06756798923015594 -0.003330962499603629 -0.014587823301553726 -0.059590745717287064 0.09652365744113922 -0.05855798348784447 0.04190491512417793 0.041342832148075104 0.006240378133952618 -0.0022114370949566364 -0.004214505199342966 -0.009002957493066788 -0.04707911238074303 0.003409912809729576 0.0871877372264862 -0.03430002182722092 -0.017969943583011627 0.1534850150346756 -0.0501159206032753 0.02882855385541916 -0.0805312767624855 -0.06012480705976486 0.0910174772143364 0.0629592090845108 -0.063590407371521 0.03739269822835922 -0.07744342088699341 -0.023819848895072937 0.06919700652360916 -0.031360089778900146 -0.06977178156375885 0.008582090958952904 0.06578978896141052 0.013926275074481964 0.03129468858242035 -0.10821308195590973 -0.035664137452840805 -0.035693392157554626 -0.0169029850512743 -0.06700208783149719 -0.037055958062410355 0.02669522725045681 -0.04229903221130371 -1.799206802388653e-05 0.01451125182211399 -0.03076038509607315 0.001666014431975782 -0.09964693337678909 0.08278609812259674 -0.04910692200064659 0.013096839189529419 0.09246000647544861 0.04014190286397934 -0.03435942530632019 -0.03556642308831215 0.01767524518072605 0.07208216935396194 0.06911036372184753 -0.039838433265686035 0.04888222739100456 0.029592221602797508 0.037645936012268066 -0.07431173324584961 0.026854200288653374 0.08758202940225601 -0.06728041917085648 -0.03419570252299309 -0.029138870537281036 0.04696383699774742 -0.10813122242689133 0.008179455995559692 -0.09314348548650742 0.05409570410847664 0.022348159924149513 0.007329348009079695 -0.07261018455028534 -0.0534084253013134 -0.03417209908366203 -0.05151628330349922 0.02885761857032776 -0.10109411925077438 -0.035767581313848495 -0.05721469968557358 0.013603262603282928 -0.013081884011626244 0.024496115744113922 -0.0068585495464503765 -0.15002229809761047 0.0037254977505654097 0.02740480750799179 0.04267236590385437
<unk> 0.024020586162805557 -0.001306893303990364 -0.017983369529247284 0.049518316984176636 0.026685623452067375 0.018781675025820732 -0.04078294709324837 -0.04581081122159958 -0.051863979548215866 0.08258426934480667 0.07941383123397827 0.06289010494947433 -0.038177475333213806 -0.04043024405837059 -0.06926881521940231 -0.08903729915618896 -0.011324108578264713 -0.06309600919485092 -0.03900925815105438 -0.058392081409692764 -0.057049088180065155 0.03181655704975128 0.006076027639210224 -0.12027367949485779 0.11708074808120728 -0.027980947867035866 0.06981222331523895 -0.004880568478256464 0.07543877512216568 -0.04467656463384628 -0.05334360897541046 -0.10984137654304504 0.01994430087506771 0.04201775789260864 0.05848851799964905 0.021625908091664314 0.08913309127092361 -0.02700646221637726 -0.0698888748884201 -0.049434177577495575 0.05678647384047508 0.011389913968741894 0.10219758003950119 -0.06447704881429672 0.01390407606959343 0.020042188465595245 0.04123900085687637 0.05627714842557907 -0.0005662829498760402 0.027630914002656937 0.01853892020881176 -0.06136017292737961 -0.0808643326163292 -0.0054328409023582935 -0.03733488917350769 0.007456498220562935 -0.02500324510037899 0.01902392879128456 0.09048474580049515 0.03407913073897362 0.07393750548362732 0.00930024217814207 0.033934447914361954 -0.015761401504278183 0.04344592243432999 0.01990179345011711 0.011597857810556889 0.09327268600463867 -0.06539571285247803 -0.04016953334212303 0.1297583431005478 0.14199842512607574 0.008420631289482117 -0.050909485667943954 0.03897049278020859 -0.06605368107557297 0.03270278126001358 0.05122247338294983 -0.02107820101082325 0.011044367216527462 -0.0016406833892688155 0.0503104105591774 0.055729903280735016 0.024775391444563866 0.029029469937086105 0.06411965936422348 0.032739028334617615 0.09940890967845917 0.0356081947684288 0.017595693469047546 0.020575180649757385 -0.02642957679927349 0.14606016874313354 0.10203250497579575 -0.08985602855682373 0.07448650896549225 0.05297046899795532 -0.0549718476831913 -0.0478946678340435 0.12056828290224075 -0.0009079829906113446 0.03094901330769062 0.011553074233233929 0.0033854201901704073 0.01740262843668461 0.015049316920340061 -0.014013554900884628 0.10875149071216583 0.06527535617351532 -0.07821422070264816 -0.07475431263446808 -0.06870104372501373 0.001051071914844215 -0.05351615324616432 0.04444435238838196 -0.025388440117239952 0.017550062388181686 0.07674985378980637 -0.041446927934885025 -0.0986088439822197 -0.084641233086586 -0.02340969257056713 0.0650455430150032 -0.051428064703941345 0.06028134003281593 0.04812309145927429 -0.04136959835886955 -0.013890963047742844 0.07846160978078842 0.0027586687356233597 0.13242127001285553 0.07879596203565598 -0.04864826425909996 0.009748383425176144 -0.002525602700188756 0.04228343069553375 0.04304753616452217 -0.0558009147644043 -0.02146657183766365 0.024589044973254204 -0.029298994690179825 -0.0012592138955369592 0.014074458740651608 -0.04137827455997467 0.0019842693582177162 -0.03433080017566681 0.057460568845272064 -0.01397528126835823 -0.016815880313515663 0.07196104526519775 -0.02018740028142929 -0.10651680082082748 0.06035550311207771 0.012339930050075054 0.005774923134595156 -0.07315350323915482 0.003466440364718437 -0.0289164911955595 -0.03118017688393593 0.01693595014512539 -0.15214581787586212 0.08082945644855499 0.026719078421592712 0.07786806672811508 -0.0780930146574974 0.008509092032909393 -0.06421729177236557 0.050341054797172546 0.052840616554021835 0.0021846292074769735 0.046757206320762634 -0.0753665342926979 0.15898488461971283 0.045477885752916336 -0.011110435239970684 0.09933068603277206 -0.04054923728108406 0.010308531112968922 0.0003098333836533129 0.039685603231191635 0.032232366502285004 -0.059418171644210815 -0.010646232403814793 0.08346159756183624 0.04104752466082573 0.03246139734983444 0.06071034446358681 -0.06830775737762451 0.02603122405707836 7.45667566661723e-05 -0.008545816875994205 -0.04720918834209442 0.014192003756761551 0.047574128955602646 -0.15426097810268402 -0.019138189032673836 -0.08365557342767715 0.03799162805080414 -0.09946727007627487 -0.014978148974478245 -0.01059744507074356 0.026478270068764687 0.015169345773756504 0.10425188392400742 0.002331273863092065 -0.0036990370135754347 -0.019966058433055878 -0.13030920922756195 -0.0887976810336113 -0.06756798923015594 -0.003330962499603629 -0.014587823301553726 -0.059590745717287064 0.09652365744113922 -0.05855798348784447 0.04190491512417793 0.041342832148075104 0.006240378133952618 -0.0022114370949566364 -0.004214505199342966 -0.009002957493066788 -0.04707911238074303 0.003409912809729576 0.0871877372264862 -0.03430002182722092 -0.017969943583011627 0.1534850150346756 -0.0501159206032753 0.02882855385541916 -0.0805312767624855 -0.06012480705976486 0.0910174772143364 0.0629592090845108 -0.063590407371521 0.03739269822835922 -0.07744342088699341 -0.023819848895072937 0.06919700652360916 -0.031360089778900146 -0.06977178156375885 0.008582090958952904 0.06578978896141052 0.013926275074481964 0.03129468858242035 -0.10821308195590973 -0.035664137452840805 -0.035693392157554626 -0.0169029850512743 -0.06700208783149719 -0.037055958062410355 0.02669522725045681 -0.04229903221130371 -1.799206802388653e-05 0.01451125182211399 -0.03076038509607315 0.001666014431975782 -0.09964693337678909 0.08278609812259674 -0.04910692200064659 0.013096839189529419 0.09246000647544861 0.04014190286397934 -0.03435942530632019 -0.03556642308831215 0.01767524518072605 0.07208216935396194 0.06911036372184753 -0.039838433265686035 0.04888222739100456 0.029592221602797508 0.037645936012268066 -0.07431173324584961 0.026854200288653374 0.08758202940225601 -0.06728041917085648 -0.03419570252299309 -0.029138870537281036 0.04696383699774742 -0.10813122242689133 0.008179455995559692 -0.09314348548650742 0.05409570410847664 0.022348159924149513 0.007329348009079695 -0.07261018455028534 -0.0534084253013134 -0.03417209908366203 -0.05151628330349922 0.02885761857032776 -0.10109411925077438 -0.035767581313848495 -0.05721469968557358 0.013603262603282928 -0.013081884011626244 0.024496115744113922 -0.0068585495464503765 -0.15002229809761047 0.0037254977505654097 0.02740480750799179 0.04267236590385437
heavy 0.1122271865606308 -0.012796756811439991 -0.03714296221733093 0.025997934862971306 -0.08049170672893524 -0.0015385154401883483 0.03963787108659744 0.04622397944331169 0.03443112596869469 0.0031877639703452587 -0.047229379415512085 -0.0972505658864975 0.10868997871875763 -0.008090910501778126 -0.021924149245023727 -0.048843756318092346 0.10995886474847794 -0.0227128304541111 0.028884032741189003 0.022852782160043716 0.017139751464128494 -0.09263728559017181 0.12723881006240845 -0.00040653455653227866 0.017211852595210075 -0.08664935827255249 0.03996075317263603 -0.05892954766750336 -0.008197049610316753 0.004266778472810984 -0.041367556899785995 -0.11470679938793182 -0.04986128956079483 0.07770287245512009 0.005598743446171284 -0.06747168302536011 0.06115283444523811 -0.06628361344337463 0.0688025951385498 -0.012918470427393913 -0.04962138086557388 -0.09375031292438507 0.020564420148730278 0.00017957674572244287 -0.06608861684799194 0.014315454289317131 -0.11044323444366455 0.050802744925022125 0.007889560423791409 -0.04852881282567978 -0.013933965936303139 0.07663116604089737 -0.04600303992629051 0.005562011152505875 0.11925551295280457 0.004118019249290228 -0.005461937747895718 0.016866469755768776 -0.009250152856111526 0.020754121243953705 0.052965447306632996 -0.09251576662063599 0.043838731944561005 -0.03599598631262779 -0.11403653025627136 -0.09197808802127838 0.005011873785406351 -0.0174921452999115 -0.04143274575471878 0.03858787193894386 0.006420050282031298 -0.08138066530227661 -0.06037211790680885 -0.11042305082082748 0.07671122997999191 -0.050200823694467545 0.08524307608604431 -0.027038423344492912 -0.06505385786294937 0.014410811476409435 0.05564143508672714 0.08979637920856476 0.028810804709792137 -0.010117631405591965 0.05960323289036751 -0.08774890005588531 -0.006445590872317553 0.046056345105171204 -0.12057062983512878 -0.033165495842695236 -0.05885126069188118 -0.0558549128472805 -0.021497728303074837 -0.032786786556243896 -0.006479335017502308 -0.05879879742860794 -0.04754719138145447 -0.09804221987724304 -0.007647376973181963 0.10702583193778992 0.035879213362932205 0.035318125039339066 -0.01660746894776821 0.035257209092378616 -0.0142744155600667 -0.05348023399710655 -0.021397750824689865 -0.010879240930080414 0.0175112783908844 -0.014514354057610035 0.08064762502908707 0.03330028057098389 -0.013768337666988373 -0.10354948788881302 0.08870184421539307 -0.08782290667295456 0.03366640955209732 -0.0005115167587064207 -0.030577240511775017 -0.0664825588464737 0.0638437420129776 0.004791079554706812 0.0302963275462389 -0.03683299943804741 0.050467222929000854 0.06523766368627548 -0.06444859504699707 -0.024174604564905167 0.0741996318101883 0.008873332291841507 0.10008884966373444 -0.011709650978446007 -0.02149718627333641 -0.06385980546474457 0.021451270207762718 -0.12083186954259872 0.019309943541884422 0.04861677438020706 -0.0049151224084198475 -0.01123698428273201 -0.01327178068459034 -0.050480011850595474 -0.045195478945970535 0.039006974548101425 -0.08881750702857971 -0.03577841445803642 -0.058510735630989075 -0.040121860802173615 0.015379838645458221 -0.06076580286026001 -0.020820826292037964 0.03987100347876549 0.017383968457579613 -0.005597141105681658 0.012014115229249 -0.039646465331315994 0.06657247990369797 0.0006782132550142705 0.07766121625900269 0.006655812729150057 -0.03423326089978218 0.0019416570430621505 0.07649093121290207 0.06615447252988815 -0.12651878595352173 0.04543989151716232 -0.09299919009208679 -0.042552635073661804 -0.02903061732649803 0.056310977786779404 -0.08271593600511551 -0.0037229775916785 -0.054044678807258606 0.03495681658387184 0.006506533827632666 0.09192738682031631 -0.00040208103018812835 -0.008324164897203445 0.06291050463914871 -0.010617934167385101 0.00017827760893851519 0.00613082479685545 0.009628801606595516 -0.083358034491539 0.01896025985479355 0.03028787672519684 -0.034459251910448074 -0.011253820732235909 -0.0008510940824635327 -0.12287532538175583 -0.06142353639006615 0.03440472483634949 -0.0659734383225441 0.0679008811712265 -0.03656240180134773 -0.06157417595386505 0.07543576508760452 -0.07074148952960968 -0.060922905802726746 -0.08778662979602814 0.09724374860525131 -0.09076036512851715 -0.07198377698659897 -0.0615629218518734 -0.04711670055985451 0.021935101598501205 -0.04538474977016449 -0.02515793778002262 0.034109946340322495 -0.05097440630197525 -0.027537556365132332 -0.08558708429336548 0.1135459616780281 0.0775541290640831 0.039777398109436035 0.043642375618219376 0.07642266154289246 0.027774300426244736 -0.03577793017029762 -0.11992935091257095 0.012103942222893238 0.010520264506340027 -0.062354136258363724 0.004183598328381777 0.06463373452425003 -0.005862715654075146 0.0951019674539566 -0.05757319927215576 0.018434863537549973 0.07938636094331741 -0.00936032459139824 -0.04293942078948021 -0.0017376831965520978 -0.09015009552240372 0.02689886838197708 -0.006706617772579193 -0.004824061878025532 0.0677868202328682 0.016541309654712677 0.015425019897520542 0.05276370048522949 0.13246001303195953 0.05186885967850685 0.08102286607027054 -0.07236478477716446 -0.024277590215206146 -0.03217814117670059 -0.02282068505883217 0.0582297183573246 0.03545934706926346 -0.06986147165298462 0.055762626230716705 0.08403021842241287 -0.04438043758273125 0.02908800169825554 0.12057549506425858 -0.0046195462346076965 0.10508933663368225 0.030178816989064217 0.04671020805835724 -0.021486643701791763 -0.00015901474398560822 -0.058841537684202194 0.09450370073318481 0.11136327683925629 0.08243008702993393 0.0377504900097847 -0.02937968634068966 0.005701407324522734 0.04228809475898743 0.06350526213645935 0.06370847672224045 0.06707560271024704 -0.0025326760951429605 -0.006644224748015404 0.0339554063975811 0.04488880932331085 -0.1229683980345726 0.0065952204167842865 0.030568283051252365 0.11319106072187424 0.005693960934877396 -0.10294529050588608 0.023061120882630348 -0.0632212907075882 0.07464911043643951 -0.006590221077203751 0.04333686828613281 -0.07561444491147995 -0.018112292513251305 -0.02692047879099846 -0.06726574897766113 0.02308233641088009 -0.11467134207487106 -0.04738360270857811 -0.013104486279189587 0.007283512502908707 -0.07177236676216125 -0.039158374071121216 -0.05793227627873421
floor 0.07758300006389618 -0.149916410446167 0.06108514592051506 -0.013892149552702904 0.09910950809717178 0.017902448773384094 -0.03793034702539444 0.11770045757293701 -0.020545409992337227 0.03038855642080307 -0.028495028614997864 0.009852753952145576 -0.13328956067562103 -0.01630571484565735 -0.07494466006755829 0.010195335373282433 0.07758383452892303 0.0479060560464859 -0.0011778739280998707 -0.0386710949242115 0.01706688292324543 0.09174878150224686 -0.025319701060652733 0.03994191810488701 0.1370982676744461 -0.09845241159200668 0.02809111215174198 0.006808448117226362 -0.0026623113080859184 0.08513622730970383 -0.07752308994531631 0.08108086884021759 0.026432478800415993 0.0036904194857925177 0.02936377562582493 0.034368518739938736 0.08658511191606522 0.06940151751041412 0.037161000072956085 0.039262257516384125 -0.028535138815641403 0.04124370217323303 -0.01215396262705326 0.03722168877720833 -0.11125201731920242 0.09529197216033936 -0.09455864131450653 0.007759236264973879 0.0033722366206347942 0.03842683136463165 -0.03500598669052124 -0.042810019105672836 -0.04403292387723923 0.028948597609996796 0.05512615293264389 -0.022669076919555664 0.019357692450284958 -0.022097185254096985 -0.03386986628174782 -0.01526355929672718 -0.002562582492828369 0.08727212250232697 -0.016521908342838287 -0.0006299486267380416 -0.09975873678922653 0.07536894828081131 0.018815405666828156 0.0684071034193039 0.025687050074338913 -0.02551618032157421 0.007953853346407413 0.13925157487392426 0.08505915105342865 0.04505870118737221 -0.13535934686660767 -0.051875825971364975 -0.04276460409164429 0.10767287015914917 0.029021676629781723 0.0503072589635849 0.026834474876523018 -0.1657508760690689 -0.05150109902024269 -0.023354172706604004 0.07604904472827911 0.15234211087226868 0.05123400315642357 0.06573851406574249 0.011100162751972675 -0.0024375447537750006 0.034979723393917084 0.026516735553741455 -0.0609162263572216 0.029156770557165146 0.10028290748596191 -0.04661174491047859 -0.022395307198166847 -0.01984592154622078 -0.0041780234314501286 0.0710812509059906 -0.012178588658571243 -0.04144379496574402 0.0607612319290638 0.04272798076272011 0.01939139887690544 0.048774100840091705 0.09182855486869812 -0.024362273514270782 0.02386435493826866 0.05208061262965202 0.19717130064964294 -0.002913788892328739 0.08585574477910995 0.011515629477798939 -0.04935172572731972 -0.01574193872511387 0.03487706184387207 0.0009311964968219399 0.026342054829001427 -0.0038823550567030907 -0.08560863137245178 0.011419889517128468 -0.02150007337331772 0.012111267074942589 0.019941799342632294 -0.025111882016062737 -0.02755074016749859 0.001471992931328714 0.023066559806466103 -0.06382042914628983 -0.00016467971727252007 0.06204376369714737 -0.12216673046350479 -0.040033429861068726 -0.04809137061238289 -0.01407121866941452 0.017555883154273033 -0.04050423577427864 0.10948918759822845 0.03464782238006592 0.0005065661389380693 0.024133143946528435 -0.08367259055376053 0.08254367113113403 -0.061688072979450226 -0.0009868323104456067 -0.03913557156920433 -0.06340088695287704 0.02142578549683094 0.05743194743990898 0.015128782019019127 0.09057121723890305 0.012249595485627651 -0.03588692098855972 0.08714114874601364 -0.021089835092425346 -0.005044064484536648 -0.0024742945097386837 0.07277451455593109 -0.05680530145764351 0.1067185327410698 -0.01744992658495903 0.0005824166000820696 0.023365074768662453 -0.00415531313046813 0.01028482336550951 0.07785599678754807 -0.06061411648988724 -0.024756357073783875 -0.035773660987615585 -0.029347842559218407 0.048347700387239456 -0.0455365926027298 -0.015706459060311317 -0.04038083553314209 -0.06601271033287048 -0.10876917093992233 0.03127175569534302 0.021643707528710365 0.08733515441417694 -0.017912549898028374 -0.11909306049346924 0.1273253858089447 -0.016918104141950607 -0.038498565554618835 0.04902448505163193 -0.0026969797909259796 0.02970927022397518 -0.14934368431568146 0.0114173274487257 0.01794663444161415 0.0808502584695816 0.0026130208279937506 0.05175207182765007 0.01737169362604618 -0.09218519181013107 0.0793173685669899 -0.010401121340692043 0.07291637361049652 -0.019256720319390297 0.0475086085498333 0.044488850980997086 -0.031909216195344925 -0.028866581618785858 0.014792356640100479 0.045690037310123444 -0.031397148966789246 0.13694870471954346 0.0017402850789949298 -0.04757888615131378 0.05292443558573723 0.04522484913468361 0.0690484344959259 -0.05614928901195526 0.11302963644266129 -0.0049720932729542255 0.055631235241889954 -0.029653275385499 0.07016286253929138 0.03326455131173134 0.07960642129182816 -0.0135717261582613 0.03786150738596916 0.01528723444789648 -0.028235848993062973 0.09379316866397858 0.09373655915260315 0.02798527479171753 -0.03472472354769707 -0.10460419207811356 0.07063378393650055 -0.03723205626010895 0.041501130908727646 -0.0017577125690877438 -0.0050008236430585384 -0.08575774729251862 0.015653396025300026 0.002455946523696184 0.05912460386753082 -0.028616704046726227 -0.044282861053943634 -0.012498827651143074 0.028601355850696564 0.018116800114512444 0.06220345199108124 -0.10527291148900986 -0.061145469546318054 -0.008482742123305798 -0.09075374156236649 0.013021686114370823 0.07176969945430756 0.01274761464446783 0.10426395386457443 -0.03636352717876434 0.012936525978147984 0.0037129800766706467 -0.03196708485484123 0.005521067883819342 0.047756556421518326 0.052885502576828 0.012955911457538605 -0.038650184869766235 0.08207189291715622 -0.03673243522644043 -0.06188412755727768 0.049232117831707 0.00023343357315752655 -0.05497162789106369 0.013609462417662144 0.055232033133506775 0.010061576962471008 0.05183752626180649 -0.03969421610236168 -0.014118654653429985 -0.01760387234389782 -0.022123070433735847 -0.008659742772579193 -0.009131786413490772 -0.0053090197034180164 0.0308393444865942 0.015161365270614624 -0.1046026423573494 0.03756602853536606 0.056006114929914474 -0.09119912981987 -0.017609847709536552 0.06929876655340195 -0.019191212952136993 0.06194841489195824 -0.01697801612317562 -0.055332135409116745 0.049100518226623535 0.014904282987117767 -0.05787697806954384 0.06300127506256104 0.07616782933473587 -0.06216993182897568 0.034766390919685364 -0.028269700706005096 0.01574871502816677
<unk> 0.024020586162805557 -0.001306893303990364 -0.017983369529247284 0.049518316984176636 0.026685623452067375 0.018781675025820732 -0.04078294709324837 -0.04581081122159958 -0.051863979548215866 0.08258426934480667 0.07941383123397827 0.06289010494947433 -0.038177475333213806 -0.04043024405837059 -0.06926881521940231 -0.08903729915618896 -0.011324108578264713 -0.06309600919485092 -0.03900925815105438 -0.058392081409692764 -0.057049088180065155 0.03181655704975128 0.006076027639210224 -0.12027367949485779 0.11708074808120728 -0.027980947867035866 0.06981222331523895 -0.004880568478256464 0.07543877512216568 -0.04467656463384628 -0.05334360897541046 -0.10984137654304504 0.01994430087506771 0.04201775789260864 0.05848851799964905 0.021625908091664314 0.08913309127092361 -0.02700646221637726 -0.0698888748884201 -0.049434177577495575 0.05678647384047508 0.011389913968741894 0.10219758003950119 -0.06447704881429672 0.01390407606959343 0.020042188465595245 0.04123900085687637 0.05627714842557907 -0.0005662829498760402 0.027630914002656937 0.01853892020881176 -0.06136017292737961 -0.0808643326163292 -0.0054328409023582935 -0.03733488917350769 0.007456498220562935 -0.02500324510037899 0.01902392879128456 0.09048474580049515 0.03407913073897362 0.07393750548362732 0.00930024217814207 0.033934447914361954 -0.015761401504278183 0.04344592243432999 0.01990179345011711 0.011597857810556889 0.09327268600463867 -0.06539571285247803 -0.04016953334212303 0.1297583431005478 0.14199842512607574 0.008420631289482117 -0.050909485667943954 0.03897049278020859 -0.06605368107557297 0.03270278126001358 0.05122247338294983 -0.02107820101082325 0.011044367216527462 -0.0016406833892688155 0.0503104105591774 0.055729903280735016 0.024775391444563866 0.029029469937086105 0.06411965936422348 0.032739028334617615 0.09940890967845917 0.0356081947684288 0.017595693469047546 0.020575180649757385 -0.02642957679927349 0.14606016874313354 0.10203250497579575 -0.08985602855682373 0.07448650896549225 0.05297046899795532 -0.0549718476831913 -0.0478946678340435 0.12056828290224075 -0.0009079829906113446 0.03094901330769062 0.011553074233233929 0.0033854201901704073 0.01740262843668461 0.015049316920340061 -0.014013554900884628 0.10875149071216583 0.06527535617351532 -0.07821422070264816 -0.07475431263446808 -0.06870104372501373 0.001051071914844215 -0.05351615324616432 0.04444435238838196 -0.025388440117239952 0.017550062388181686 0.07674985378980637 -0.041446927934885025 -0.0986088439822197 -0.084641233086586 -0.02340969257056713 0.0650455430150032 -0.051428064703941345 0.06028134003281593 0.04812309145927429 -0.04136959835886955 -0.013890963047742844 0.07846160978078842 0.0027586687356233597 0.13242127001285553 0.07879596203565598 -0.04864826425909996 0.009748383425176144 -0.002525602700188756 0.04228343069553375 0.04304753616452217 -0.0558009147644043 -0.02146657183766365 0.024589044973254204 -0.029298994690179825 -0.0012592138955369592 0.014074458740651608 -0.04137827455997467 0.0019842693582177162 -0.03433080017566681 0.057460568845272064 -0.01397528126835823 -0.016815880313515663 0.07196104526519775 -0.02018740028142929 -0.10651680082082748 0.06035550311207771 0.012339930050075054 0.005774923134595156 -0.07315350323915482 0.003466440364718437 -0.0289164911955595 -0.03118017688393593 0.01693595014512539 -0.15214581787586212 0.08082945644855499 0.026719078421592712 0.07786806672811508 -0.0780930146574974 0.008509092032909393 -0.06421729177236557 0.050341054797172546 0.052840616554021835 0.0021846292074769735 0.046757206320762634 -0.0753665342926979 0.15898488461971283 0.045477885752916336 -0.011110435239970684 0.09933068603277206 -0.04054923728108406 0.010308531112968922 0.0003098333836533129 0.039685603231191635 0.032232366502285004 -0.059418171644210815 -0.010646232403814793 0.08346159756183624 0.04104752466082573 0.03246139734983444 0.06071034446358681 -0.06830775737762451 0.02603122405707836 7.45667566661723e-05 -0.008545816875994205 -0.04720918834209442 0.014192003756761551 0.047574128955602646 -0.15426097810268402 -0.019138189032673836 -0.08365557342767715 0.03799162805080414 -0.09946727007627487 -0.014978148974478245 -0.01059744507074356 0.026478270068764687 0.015169345773756504 0.10425188392400742 0.002331273863092065 -0.0036990370135754347 -0.019966058433055878 -0.13030920922756195 -0.0887976810336113 -0.06756798923015594 -0.003330962499603629 -0.014587823301553726 -0.059590745717287064 0.09652365744113922 -0.05855798348784447 0.04190491512417793 0.041342832148075104 0.006240378133952618 -0.0022114370949566364 -0.004214505199342966 -0.009002957493066788 -0.04707911238074303 0.003409912809729576 0.0871877372264862 -0.03430002182722092 -0.017969943583011627 0.1534850150346756 -0.0501159206032753 0.02882855385541916 -0.0805312767624855 -0.06012480705976486 0.0910174772143364 0.0629592090845108 -0.063590407371521 0.03739269822835922 -0.07744342088699341 -0.023819848895072937 0.06919700652360916 -0.031360089778900146 -0.06977178156375885 0.008582090958952904 0.06578978896141052 0.013926275074481964 0.03129468858242035 -0.10821308195590973 -0.035664137452840805 -0.035693392157554626 -0.0169029850512743 -0.06700208783149719 -0.037055958062410355 0.02669522725045681 -0.04229903221130371 -1.799206802388653e-05 0.01451125182211399 -0.03076038509607315 0.001666014431975782 -0.09964693337678909 0.08278609812259674 -0.04910692200064659 0.013096839189529419 0.09246000647544861 0.04014190286397934 -0.03435942530632019 -0.03556642308831215 0.01767524518072605 0.07208216935396194 0.06911036372184753 -0.039838433265686035 0.04888222739100456 0.029592221602797508 0.037645936012268066 -0.07431173324584961 0.026854200288653374 0.08758202940225601 -0.06728041917085648 -0.03419570252299309 -0.029138870537281036 0.04696383699774742 -0.10813122242689133 0.008179455995559692 -0.09314348548650742 0.05409570410847664 0.022348159924149513 0.007329348009079695 -0.07261018455028534 -0.0534084253013134 -0.03417209908366203 -0.05151628330349922 0.02885761857032776 -0.10109411925077438 -0.035767581313848495 -0.05721469968557358 0.013603262603282928 -0.013081884011626244 0.024496115744113922 -0.0068585495464503765 -0.15002229809761047 0.0037254977505654097 0.02740480750799179 0.04267236590385437
<unk> 0.024020586162805557 -0.001306893303990364 -0.017983369529247284 0.049518316984176636 0.026685623452067375 0.018781675025820732 -0.04078294709324837 -0.04581081122159958 -0.051863979548215866 0.08258426934480667 0.07941383123397827 0.06289010494947433 -0.038177475333213806 -0.04043024405837059 -0.06926881521940231 -0.08903729915618896 -0.011324108578264713 -0.06309600919485092 -0.03900925815105438 -0.058392081409692764 -0.057049088180065155 0.03181655704975128 0.006076027639210224 -0.12027367949485779 0.11708074808120728 -0.027980947867035866 0.06981222331523895 -0.004880568478256464 0.07543877512216568 -0.04467656463384628 -0.05334360897541046 -0.10984137654304504 0.01994430087506771 0.04201775789260864 0.05848851799964905 0.021625908091664314 0.08913309127092361 -0.02700646221637726 -0.0698888748884201 -0.049434177577495575 0.05678647384047508 0.011389913968741894 0.10219758003950119 -0.06447704881429672 0.01390407606959343 0.020042188465595245 0.04123900085687637 0.05627714842557907 -0.0005662829498760402 0.027630914002656937 0.01853892020881176 -0.06136017292737961 -0.0808643326163292 -0.0054328409023582935 -0.03733488917350769 0.007456498220562935 -0.02500324510037899 0.01902392879128456 0.09048474580049515 0.03407913073897362 0.07393750548362732 0.00930024217814207 0.033934447914361954 -0.015761401504278183 0.04344592243432999 0.01990179345011711 0.011597857810556889 0.09327268600463867 -0.06539571285247803 -0.04016953334212303 0.1297583431005478 0.14199842512607574 0.008420631289482117 -0.050909485667943954 0.03897049278020859 -0.06605368107557297 0.03270278126001358 0.05122247338294983 -0.02107820101082325 0.011044367216527462 -0.0016406833892688155 0.0503104105591774 0.055729903280735016 0.024775391444563866 0.029029469937086105 0.06411965936422348 0.032739028334617615 0.09940890967845917 0.0356081947684288 0.017595693469047546 0.020575180649757385 -0.02642957679927349 0.14606016874313354 0.10203250497579575 -0.08985602855682373 0.07448650896549225 0.05297046899795532 -0.0549718476831913 -0.0478946678340435 0.12056828290224075 -0.0009079829906113446 0.03094901330769062 0.011553074233233929 0.0033854201901704073 0.01740262843668461 0.015049316920340061 -0.014013554900884628 0.10875149071216583 0.06527535617351532 -0.07821422070264816 -0.07475431263446808 -0.06870104372501373 0.001051071914844215 -0.05351615324616432 0.04444435238838196 -0.025388440117239952 0.017550062388181686 0.07674985378980637 -0.041446927934885025 -0.0986088439822197 -0.084641233086586 -0.02340969257056713 0.0650455430150032 -0.051428064703941345 0.06028134003281593 0.04812309145927429 -0.04136959835886955 -0.013890963047742844 0.07846160978078842 0.0027586687356233597 0.13242127001285553 0.07879596203565598 -0.04864826425909996 0.009748383425176144 -0.002525602700188756 0.04228343069553375 0.04304753616452217 -0.0558009147644043 -0.02146657183766365 0.024589044973254204 -0.029298994690179825 -0.0012592138955369592 0.014074458740651608 -0.04137827455997467 0.0019842693582177162 -0.03433080017566681 0.057460568845272064 -0.01397528126835823 -0.016815880313515663 0.07196104526519775 -0.02018740028142929 -0.10651680082082748 0.06035550311207771 0.012339930050075054 0.005774923134595156 -0.07315350323915482 0.003466440364718437 -0.0289164911955595 -0.03118017688393593 0.01693595014512539 -0.15214581787586212 0.08082945644855499 0.026719078421592712 0.07786806672811508 -0.0780930146574974 0.008509092032909393 -0.06421729177236557 0.050341054797172546 0.052840616554021835 0.0021846292074769735 0.046757206320762634 -0.0753665342926979 0.15898488461971283 0.045477885752916336 -0.011110435239970684 0.09933068603277206 -0.04054923728108406 0.010308531112968922 0.0003098333836533129 0.039685603231191635 0.032232366502285004 -0.059418171644210815 -0.010646232403814793 0.08346159756183624 0.04104752466082573 0.03246139734983444 0.06071034446358681 -0.06830775737762451 0.02603122405707836 7.45667566661723e-05 -0.008545816875994205 -0.04720918834209442 0.014192003756761551 0.047574128955602646 -0.15426097810268402 -0.019138189032673836 -0.08365557342767715 0.03799162805080414 -0.09946727007627487 -0.014978148974478245 -0.01059744507074356 0.026478270068764687 0.015169345773756504 0.10425188392400742 0.002331273863092065 -0.0036990370135754347 -0.019966058433055878 -0.13030920922756195 -0.0887976810336113 -0.06756798923015594 -0.003330962499603629 -0.014587823301553726 -0.059590745717287064 0.09652365744113922 -0.05855798348784447 0.04190491512417793 0.041342832148075104 0.006240378133952618 -0.0022114370949566364 -0.004214505199342966 -0.009002957493066788 -0.04707911238074303 0.003409912809729576 0.0871877372264862 -0.03430002182722092 -0.017969943583011627 0.1534850150346756 -0.0501159206032753 0.02882855385541916 -0.0805312767624855 -0.06012480705976486 0.0910174772143364 0.0629592090845108 -0.063590407371521 0.03739269822835922 -0.07744342088699341 -0.023819848895072937 0.06919700652360916 -0.031360089778900146 -0.06977178156375885 0.008582090958952904 0.06578978896141052 0.013926275074481964 0.03129468858242035 -0.10821308195590973 -0.035664137452840805 -0.035693392157554626 -0.0169029850512743 -0.06700208783149719 -0.037055958062410355 0.02669522725045681 -0.04229903221130371 -1.799206802388653e-05 0.01451125182211399 -0.03076038509607315 0.001666014431975782 -0.09964693337678909 0.08278609812259674 -0.04910692200064659 0.013096839189529419 0.09246000647544861 0.04014190286397934 -0.03435942530632019 -0.03556642308831215 0.01767524518072605 0.07208216935396194 0.06911036372184753 -0.039838433265686035 0.04888222739100456 0.029592221602797508 0.037645936012268066 -0.07431173324584961 0.026854200288653374 0.08758202940225601 -0.06728041917085648 -0.03419570252299309 -0.029138870537281036 0.04696383699774742 -0.10813122242689133 0.008179455995559692 -0.09314348548650742 0.05409570410847664 0.022348159924149513 0.007329348009079695 -0.07261018455028534 -0.0534084253013134 -0.03417209908366203 -0.05151628330349922 0.02885761857032776 -0.10109411925077438 -0.035767581313848495 -0.05721469968557358 0.013603262603282928 -0.013081884011626244 0.024496115744113922 -0.0068585495464503765 -0.15002229809761047 0.0037254977505654097 0.02740480750799179 0.04267236590385437
<unk> 0.024020586162805557 -0.001306893303990364 -0.017983369529247284 0.049518316984176636 0.026685623452067375 0.018781675025820732 -0.04078294709324837 -0.04581081122159958 -0.051863979548215866 0.08258426934480667 0.07941383123397827 0.06289010494947433 -0.038177475333213806 -0.04043024405837059 -0.06926881521940231 -0.08903729915618896 -0.011324108578264713 -0.06309600919485092 -0.03900925815105438 -0.058392081409692764 -0.057049088180065155 0.03181655704975128 0.006076027639210224 -0.12027367949485779 0.11708074808120728 -0.027980947867035866 0.06981222331523895 -0.004880568478256464 0.07543877512216568 -0.04467656463384628 -0.05334360897541046 -0.10984137654304504 0.01994430087506771 0.04201775789260864 0.05848851799964905 0.021625908091664314 0.08913309127092361 -0.02700646221637726 -0.0698888748884201 -0.049434177577495575 0.05678647384047508 0.011389913968741894 0.10219758003950119 -0.06447704881429672 0.01390407606959343 0.020042188465595245 0.04123900085687637 0.05627714842557907 -0.0005662829498760402 0.027630914002656937 0.01853892020881176 -0.06136017292737961 -0.0808643326163292 -0.0054328409023582935 -0.03733488917350769 0.007456498220562935 -0.02500324510037899 0.01902392879128456 0.09048474580049515 0.03407913073897362 0.07393750548362732 0.00930024217814207 0.033934447914361954 -0.015761401504278183 0.04344592243432999 0.01990179345011711 0.011597857810556889 0.09327268600463867 -0.06539571285247803 -0.04016953334212303 0.1297583431005478 0.14199842512607574 0.008420631289482117 -0.050909485667943954 0.03897049278020859 -0.06605368107557297 0.03270278126001358 0.05122247338294983 -0.02107820101082325 0.011044367216527462 -0.0016406833892688155 0.0503104105591774 0.055729903280735016 0.024775391444563866 0.029029469937086105 0.06411965936422348 0.032739028334617615 0.09940890967845917 0.0356081947684288 0.017595693469047546 0.020575180649757385 -0.02642957679927349 0.14606016874313354 0.10203250497579575 -0.08985602855682373 0.07448650896549225 0.05297046899795532 -0.0549718476831913 -0.0478946678340435 0.12056828290224075 -0.0009079829906113446 0.03094901330769062 0.011553074233233929 0.0033854201901704073 0.01740262843668461 0.015049316920340061 -0.014013554900884628 0.10875149071216583 0.06527535617351532 -0.07821422070264816 -0.07475431263446808 -0.06870104372501373 0.001051071914844215 -0.05351615324616432 0.04444435238838196 -0.025388440117239952 0.017550062388181686 0.07674985378980637 -0.041446927934885025 -0.0986088439822197 -0.084641233086586 -0.02340969257056713 0.0650455430150032 -0.051428064703941345 0.06028134003281593 0.04812309145927429 -0.04136959835886955 -0.013890963047742844 0.07846160978078842 0.0027586687356233597 0.13242127001285553 0.07879596203565598 -0.04864826425909996 0.009748383425176144 -0.002525602700188756 0.04228343069553375 0.04304753616452217 -0.0558009147644043 -0.02146657183766365 0.024589044973254204 -0.029298994690179825 -0.0012592138955369592 0.014074458740651608 -0.04137827455997467 0.0019842693582177162 -0.03433080017566681 0.057460568845272064 -0.01397528126835823 -0.016815880313515663 0.07196104526519775 -0.02018740028142929 -0.10651680082082748 0.06035550311207771 0.012339930050075054 0.005774923134595156 -0.07315350323915482 0.003466440364718437 -0.0289164911955595 -0.03118017688393593 0.01693595014512539 -0.15214581787586212 0.08082945644855499 0.026719078421592712 0.07786806672811508 -0.0780930146574974 0.008509092032909393 -0.06421729177236557 0.050341054797172546 0.052840616554021835 0.0021846292074769735 0.046757206320762634 -0.0753665342926979 0.15898488461971283 0.045477885752916336 -0.011110435239970684 0.09933068603277206 -0.04054923728108406 0.010308531112968922 0.0003098333836533129 0.039685603231191635 0.032232366502285004 -0.059418171644210815 -0.010646232403814793 0.08346159756183624 0.04104752466082573 0.03246139734983444 0.06071034446358681 -0.06830775737762451 0.02603122405707836 7.45667566661723e-05 -0.008545816875994205 -0.04720918834209442 0.014192003756761551 0.047574128955602646 -0.15426097810268402 -0.019138189032673836 -0.08365557342767715 0.03799162805080414 -0.09946727007627487 -0.014978148974478245 -0.01059744507074356 0.026478270068764687 0.015169345773756504 0.10425188392400742 0.002331273863092065 -0.0036990370135754347 -0.019966058433055878 -0.13030920922756195 -0.0887976810336113 -0.06756798923015594 -0.003330962499603629 -0.014587823301553726 -0.059590745717287064 0.09652365744113922 -0.05855798348784447 0.04190491512417793 0.041342832148075104 0.006240378133952618 -0.0022114370949566364 -0.004214505199342966 -0.009002957493066788 -0.04707911238074303 0.003409912809729576 0.0871877372264862 -0.03430002182722092 -0.017969943583011627 0.1534850150346756 -0.0501159206032753 0.02882855385541916 -0.0805312767624855 -0.06012480705976486 0.0910174772143364 0.0629592090845108 -0.063590407371521 0.03739269822835922 -0.07744342088699341 -0.023819848895072937 0.06919700652360916 -0.031360089778900146 -0.06977178156375885 0.008582090958952904 0.06578978896141052 0.013926275074481964 0.03129468858242035 -0.10821308195590973 -0.035664137452840805 -0.035693392157554626 -0.0169029850512743 -0.06700208783149719 -0.037055958062410355 0.02669522725045681 -0.04229903221130371 -1.799206802388653e-05 0.01451125182211399 -0.03076038509607315 0.001666014431975782 -0.09964693337678909 0.08278609812259674 -0.04910692200064659 0.013096839189529419 0.09246000647544861 0.04014190286397934 -0.03435942530632019 -0.03556642308831215 0.01767524518072605 0.07208216935396194 0.06911036372184753 -0.039838433265686035 0.04888222739100456 0.029592221602797508 0.037645936012268066 -0.07431173324584961 0.026854200288653374 0.08758202940225601 -0.06728041917085648 -0.03419570252299309 -0.029138870537281036 0.04696383699774742 -0.10813122242689133 0.008179455995559692 -0.09314348548650742 0.05409570410847664 0.022348159924149513 0.007329348009079695 -0.07261018455028534 -0.0534084253013134 -0.03417209908366203 -0.05151628330349922 0.02885761857032776 -0.10109411925077438 -0.035767581313848495 -0.05721469968557358 0.013603262603282928 -0.013081884011626244 0.024496115744113922 -0.0068585495464503765 -0.15002229809761047 0.0037254977505654097 0.02740480750799179 0.04267236590385437
<unk> 0.024020586162805557 -0.001306893303990364 -0.017983369529247284 0.049518316984176636 0.026685623452067375 0.018781675025820732 -0.04078294709324837 -0.04581081122159958 -0.051863979548215866 0.08258426934480667 0.07941383123397827 0.06289010494947433 -0.038177475333213806 -0.04043024405837059 -0.06926881521940231 -0.08903729915618896 -0.011324108578264713 -0.06309600919485092 -0.03900925815105438 -0.058392081409692764 -0.057049088180065155 0.03181655704975128 0.006076027639210224 -0.12027367949485779 0.11708074808120728 -0.027980947867035866 0.06981222331523895 -0.004880568478256464 0.07543877512216568 -0.04467656463384628 -0.05334360897541046 -0.10984137654304504 0.01994430087506771 0.04201775789260864 0.05848851799964905 0.021625908091664314 0.08913309127092361 -0.02700646221637726 -0.0698888748884201 -0.049434177577495575 0.05678647384047508 0.011389913968741894 0.10219758003950119 -0.06447704881429672 0.01390407606959343 0.020042188465595245 0.04123900085687637 0.05627714842557907 -0.0005662829498760402 0.027630914002656937 0.01853892020881176 -0.06136017292737961 -0.0808643326163292 -0.0054328409023582935 -0.03733488917350769 0.007456498220562935 -0.02500324510037899 0.01902392879128456 0.09048474580049515 0.03407913073897362 0.07393750548362732 0.00930024217814207 0.033934447914361954 -0.015761401504278183 0.04344592243432999 0.01990179345011711 0.011597857810556889 0.09327268600463867 -0.06539571285247803 -0.04016953334212303 0.1297583431005478 0.14199842512607574 0.008420631289482117 -0.050909485667943954 0.03897049278020859 -0.06605368107557297 0.03270278126001358 0.05122247338294983 -0.02107820101082325 0.011044367216527462 -0.0016406833892688155 0.0503104105591774 0.055729903280735016 0.024775391444563866 0.029029469937086105 0.06411965936422348 0.032739028334617615 0.09940890967845917 0.0356081947684288 0.017595693469047546 0.020575180649757385 -0.02642957679927349 0.14606016874313354 0.10203250497579575 -0.08985602855682373 0.07448650896549225 0.05297046899795532 -0.0549718476831913 -0.0478946678340435 0.12056828290224075 -0.0009079829906113446 0.03094901330769062 0.011553074233233929 0.0033854201901704073 0.01740262843668461 0.015049316920340061 -0.014013554900884628 0.10875149071216583 0.06527535617351532 -0.07821422070264816 -0.07475431263446808 -0.06870104372501373 0.001051071914844215 -0.05351615324616432 0.04444435238838196 -0.025388440117239952 0.017550062388181686 0.07674985378980637 -0.041446927934885025 -0.0986088439822197 -0.084641233086586 -0.02340969257056713 0.0650455430150032 -0.051428064703941345 0.06028134003281593 0.04812309145927429 -0.04136959835886955 -0.013890963047742844 0.07846160978078842 0.0027586687356233597 0.13242127001285553 0.07879596203565598 -0.04864826425909996 0.009748383425176144 -0.002525602700188756 0.04228343069553375 0.04304753616452217 -0.0558009147644043 -0.02146657183766365 0.024589044973254204 -0.029298994690179825 -0.0012592138955369592 0.014074458740651608 -0.04137827455997467 0.0019842693582177162 -0.03433080017566681 0.057460568845272064 -0.01397528126835823 -0.016815880313515663 0.07196104526519775 -0.02018740028142929 -0.10651680082082748 0.06035550311207771 0.012339930050075054 0.005774923134595156 -0.07315350323915482 0.003466440364718437 -0.0289164911955595 -0.03118017688393593 0.01693595014512539 -0.15214581787586212 0.08082945644855499 0.026719078421592712 0.07786806672811508 -0.0780930146574974 0.008509092032909393 -0.06421729177236557 0.050341054797172546 0.052840616554021835 0.0021846292074769735 0.046757206320762634 -0.0753665342926979 0.15898488461971283 0.045477885752916336 -0.011110435239970684 0.09933068603277206 -0.04054923728108406 0.010308531112968922 0.0003098333836533129 0.039685603231191635 0.032232366502285004 -0.059418171644210815 -0.010646232403814793 0.08346159756183624 0.04104752466082573 0.03246139734983444 0.06071034446358681 -0.06830775737762451 0.02603122405707836 7.45667566661723e-05 -0.008545816875994205 -0.04720918834209442 0.014192003756761551 0.047574128955602646 -0.15426097810268402 -0.019138189032673836 -0.08365557342767715 0.03799162805080414 -0.09946727007627487 -0.014978148974478245 -0.01059744507074356 0.026478270068764687 0.015169345773756504 0.10425188392400742 0.002331273863092065 -0.0036990370135754347 -0.019966058433055878 -0.13030920922756195 -0.0887976810336113 -0.06756798923015594 -0.003330962499603629 -0.014587823301553726 -0.059590745717287064 0.09652365744113922 -0.05855798348784447 0.04190491512417793 0.041342832148075104 0.006240378133952618 -0.0022114370949566364 -0.004214505199342966 -0.009002957493066788 -0.04707911238074303 0.003409912809729576 0.0871877372264862 -0.03430002182722092 -0.017969943583011627 0.1534850150346756 -0.0501159206032753 0.02882855385541916 -0.0805312767624855 -0.06012480705976486 0.0910174772143364 0.0629592090845108 -0.063590407371521 0.03739269822835922 -0.07744342088699341 -0.023819848895072937 0.06919700652360916 -0.031360089778900146 -0.06977178156375885 0.008582090958952904 0.06578978896141052 0.013926275074481964 0.03129468858242035 -0.10821308195590973 -0.035664137452840805 -0.035693392157554626 -0.0169029850512743 -0.06700208783149719 -0.037055958062410355 0.02669522725045681 -0.04229903221130371 -1.799206802388653e-05 0.01451125182211399 -0.03076038509607315 0.001666014431975782 -0.09964693337678909 0.08278609812259674 -0.04910692200064659 0.013096839189529419 0.09246000647544861 0.04014190286397934 -0.03435942530632019 -0.03556642308831215 0.01767524518072605 0.07208216935396194 0.06911036372184753 -0.039838433265686035 0.04888222739100456 0.029592221602797508 0.037645936012268066 -0.07431173324584961 0.026854200288653374 0.08758202940225601 -0.06728041917085648 -0.03419570252299309 -0.029138870537281036 0.04696383699774742 -0.10813122242689133 0.008179455995559692 -0.09314348548650742 0.05409570410847664 0.022348159924149513 0.007329348009079695 -0.07261018455028534 -0.0534084253013134 -0.03417209908366203 -0.05151628330349922 0.02885761857032776 -0.10109411925077438 -0.035767581313848495 -0.05721469968557358 0.013603262603282928 -0.013081884011626244 0.024496115744113922 -0.0068585495464503765 -0.15002229809761047 0.0037254977505654097 0.02740480750799179 0.04267236590385437
<unk> 0.024020586162805557 -0.001306893303990364 -0.017983369529247284 0.049518316984176636 0.026685623452067375 0.018781675025820732 -0.04078294709324837 -0.04581081122159958 -0.051863979548215866 0.08258426934480667 0.07941383123397827 0.06289010494947433 -0.038177475333213806 -0.04043024405837059 -0.06926881521940231 -0.08903729915618896 -0.011324108578264713 -0.06309600919485092 -0.03900925815105438 -0.058392081409692764 -0.057049088180065155 0.03181655704975128 0.006076027639210224 -0.12027367949485779 0.11708074808120728 -0.027980947867035866 0.06981222331523895 -0.004880568478256464 0.07543877512216568 -0.04467656463384628 -0.05334360897541046 -0.10984137654304504 0.01994430087506771 0.04201775789260864 0.05848851799964905 0.021625908091664314 0.08913309127092361 -0.02700646221637726 -0.0698888748884201 -0.049434177577495575 0.05678647384047508 0.011389913968741894 0.10219758003950119 -0.06447704881429672 0.01390407606959343 0.020042188465595245 0.04123900085687637 0.05627714842557907 -0.0005662829498760402 0.027630914002656937 0.01853892020881176 -0.06136017292737961 -0.0808643326163292 -0.0054328409023582935 -0.03733488917350769 0.007456498220562935 -0.02500324510037899 0.01902392879128456 0.09048474580049515 0.03407913073897362 0.07393750548362732 0.00930024217814207 0.033934447914361954 -0.015761401504278183 0.04344592243432999 0.01990179345011711 0.011597857810556889 0.09327268600463867 -0.06539571285247803 -0.04016953334212303 0.1297583431005478 0.14199842512607574 0.008420631289482117 -0.050909485667943954 0.03897049278020859 -0.06605368107557297 0.03270278126001358 0.05122247338294983 -0.02107820101082325 0.011044367216527462 -0.0016406833892688155 0.0503104105591774 0.055729903280735016 0.024775391444563866 0.029029469937086105 0.06411965936422348 0.032739028334617615 0.09940890967845917 0.0356081947684288 0.017595693469047546 0.020575180649757385 -0.02642957679927349 0.14606016874313354 0.10203250497579575 -0.08985602855682373 0.07448650896549225 0.05297046899795532 -0.0549718476831913 -0.0478946678340435 0.12056828290224075 -0.0009079829906113446 0.03094901330769062 0.011553074233233929 0.0033854201901704073 0.01740262843668461 0.015049316920340061 -0.014013554900884628 0.10875149071216583 0.06527535617351532 -0.07821422070264816 -0.07475431263446808 -0.06870104372501373 0.001051071914844215 -0.05351615324616432 0.04444435238838196 -0.025388440117239952 0.017550062388181686 0.07674985378980637 -0.041446927934885025 -0.0986088439822197 -0.084641233086586 -0.02340969257056713 0.0650455430150032 -0.051428064703941345 0.06028134003281593 0.04812309145927429 -0.04136959835886955 -0.013890963047742844 0.07846160978078842 0.0027586687356233597 0.13242127001285553 0.07879596203565598 -0.04864826425909996 0.009748383425176144 -0.002525602700188756 0.04228343069553375 0.04304753616452217 -0.0558009147644043 -0.02146657183766365 0.024589044973254204 -0.029298994690179825 -0.0012592138955369592 0.014074458740651608 -0.04137827455997467 0.0019842693582177162 -0.03433080017566681 0.057460568845272064 -0.01397528126835823 -0.016815880313515663 0.07196104526519775 -0.02018740028142929 -0.10651680082082748 0.06035550311207771 0.012339930050075054 0.005774923134595156 -0.07315350323915482 0.003466440364718437 -0.0289164911955595 -0.03118017688393593 0.01693595014512539 -0.15214581787586212 0.08082945644855499 0.026719078421592712 0.07786806672811508 -0.0780930146574974 0.008509092032909393 -0.06421729177236557 0.050341054797172546 0.052840616554021835 0.0021846292074769735 0.046757206320762634 -0.0753665342926979 0.15898488461971283 0.045477885752916336 -0.011110435239970684 0.09933068603277206 -0.04054923728108406 0.010308531112968922 0.0003098333836533129 0.039685603231191635 0.032232366502285004 -0.059418171644210815 -0.010646232403814793 0.08346159756183624 0.04104752466082573 0.03246139734983444 0.06071034446358681 -0.06830775737762451 0.02603122405707836 7.45667566661723e-05 -0.008545816875994205 -0.04720918834209442 0.014192003756761551 0.047574128955602646 -0.15426097810268402 -0.019138189032673836 -0.08365557342767715 0.03799162805080414 -0.09946727007627487 -0.014978148974478245 -0.01059744507074356 0.026478270068764687 0.015169345773756504 0.10425188392400742 0.002331273863092065 -0.0036990370135754347 -0.019966058433055878 -0.13030920922756195 -0.0887976810336113 -0.06756798923015594 -0.003330962499603629 -0.014587823301553726 -0.059590745717287064 0.09652365744113922 -0.05855798348784447 0.04190491512417793 0.041342832148075104 0.006240378133952618 -0.0022114370949566364 -0.004214505199342966 -0.009002957493066788 -0.04707911238074303 0.003409912809729576 0.0871877372264862 -0.03430002182722092 -0.017969943583011627 0.1534850150346756 -0.0501159206032753 0.02882855385541916 -0.0805312767624855 -0.06012480705976486 0.0910174772143364 0.0629592090845108 -0.063590407371521 0.03739269822835922 -0.07744342088699341 -0.023819848895072937 0.06919700652360916 -0.031360089778900146 -0.06977178156375885 0.008582090958952904 0.06578978896141052 0.013926275074481964 0.03129468858242035 -0.10821308195590973 -0.035664137452840805 -0.035693392157554626 -0.0169029850512743 -0.06700208783149719 -0.037055958062410355 0.02669522725045681 -0.04229903221130371 -1.799206802388653e-05 0.01451125182211399 -0.03076038509607315 0.001666014431975782 -0.09964693337678909 0.08278609812259674 -0.04910692200064659 0.013096839189529419 0.09246000647544861 0.04014190286397934 -0.03435942530632019 -0.03556642308831215 0.01767524518072605 0.07208216935396194 0.06911036372184753 -0.039838433265686035 0.04888222739100456 0.029592221602797508 0.037645936012268066 -0.07431173324584961 0.026854200288653374 0.08758202940225601 -0.06728041917085648 -0.03419570252299309 -0.029138870537281036 0.04696383699774742 -0.10813122242689133 0.008179455995559692 -0.09314348548650742 0.05409570410847664 0.022348159924149513 0.007329348009079695 -0.07261018455028534 -0.0534084253013134 -0.03417209908366203 -0.05151628330349922 0.02885761857032776 -0.10109411925077438 -0.035767581313848495 -0.05721469968557358 0.013603262603282928 -0.013081884011626244 0.024496115744113922 -0.0068585495464503765 -0.15002229809761047 0.0037254977505654097 0.02740480750799179 0.04267236590385437
<unk> 0.024020586162805557 -0.001306893303990364 -0.017983369529247284 0.049518316984176636 0.026685623452067375 0.018781675025820732 -0.04078294709324837 -0.04581081122159958 -0.051863979548215866 0.08258426934480667 0.07941383123397827 0.06289010494947433 -0.038177475333213806 -0.04043024405837059 -0.06926881521940231 -0.08903729915618896 -0.011324108578264713 -0.06309600919485092 -0.03900925815105438 -0.058392081409692764 -0.057049088180065155 0.03181655704975128 0.006076027639210224 -0.12027367949485779 0.11708074808120728 -0.027980947867035866 0.06981222331523895 -0.004880568478256464 0.07543877512216568 -0.04467656463384628 -0.05334360897541046 -0.10984137654304504 0.01994430087506771 0.04201775789260864 0.05848851799964905 0.021625908091664314 0.08913309127092361 -0.02700646221637726 -0.0698888748884201 -0.049434177577495575 0.05678647384047508 0.011389913968741894 0.10219758003950119 -0.06447704881429672 0.01390407606959343 0.020042188465595245 0.04123900085687637 0.05627714842557907 -0.0005662829498760402 0.027630914002656937 0.01853892020881176 -0.06136017292737961 -0.0808643326163292 -0.0054328409023582935 -0.03733488917350769 0.007456498220562935 -0.02500324510037899 0.01902392879128456 0.09048474580049515 0.03407913073897362 0.07393750548362732 0.00930024217814207 0.033934447914361954 -0.015761401504278183 0.04344592243432999 0.01990179345011711 0.011597857810556889 0.09327268600463867 -0.06539571285247803 -0.04016953334212303 0.1297583431005478 0.14199842512607574 0.008420631289482117 -0.050909485667943954 0.03897049278020859 -0.06605368107557297 0.03270278126001358 0.05122247338294983 -0.02107820101082325 0.011044367216527462 -0.0016406833892688155 0.0503104105591774 0.055729903280735016 0.024775391444563866 0.029029469937086105 0.06411965936422348 0.032739028334617615 0.09940890967845917 0.0356081947684288 0.017595693469047546 0.020575180649757385 -0.02642957679927349 0.14606016874313354 0.10203250497579575 -0.08985602855682373 0.07448650896549225 0.05297046899795532 -0.0549718476831913 -0.0478946678340435 0.12056828290224075 -0.0009079829906113446 0.03094901330769062 0.011553074233233929 0.0033854201901704073 0.01740262843668461 0.015049316920340061 -0.014013554900884628 0.10875149071216583 0.06527535617351532 -0.07821422070264816 -0.07475431263446808 -0.06870104372501373 0.001051071914844215 -0.05351615324616432 0.04444435238838196 -0.025388440117239952 0.017550062388181686 0.07674985378980637 -0.041446927934885025 -0.0986088439822197 -0.084641233086586 -0.02340969257056713 0.0650455430150032 -0.051428064703941345 0.06028134003281593 0.04812309145927429 -0.04136959835886955 -0.013890963047742844 0.07846160978078842 0.0027586687356233597 0.13242127001285553 0.07879596203565598 -0.04864826425909996 0.009748383425176144 -0.002525602700188756 0.04228343069553375 0.04304753616452217 -0.0558009147644043 -0.02146657183766365 0.024589044973254204 -0.029298994690179825 -0.0012592138955369592 0.014074458740651608 -0.04137827455997467 0.0019842693582177162 -0.03433080017566681 0.057460568845272064 -0.01397528126835823 -0.016815880313515663 0.07196104526519775 -0.02018740028142929 -0.10651680082082748 0.06035550311207771 0.012339930050075054 0.005774923134595156 -0.07315350323915482 0.003466440364718437 -0.0289164911955595 -0.03118017688393593 0.01693595014512539 -0.15214581787586212 0.08082945644855499 0.026719078421592712 0.07786806672811508 -0.0780930146574974 0.008509092032909393 -0.06421729177236557 0.050341054797172546 0.052840616554021835 0.0021846292074769735 0.046757206320762634 -0.0753665342926979 0.15898488461971283 0.045477885752916336 -0.011110435239970684 0.09933068603277206 -0.04054923728108406 0.010308531112968922 0.0003098333836533129 0.039685603231191635 0.032232366502285004 -0.059418171644210815 -0.010646232403814793 0.08346159756183624 0.04104752466082573 0.03246139734983444 0.06071034446358681 -0.06830775737762451 0.02603122405707836 7.45667566661723e-05 -0.008545816875994205 -0.04720918834209442 0.014192003756761551 0.047574128955602646 -0.15426097810268402 -0.019138189032673836 -0.08365557342767715 0.03799162805080414 -0.09946727007627487 -0.014978148974478245 -0.01059744507074356 0.026478270068764687 0.015169345773756504 0.10425188392400742 0.002331273863092065 -0.0036990370135754347 -0.019966058433055878 -0.13030920922756195 -0.0887976810336113 -0.06756798923015594 -0.003330962499603629 -0.014587823301553726 -0.059590745717287064 0.09652365744113922 -0.05855798348784447 0.04190491512417793 0.041342832148075104 0.006240378133952618 -0.0022114370949566364 -0.004214505199342966 -0.009002957493066788 -0.04707911238074303 0.003409912809729576 0.0871877372264862 -0.03430002182722092 -0.017969943583011627 0.1534850150346756 -0.0501159206032753 0.02882855385541916 -0.0805312767624855 -0.06012480705976486 0.0910174772143364 0.0629592090845108 -0.063590407371521 0.03739269822835922 -0.07744342088699341 -0.023819848895072937 0.06919700652360916 -0.031360089778900146 -0.06977178156375885 0.008582090958952904 0.06578978896141052 0.013926275074481964 0.03129468858242035 -0.10821308195590973 -0.035664137452840805 -0.035693392157554626 -0.0169029850512743 -0.06700208783149719 -0.037055958062410355 0.02669522725045681 -0.04229903221130371 -1.799206802388653e-05 0.01451125182211399 -0.03076038509607315 0.001666014431975782 -0.09964693337678909 0.08278609812259674 -0.04910692200064659 0.013096839189529419 0.09246000647544861 0.04014190286397934 -0.03435942530632019 -0.03556642308831215 0.01767524518072605 0.07208216935396194 0.06911036372184753 -0.039838433265686035 0.04888222739100456 0.029592221602797508 0.037645936012268066 -0.07431173324584961 0.026854200288653374 0.08758202940225601 -0.06728041917085648 -0.03419570252299309 -0.029138870537281036 0.04696383699774742 -0.10813122242689133 0.008179455995559692 -0.09314348548650742 0.05409570410847664 0.022348159924149513 0.007329348009079695 -0.07261018455028534 -0.0534084253013134 -0.03417209908366203 -0.05151628330349922 0.02885761857032776 -0.10109411925077438 -0.035767581313848495 -0.05721469968557358 0.013603262603282928 -0.013081884011626244 0.024496115744113922 -0.0068585495464503765 -0.15002229809761047 0.0037254977505654097 0.02740480750799179 0.04267236590385437
<unk> 0.024020586162805557 -0.001306893303990364 -0.017983369529247284 0.049518316984176636 0.026685623452067375 0.018781675025820732 -0.04078294709324837 -0.04581081122159958 -0.051863979548215866 0.08258426934480667 0.07941383123397827 0.06289010494947433 -0.038177475333213806 -0.04043024405837059 -0.06926881521940231 -0.08903729915618896 -0.011324108578264713 -0.06309600919485092 -0.03900925815105438 -0.058392081409692764 -0.057049088180065155 0.03181655704975128 0.006076027639210224 -0.12027367949485779 0.11708074808120728 -0.027980947867035866 0.06981222331523895 -0.004880568478256464 0.07543877512216568 -0.04467656463384628 -0.05334360897541046 -0.10984137654304504 0.01994430087506771 0.04201775789260864 0.05848851799964905 0.021625908091664314 0.08913309127092361 -0.02700646221637726 -0.0698888748884201 -0.049434177577495575 0.05678647384047508 0.011389913968741894 0.10219758003950119 -0.06447704881429672 0.01390407606959343 0.020042188465595245 0.04123900085687637 0.05627714842557907 -0.0005662829498760402 0.027630914002656937 0.01853892020881176 -0.06136017292737961 -0.0808643326163292 -0.0054328409023582935 -0.03733488917350769 0.007456498220562935 -0.02500324510037899 0.01902392879128456 0.09048474580049515 0.03407913073897362 0.07393750548362732 0.00930024217814207 0.033934447914361954 -0.015761401504278183 0.04344592243432999 0.01990179345011711 0.011597857810556889 0.09327268600463867 -0.06539571285247803 -0.04016953334212303 0.1297583431005478 0.14199842512607574 0.008420631289482117 -0.050909485667943954 0.03897049278020859 -0.06605368107557297 0.03270278126001358 0.05122247338294983 -0.02107820101082325 0.011044367216527462 -0.0016406833892688155 0.0503104105591774 0.055729903280735016 0.024775391444563866 0.029029469937086105 0.06411965936422348 0.032739028334617615 0.09940890967845917 0.0356081947684288 0.017595693469047546 0.020575180649757385 -0.02642957679927349 0.14606016874313354 0.10203250497579575 -0.08985602855682373 0.07448650896549225 0.05297046899795532 -0.0549718476831913 -0.0478946678340435 0.12056828290224075 -0.0009079829906113446 0.03094901330769062 0.011553074233233929 0.0033854201901704073 0.01740262843668461 0.015049316920340061 -0.014013554900884628 0.10875149071216583 0.06527535617351532 -0.07821422070264816 -0.07475431263446808 -0.06870104372501373 0.001051071914844215 -0.05351615324616432 0.04444435238838196 -0.025388440117239952 0.017550062388181686 0.07674985378980637 -0.041446927934885025 -0.0986088439822197 -0.084641233086586 -0.02340969257056713 0.0650455430150032 -0.051428064703941345 0.06028134003281593 0.04812309145927429 -0.04136959835886955 -0.013890963047742844 0.07846160978078842 0.0027586687356233597 0.13242127001285553 0.07879596203565598 -0.04864826425909996 0.009748383425176144 -0.002525602700188756 0.04228343069553375 0.04304753616452217 -0.0558009147644043 -0.02146657183766365 0.024589044973254204 -0.029298994690179825 -0.0012592138955369592 0.014074458740651608 -0.04137827455997467 0.0019842693582177162 -0.03433080017566681 0.057460568845272064 -0.01397528126835823 -0.016815880313515663 0.07196104526519775 -0.02018740028142929 -0.10651680082082748 0.06035550311207771 0.012339930050075054 0.005774923134595156 -0.07315350323915482 0.003466440364718437 -0.0289164911955595 -0.03118017688393593 0.01693595014512539 -0.15214581787586212 0.08082945644855499 0.026719078421592712 0.07786806672811508 -0.0780930146574974 0.008509092032909393 -0.06421729177236557 0.050341054797172546 0.052840616554021835 0.0021846292074769735 0.046757206320762634 -0.0753665342926979 0.15898488461971283 0.045477885752916336 -0.011110435239970684 0.09933068603277206 -0.04054923728108406 0.010308531112968922 0.0003098333836533129 0.039685603231191635 0.032232366502285004 -0.059418171644210815 -0.010646232403814793 0.08346159756183624 0.04104752466082573 0.03246139734983444 0.06071034446358681 -0.06830775737762451 0.02603122405707836 7.45667566661723e-05 -0.008545816875994205 -0.04720918834209442 0.014192003756761551 0.047574128955602646 -0.15426097810268402 -0.019138189032673836 -0.08365557342767715 0.03799162805080414 -0.09946727007627487 -0.014978148974478245 -0.01059744507074356 0.026478270068764687 0.015169345773756504 0.10425188392400742 0.002331273863092065 -0.0036990370135754347 -0.019966058433055878 -0.13030920922756195 -0.0887976810336113 -0.06756798923015594 -0.003330962499603629 -0.014587823301553726 -0.059590745717287064 0.09652365744113922 -0.05855798348784447 0.04190491512417793 0.041342832148075104 0.006240378133952618 -0.0022114370949566364 -0.004214505199342966 -0.009002957493066788 -0.04707911238074303 0.003409912809729576 0.0871877372264862 -0.03430002182722092 -0.017969943583011627 0.1534850150346756 -0.0501159206032753 0.02882855385541916 -0.0805312767624855 -0.06012480705976486 0.0910174772143364 0.0629592090845108 -0.063590407371521 0.03739269822835922 -0.07744342088699341 -0.023819848895072937 0.06919700652360916 -0.031360089778900146 -0.06977178156375885 0.008582090958952904 0.06578978896141052 0.013926275074481964 0.03129468858242035 -0.10821308195590973 -0.035664137452840805 -0.035693392157554626 -0.0169029850512743 -0.06700208783149719 -0.037055958062410355 0.02669522725045681 -0.04229903221130371 -1.799206802388653e-05 0.01451125182211399 -0.03076038509607315 0.001666014431975782 -0.09964693337678909 0.08278609812259674 -0.04910692200064659 0.013096839189529419 0.09246000647544861 0.04014190286397934 -0.03435942530632019 -0.03556642308831215 0.01767524518072605 0.07208216935396194 0.06911036372184753 -0.039838433265686035 0.04888222739100456 0.029592221602797508 0.037645936012268066 -0.07431173324584961 0.026854200288653374 0.08758202940225601 -0.06728041917085648 -0.03419570252299309 -0.029138870537281036 0.04696383699774742 -0.10813122242689133 0.008179455995559692 -0.09314348548650742 0.05409570410847664 0.022348159924149513 0.007329348009079695 -0.07261018455028534 -0.0534084253013134 -0.03417209908366203 -0.05151628330349922 0.02885761857032776 -0.10109411925077438 -0.035767581313848495 -0.05721469968557358 0.013603262603282928 -0.013081884011626244 0.024496115744113922 -0.0068585495464503765 -0.15002229809761047 0.0037254977505654097 0.02740480750799179 0.04267236590385437
<unk> 0.024020586162805557 -0.001306893303990364 -0.017983369529247284 0.049518316984176636 0.026685623452067375 0.018781675025820732 -0.04078294709324837 -0.04581081122159958 -0.051863979548215866 0.08258426934480667 0.07941383123397827 0.06289010494947433 -0.038177475333213806 -0.04043024405837059 -0.06926881521940231 -0.08903729915618896 -0.011324108578264713 -0.06309600919485092 -0.03900925815105438 -0.058392081409692764 -0.057049088180065155 0.03181655704975128 0.006076027639210224 -0.12027367949485779 0.11708074808120728 -0.027980947867035866 0.06981222331523895 -0.004880568478256464 0.07543877512216568 -0.04467656463384628 -0.05334360897541046 -0.10984137654304504 0.01994430087506771 0.04201775789260864 0.05848851799964905 0.021625908091664314 0.08913309127092361 -0.02700646221637726 -0.0698888748884201 -0.049434177577495575 0.05678647384047508 0.011389913968741894 0.10219758003950119 -0.06447704881429672 0.01390407606959343 0.020042188465595245 0.04123900085687637 0.05627714842557907 -0.0005662829498760402 0.027630914002656937 0.01853892020881176 -0.06136017292737961 -0.0808643326163292 -0.0054328409023582935 -0.03733488917350769 0.007456498220562935 -0.02500324510037899 0.01902392879128456 0.09048474580049515 0.03407913073897362 0.07393750548362732 0.00930024217814207 0.033934447914361954 -0.015761401504278183 0.04344592243432999 0.01990179345011711 0.011597857810556889 0.09327268600463867 -0.06539571285247803 -0.04016953334212303 0.1297583431005478 0.14199842512607574 0.008420631289482117 -0.050909485667943954 0.03897049278020859 -0.06605368107557297 0.03270278126001358 0.05122247338294983 -0.02107820101082325 0.011044367216527462 -0.0016406833892688155 0.0503104105591774 0.055729903280735016 0.024775391444563866 0.029029469937086105 0.06411965936422348 0.032739028334617615 0.09940890967845917 0.0356081947684288 0.017595693469047546 0.020575180649757385 -0.02642957679927349 0.14606016874313354 0.10203250497579575 -0.08985602855682373 0.07448650896549225 0.05297046899795532 -0.0549718476831913 -0.0478946678340435 0.12056828290224075 -0.0009079829906113446 0.03094901330769062 0.011553074233233929 0.0033854201901704073 0.01740262843668461 0.015049316920340061 -0.014013554900884628 0.10875149071216583 0.06527535617351532 -0.07821422070264816 -0.07475431263446808 -0.06870104372501373 0.001051071914844215 -0.05351615324616432 0.04444435238838196 -0.025388440117239952 0.017550062388181686 0.07674985378980637 -0.041446927934885025 -0.0986088439822197 -0.084641233086586 -0.02340969257056713 0.0650455430150032 -0.051428064703941345 0.06028134003281593 0.04812309145927429 -0.04136959835886955 -0.013890963047742844 0.07846160978078842 0.0027586687356233597 0.13242127001285553 0.07879596203565598 -0.04864826425909996 0.009748383425176144 -0.002525602700188756 0.04228343069553375 0.04304753616452217 -0.0558009147644043 -0.02146657183766365 0.024589044973254204 -0.029298994690179825 -0.0012592138955369592 0.014074458740651608 -0.04137827455997467 0.0019842693582177162 -0.03433080017566681 0.057460568845272064 -0.01397528126835823 -0.016815880313515663 0.07196104526519775 -0.02018740028142929 -0.10651680082082748 0.06035550311207771 0.012339930050075054 0.005774923134595156 -0.07315350323915482 0.003466440364718437 -0.0289164911955595 -0.03118017688393593 0.01693595014512539 -0.15214581787586212 0.08082945644855499 0.026719078421592712 0.07786806672811508 -0.0780930146574974 0.008509092032909393 -0.06421729177236557 0.050341054797172546 0.052840616554021835 0.0021846292074769735 0.046757206320762634 -0.0753665342926979 0.15898488461971283 0.045477885752916336 -0.011110435239970684 0.09933068603277206 -0.04054923728108406 0.010308531112968922 0.0003098333836533129 0.039685603231191635 0.032232366502285004 -0.059418171644210815 -0.010646232403814793 0.08346159756183624 0.04104752466082573 0.03246139734983444 0.06071034446358681 -0.06830775737762451 0.02603122405707836 7.45667566661723e-05 -0.008545816875994205 -0.04720918834209442 0.014192003756761551 0.047574128955602646 -0.15426097810268402 -0.019138189032673836 -0.08365557342767715 0.03799162805080414 -0.09946727007627487 -0.014978148974478245 -0.01059744507074356 0.026478270068764687 0.015169345773756504 0.10425188392400742 0.002331273863092065 -0.0036990370135754347 -0.019966058433055878 -0.13030920922756195 -0.0887976810336113 -0.06756798923015594 -0.003330962499603629 -0.014587823301553726 -0.059590745717287064 0.09652365744113922 -0.05855798348784447 0.04190491512417793 0.041342832148075104 0.006240378133952618 -0.0022114370949566364 -0.004214505199342966 -0.009002957493066788 -0.04707911238074303 0.003409912809729576 0.0871877372264862 -0.03430002182722092 -0.017969943583011627 0.1534850150346756 -0.0501159206032753 0.02882855385541916 -0.0805312767624855 -0.06012480705976486 0.0910174772143364 0.0629592090845108 -0.063590407371521 0.03739269822835922 -0.07744342088699341 -0.023819848895072937 0.06919700652360916 -0.031360089778900146 -0.06977178156375885 0.008582090958952904 0.06578978896141052 0.013926275074481964 0.03129468858242035 -0.10821308195590973 -0.035664137452840805 -0.035693392157554626 -0.0169029850512743 -0.06700208783149719 -0.037055958062410355 0.02669522725045681 -0.04229903221130371 -1.799206802388653e-05 0.01451125182211399 -0.03076038509607315 0.001666014431975782 -0.09964693337678909 0.08278609812259674 -0.04910692200064659 0.013096839189529419 0.09246000647544861 0.04014190286397934 -0.03435942530632019 -0.03556642308831215 0.01767524518072605 0.07208216935396194 0.06911036372184753 -0.039838433265686035 0.04888222739100456 0.029592221602797508 0.037645936012268066 -0.07431173324584961 0.026854200288653374 0.08758202940225601 -0.06728041917085648 -0.03419570252299309 -0.029138870537281036 0.04696383699774742 -0.10813122242689133 0.008179455995559692 -0.09314348548650742 0.05409570410847664 0.022348159924149513 0.007329348009079695 -0.07261018455028534 -0.0534084253013134 -0.03417209908366203 -0.05151628330349922 0.02885761857032776 -0.10109411925077438 -0.035767581313848495 -0.05721469968557358 0.013603262603282928 -0.013081884011626244 0.024496115744113922 -0.0068585495464503765 -0.15002229809761047 0.0037254977505654097 0.02740480750799179 0.04267236590385437
bag 0.08840855211019516 -0.07047821581363678 0.07419928908348083 -0.0014985579764470458 -0.07530810683965683 -0.13898849487304688 -0.016974423080682755 -0.017887692898511887 0.003420620458200574 0.08247575908899307 -0.043166905641555786 0.027755333110690117 0.07743752747774124 -0.014449773356318474 0.08360833674669266 0.00043907234794460237 0.027359819039702415 0.04053325206041336 0.0035378055181354284 0.02086632139980793 0.06294496357440948 -0.04586806893348694 0.12427707761526108 0.04291732236742973 0.023614291101694107 0.06690121442079544 -0.005285987164825201 -0.031702782958745956 -0.042292144149541855 0.021468019112944603 -0.11741610616445541 -0.004250396508723497 0.0076393261551856995 0.05760759487748146 -0.09278993308544159 -0.01351865939795971 0.034126248210668564 0.0020318771712481976 -0.02641216106712818 -0.03390200808644295 -0.009862546809017658 0.01325896754860878 0.009787056595087051 0.04428979754447937 -0.061699360609054565 -0.025335194543004036 -0.11841728538274765 0.01496689673513174 0.09962060302495956 -0.09679214656352997 -0.0019081890350207686 0.04446166381239891 0.01725132204592228 0.018778052181005478 0.03936558589339256 0.11580938845872879 -0.016445035114884377 0.014343461021780968 -0.07462449371814728 -0.02018318511545658 0.051798753440380096 -0.03743631765246391 -0.0012962608598172665 -0.0795825645327568 0.1321425586938858 -0.05222627893090248 0.02170743979513645 -0.06458313018083572 -0.033215541392564774 -0.0958615243434906 -0.07111375778913498 -0.07711602002382278 0.027200737968087196 0.05517689883708954 -0.02194073237478733 -0.06966918706893921 0.01729530468583107 0.05109458044171333 0.04550619050860405 0.13178935647010803 -0.027177458629012108 -0.06726305931806564 0.022023266181349754 0.0033269471023231745 -0.10462833940982819 0.06848660111427307 0.0050250086933374405 0.021397940814495087 -0.031170008704066277 0.028741344809532166 0.02163383737206459 -0.015424697659909725 -0.020184870809316635 0.008513507433235645 -0.06233634054660797 0.04866243153810501 -0.02248575910925865 0.02485515922307968 0.009637550450861454 0.003530725371092558 -0.14789843559265137 0.07545330375432968 -0.013156780041754246 0.10611476749181747 0.03957681357860565 -0.03524622693657875 0.06353006511926651 0.012069850228726864 0.011175078339874744 -0.016355132684111595 0.08500172942876816 0.08013508468866348 -0.002877173712477088 0.008765495382249355 -0.07952003180980682 -0.023218724876642227 0.05597417429089546 -0.06882141530513763 -0.017795972526073456 -0.04824705421924591 0.03699647635221481 0.12656401097774506 0.04794667288661003 -0.017806382849812508 -0.08128960430622101 -0.0038100688252598047 -0.09157924354076385 -0.06082132086157799 0.15378662943840027 -0.056550413370132446 0.037747517228126526 0.037713054567575455 0.03151169419288635 0.005832366179674864 0.10836037248373032 0.0648164227604866 -0.07862365990877151 -0.023512281477451324 0.00497174309566617 0.02732425183057785 -0.06233973428606987 0.05125068500638008 -0.08495554327964783 0.03248526528477669 -0.0659574344754219 0.08014457672834396 0.039029065519571304 -0.02581905946135521 -0.006879747845232487 -0.014344518072903156 -0.008742380887269974 -0.002974538365378976 0.10451909154653549 0.1113380491733551 0.07220926880836487 0.021485185250639915 0.06513772159814835 0.023761926218867302 0.02374095842242241 -0.05207886919379234 0.08965306729078293 0.07605786621570587 0.060673732310533524 0.1541856825351715 -0.07077687978744507 -0.027818894013762474 0.07980354130268097 -0.0749114379286766 0.0049522072076797485 0.008910170756280422 0.06613332778215408 0.028777630999684334 0.06348866969347 0.03566957265138626 -0.006887128110975027 -0.03733397275209427 -0.014617569744586945 -0.07599017024040222 -0.02871273085474968 -0.04288210719823837 0.013359791599214077 -0.06839828938245773 -0.05964788421988487 0.019507041200995445 -0.03884110227227211 -0.01078809518367052 0.005143244285136461 0.02176285907626152 -0.0017821346409618855 -0.002253988292068243 -0.02513372153043747 0.08682940900325775 0.012720681726932526 0.15565690398216248 0.05138324573636055 0.05273294821381569 0.009681613184511662 0.02814195305109024 0.01931688003242016 -0.03978497534990311 -0.005056467372924089 0.014231597073376179 0.023807235062122345 0.0002916094963438809 0.02868686616420746 0.01887623593211174 -0.0010182628175243735 -0.05759892612695694 -0.009702532552182674 -0.014645278453826904 0.005653289146721363 0.0773114413022995 0.05103983357548714 -0.045122917741537094 -0.02708388864994049 0.07743466645479202 -0.028880320489406586 0.020859604701399803 -0.0929780825972557 0.08306252211332321 -0.008995749056339264 0.09840501844882965 0.06889224052429199 0.0031293730717152357 0.034934356808662415 -0.027975697070360184 0.019779277965426445 0.02390293963253498 -0.10819867253303528 0.08329755067825317 -0.014708065427839756 0.07020238786935806 -0.09731471538543701 0.055896926671266556 0.027348631992936134 -0.0034842800814658403 0.0015300377272069454 -0.08031665533781052 -0.015305598266422749 -0.039596885442733765 0.04048377647995949 0.022294385358691216 -0.01000029593706131 -0.02106991969048977 -0.002513056853786111 -0.011079233139753342 0.03879646956920624 -0.021442417055368423 -0.005206052213907242 0.06492607295513153 0.004195671994239092 -0.02634878270328045 0.04875444248318672 0.06485022604465485 -0.06110718101263046 -0.09256396442651749 0.07150424271821976 0.025649718940258026 -0.04824245348572731 0.037329088896512985 0.030333029106259346 -0.028602363541722298 -0.09567240625619888 0.01728038862347603 -0.03763347491621971 -0.06644017994403839 -0.030973780900239944 0.0044713797979056835 -0.02421446703374386 -0.015996858477592468 -0.016008522361516953 0.155553936958313 0.026327788829803467 -0.08944150060415268 0.01928805187344551 0.01952705904841423 -0.1443883329629898 0.03977636620402336 0.04124278947710991 0.01971910148859024 0.03938436508178711 0.044251613318920135 0.030474379658699036 -0.07091739028692245 0.027504153549671173 -0.03457226604223251 0.07513568550348282 -0.05454738438129425 -0.1316821128129959 -0.05961286649107933 0.11693155765533447 -0.0609280988574028 0.0010019545443356037 0.09087449312210083 -0.030573807656764984 -0.08520021289587021 -0.11668766289949417 -0.003297342685982585 -0.10701021552085876 -0.01761060580611229
<unk> 0.024020586162805557 -0.001306893303990364 -0.017983369529247284 0.049518316984176636 0.026685623452067375 0.018781675025820732 -0.04078294709324837 -0.04581081122159958 -0.051863979548215866 0.08258426934480667 0.07941383123397827 0.06289010494947433 -0.038177475333213806 -0.04043024405837059 -0.06926881521940231 -0.08903729915618896 -0.011324108578264713 -0.06309600919485092 -0.03900925815105438 -0.058392081409692764 -0.057049088180065155 0.03181655704975128 0.006076027639210224 -0.12027367949485779 0.11708074808120728 -0.027980947867035866 0.06981222331523895 -0.004880568478256464 0.07543877512216568 -0.04467656463384628 -0.05334360897541046 -0.10984137654304504 0.01994430087506771 0.04201775789260864 0.05848851799964905 0.021625908091664314 0.08913309127092361 -0.02700646221637726 -0.0698888748884201 -0.049434177577495575 0.05678647384047508 0.011389913968741894 0.10219758003950119 -0.06447704881429672 0.01390407606959343 0.020042188465595245 0.04123900085687637 0.05627714842557907 -0.0005662829498760402 0.027630914002656937 0.01853892020881176 -0.06136017292737961 -0.0808643326163292 -0.0054328409023582935 -0.03733488917350769 0.007456498220562935 -0.02500324510037899 0.01902392879128456 0.09048474580049515 0.03407913073897362 0.07393750548362732 0.00930024217814207 0.033934447914361954 -0.015761401504278183 0.04344592243432999 0.01990179345011711 0.011597857810556889 0.09327268600463867 -0.06539571285247803 -0.04016953334212303 0.1297583431005478 0.14199842512607574 0.008420631289482117 -0.050909485667943954 0.03897049278020859 -0.06605368107557297 0.03270278126001358 0.05122247338294983 -0.02107820101082325 0.011044367216527462 -0.0016406833892688155 0.0503104105591774 0.055729903280735016 0.024775391444563866 0.029029469937086105 0.06411965936422348 0.032739028334617615 0.09940890967845917 0.0356081947684288 0.017595693469047546 0.020575180649757385 -0.02642957679927349 0.14606016874313354 0.10203250497579575 -0.08985602855682373 0.07448650896549225 0.05297046899795532 -0.0549718476831913 -0.0478946678340435 0.12056828290224075 -0.0009079829906113446 0.03094901330769062 0.011553074233233929 0.0033854201901704073 0.01740262843668461 0.015049316920340061 -0.014013554900884628 0.10875149071216583 0.06527535617351532 -0.07821422070264816 -0.07475431263446808 -0.06870104372501373 0.001051071914844215 -0.05351615324616432 0.04444435238838196 -0.025388440117239952 0.017550062388181686 0.07674985378980637 -0.041446927934885025 -0.0986088439822197 -0.084641233086586 -0.02340969257056713 0.0650455430150032 -0.051428064703941345 0.06028134003281593 0.04812309145927429 -0.04136959835886955 -0.013890963047742844 0.07846160978078842 0.0027586687356233597 0.13242127001285553 0.07879596203565598 -0.04864826425909996 0.009748383425176144 -0.002525602700188756 0.04228343069553375 0.04304753616452217 -0.0558009147644043 -0.02146657183766365 0.024589044973254204 -0.029298994690179825 -0.0012592138955369592 0.014074458740651608 -0.04137827455997467 0.0019842693582177162 -0.03433080017566681 0.057460568845272064 -0.01397528126835823 -0.016815880313515663 0.07196104526519775 -0.02018740028142929 -0.10651680082082748 0.06035550311207771 0.012339930050075054 0.005774923134595156 -0.07315350323915482 0.003466440364718437 -0.0289164911955595 -0.03118017688393593 0.01693595014512539 -0.15214581787586212 0.08082945644855499 0.026719078421592712 0.07786806672811508 -0.0780930146574974 0.008509092032909393 -0.06421729177236557 0.050341054797172546 0.052840616554021835 0.0021846292074769735 0.046757206320762634 -0.0753665342926979 0.15898488461971283 0.045477885752916336 -0.011110435239970684 0.09933068603277206 -0.04054923728108406 0.010308531112968922 0.0003098333836533129 0.039685603231191635 0.032232366502285004 -0.059418171644210815 -0.010646232403814793 0.08346159756183624 0.04104752466082573 0.03246139734983444 0.06071034446358681 -0.06830775737762451 0.02603122405707836 7.45667566661723e-05 -0.008545816875994205 -0.04720918834209442 0.014192003756761551 0.047574128955602646 -0.15426097810268402 -0.019138189032673836 -0.08365557342767715 0.03799162805080414 -0.09946727007627487 -0.014978148974478245 -0.01059744507074356 0.026478270068764687 0.015169345773756504 0.10425188392400742 0.002331273863092065 -0.0036990370135754347 -0.019966058433055878 -0.13030920922756195 -0.0887976810336113 -0.06756798923015594 -0.003330962499603629 -0.014587823301553726 -0.059590745717287064 0.09652365744113922 -0.05855798348784447 0.04190491512417793 0.041342832148075104 0.006240378133952618 -0.0022114370949566364 -0.004214505199342966 -0.009002957493066788 -0.04707911238074303 0.003409912809729576 0.0871877372264862 -0.03430002182722092 -0.017969943583011627 0.1534850150346756 -0.0501159206032753 0.02882855385541916 -0.0805312767624855 -0.06012480705976486 0.0910174772143364 0.0629592090845108 -0.063590407371521 0.03739269822835922 -0.07744342088699341 -0.023819848895072937 0.06919700652360916 -0.031360089778900146 -0.06977178156375885 0.008582090958952904 0.06578978896141052 0.013926275074481964 0.03129468858242035 -0.10821308195590973 -0.035664137452840805 -0.035693392157554626 -0.0169029850512743 -0.06700208783149719 -0.037055958062410355 0.02669522725045681 -0.04229903221130371 -1.799206802388653e-05 0.01451125182211399 -0.03076038509607315 0.001666014431975782 -0.09964693337678909 0.08278609812259674 -0.04910692200064659 0.013096839189529419 0.09246000647544861 0.04014190286397934 -0.03435942530632019 -0.03556642308831215 0.01767524518072605 0.07208216935396194 0.06911036372184753 -0.039838433265686035 0.04888222739100456 0.029592221602797508 0.037645936012268066 -0.07431173324584961 0.026854200288653374 0.08758202940225601 -0.06728041917085648 -0.03419570252299309 -0.029138870537281036 0.04696383699774742 -0.10813122242689133 0.008179455995559692 -0.09314348548650742 0.05409570410847664 0.022348159924149513 0.007329348009079695 -0.07261018455028534 -0.0534084253013134 -0.03417209908366203 -0.05151628330349922 0.02885761857032776 -0.10109411925077438 -0.035767581313848495 -0.05721469968557358 0.013603262603282928 -0.013081884011626244 0.024496115744113922 -0.0068585495464503765 -0.15002229809761047 0.0037254977505654097 0.02740480750799179 0.04267236590385437
