leave 0.02333999052643776 0.00855217780917883 -0.013234203681349754 0.030709609389305115 0.010712802410125732 -0.03799234703183174 -0.005296316463500261 0.02387717179954052 0.06590123474597931 -0.0827084481716156 0.01892581395804882 -0.0004188466409686953 -0.020694728940725327 0.001679725362919271 -0.07568474113941193 0.04796457290649414 -0.06712531298398972 -0.002692738315090537 0.027049774304032326 0.038483839482069016 -0.022536635398864746 0.002254044869914651 0.06910645216703415 0.07763803750276566 0.050691064447164536 0.08503516763448715 -0.007983981631696224 -0.012343761511147022 -0.01645822823047638 0.014589177444577217 -0.08047261089086533 -0.06603115051984787 -0.014536368660628796 0.08620740473270416 -0.07552376389503479 0.04758139327168465 0.01300463080406189 -0.03186294063925743 0.020065512508153915 -0.011321529746055603 0.03526010364294052 -0.08139612525701523 -0.051305752247571945 0.10312286019325256 -0.0637776181101799 0.059437863528728485 0.07149425894021988 -0.004466732032597065 0.0794554129242897 -0.016351645812392235 0.07537435740232468 5.592667730525136e-05 0.043600596487522125 0.030727867037057877 -0.030260147526860237 0.14228910207748413 -0.0647074431180954 -0.009552748873829842 -0.09449194371700287 0.0008629285148344934 0.08572583645582199 0.006126578897237778 -0.019268255680799484 0.001493987743742764 -0.15609775483608246 -0.024488702416419983 0.05712012201547623 0.054038118571043015 0.04352380707859993 -0.042476069182157516 0.02240295521914959 0.049639008939266205 -0.04772769659757614 0.07439331710338593 0.06514117121696472 0.007843483239412308 -0.030410462990403175 -0.008023880422115326 0.1341296285390854 0.037211205810308456 0.01839757151901722 0.02630106918513775 -0.0810706838965416 -0.026693210005760193 0.026607736945152283 0.02493997849524021 -0.12029607594013214 -0.05305485054850578 -0.04707682505249977 0.09334661811590195 -0.07349219918251038 -0.06110908463597298 0.080874003469944 -0.04419862851500511 0.09699033945798874 -0.08920032531023026 -0.0013799197040498257 -0.03095117397606373 -0.05129160359501839 -0.011711365543305874 0.05073268711566925 0.08638472855091095 -0.0275129247456789 0.02310747653245926 -0.02972869947552681 0.011754759587347507 0.0651431679725647 -0.0732225626707077 -0.005159537307918072 -0.12995171546936035 0.06705321371555328 -0.01099555753171444 -0.0790468081831932 -0.01934674009680748 -0.0011423722608014941 0.025991290807724 -0.015570780262351036 0.030801549553871155 0.07370451837778091 0.12870430946350098 -0.000272223143838346 -0.036337174475193024 -0.07958900928497314 0.018318356946110725 -0.010005304589867592 0.03931595757603645 -0.026324577629566193 -0.04006519913673401 -0.10723955929279327 -0.07041626423597336 -0.03202339634299278 -0.05335737764835358 -0.02510972134768963 -0.06479762494564056 -0.06962963193655014 0.03957385942339897 0.04862716421484947 0.04889937862753868 0.09581432491540909 -0.00273206178098917 -0.03924672678112984 0.015684282407164574 -0.08347585797309875 0.07724572718143463 -0.05403704196214676 -0.07877393066883087 0.06540679186582565 -0.036855876445770264 0.1443617045879364 0.011008241213858128 -0.00918381754308939 -0.03182622790336609 0.020179469138383865 0.03283930942416191 0.014428133144974709 -0.10569268465042114 -0.06579619646072388 0.02191908285021782 0.04074045643210411 -0.0022604826372116804 -0.057746343314647675 0.04755998030304909 0.003243356244638562 -0.02325485460460186 0.08031684905290604 0.06794164329767227 0.07204420119524002 -0.05949730426073074 -0.039012908935546875 -0.039324499666690826 0.1487221121788025 -0.013222036883234978 0.07718073576688766 0.0034287567250430584 -0.0310479998588562 0.0747472271323204 0.004686796572059393 -0.038977086544036865 0.11257307976484299 0.052345696836709976 -0.0046465517953038216 -0.07573042064905167 -0.058383598923683167 -0.14237330853939056 -0.049033939838409424 -0.07722137868404388 -0.018365873023867607 0.11956807225942612 -0.07011102139949799 0.03816692903637886 -0.06399490684270859 -0.10118958353996277 -0.017941085621714592 0.0628412589430809 0.057457637041807175 -0.04002835601568222 -0.06846079230308533 -0.062217969447374344 0.05999084934592247 -0.029881687834858894 -0.015249432995915413 0.0460362583398819 -0.10844086110591888 -0.02982453443109989 0.017399555072188377 -0.04465964064002037 -0.042529188096523285 0.1028529554605484 -0.0849730372428894 0.14486542344093323 0.09837546199560165 -0.0042869821190834045 -0.008275243453681469 0.05960638448596001 -0.0058333659544587135 0.013404331170022488 0.06306780874729156 -0.02289099432528019 -0.022656548768281937 -0.13250011205673218 0.017580371350049973 -0.08882851153612137 -0.05388537794351578 0.048184290528297424 0.07773248106241226 0.11287396401166916 -0.008622164838016033 -0.0025916623417288065 0.0039328536950051785 -0.04816944897174835 0.10123896598815918 -0.07477007061243057 -0.07719293981790543 -0.020354680716991425 -0.003569724503904581 -0.04699333757162094 -0.035792410373687744 -0.0007094151224009693 0.038465287536382675 0.01731308363378048 -0.03318611904978752 0.017605595290660858 -0.04241173341870308 0.058707114309072495 0.031778398901224136 -0.05048288032412529 -0.03019176982343197 0.01399401854723692 -0.054184745997190475 -0.04477965831756592 0.039347387850284576 -0.06510629504919052 -0.06341204792261124 0.09516266733407974 0.08241945505142212 -0.04457060992717743 0.014541289769113064 0.0023601457942277193 0.062422506511211395 -0.015407831408083439 -0.031719863414764404 0.024121368303894997 -0.03451334312558174 0.08528969436883926 -0.04055134207010269 0.008000784553587437 -0.014102093875408173 -0.07811455428600311 0.03055390529334545 0.020574618130922318 0.08813198655843735 -0.004274748731404543 -0.012003167532384396 0.047786928713321686 0.07251051813364029 -0.0036416351795196533 -0.02548866532742977 0.015192169696092606 0.07133278250694275 0.07488235086202621 0.013254886493086815 -0.06806467473506927 -0.013341089710593224 -0.017772404477000237 0.020399387925863266 0.08545427769422531 0.0029082316905260086 -0.03585921972990036 -0.01564299874007702 -0.05389696732163429 0.035770267248153687 -0.04902596399188042 0.026407500728964806 0.07087258994579315 -0.05728451535105705 0.05811762064695358 0.01436340156942606 -0.10489659011363983 -0.044038351625204086 -0.07373027503490448
money -0.03503076732158661 -0.06077083200216293 -0.050296347588300705 0.07574277371168137 -0.022327765822410583 0.02364962548017502 -0.011922589503228664 -0.04036176949739456 -0.08693303912878036 0.01698542945086956 0.09072434902191162 -0.011244570836424828 0.0076633114367723465 -0.08469929546117783 0.043273985385894775 -0.0036155334673821926 0.04360271245241165 0.06293011456727982 -0.004789176397025585 -0.053612787276506424 -0.09026318043470383 -0.07501264661550522 -0.030787207186222076 -0.01913176104426384 0.023612236604094505 0.00011031354370061308 -0.05163997784256935 -0.02336193434894085 0.04312396049499512 -0.09279350936412811 0.08628816157579422 0.0108278663828969 0.02190515026450157 -0.020404120907187462 0.024492904543876648 0.028583785519003868 -0.061367060989141464 -0.024232132360339165 0.04294772073626518 0.0016134551260620356 0.1015230119228363 -0.012895899824798107 -0.015545587055385113 -0.07899954169988632 -0.11250440776348114 0.04938347637653351 -0.03498606011271477 -0.02837560325860977 0.039629384875297546 -0.021640576422214508 -0.03782005235552788 -0.03803588077425957 -0.09625029563903809 0.008465207181870937 -0.016907671466469765 -0.05438227951526642 -0.0009199248161166906 -0.033860839903354645 0.002041911007836461 -0.09855746477842331 -0.01639946550130844 -0.061619799584150314 -0.005315749906003475 -0.014628670178353786 0.08407338708639145 0.07257407903671265 0.0730203241109848 -0.010879156179726124 0.037888623774051666 -0.005567464046180248 -0.04849135875701904 -0.07899294048547745 -0.08989482372999191 -0.04844357445836067 -0.02867020107805729 -0.03380357474088669 0.04672149196267128 -0.03608882799744606 0.018751032650470734 -0.03401685878634453 -0.048229433596134186 -0.06283597648143768 0.031196625903248787 0.05930257588624954 0.057728737592697144 -0.04246404767036438 -0.010406097397208214 -0.021331295371055603 -0.05089626833796501 -0.05167710781097412 0.08298523724079132 -0.1252959966659546 0.031112486496567726 0.003957364242523909 -0.06001395359635353 -0.036414362490177155 -0.010534331202507019 0.07239143550395966 -0.05466766655445099 -0.08568548411130905 0.1117364838719368 0.0021438130643218756 0.13516227900981903 0.06508473306894302 0.03311450406908989 -0.10106708854436874 0.06530731916427612 0.0038642503786832094 -0.057979535311460495 -0.08554546535015106 0.01957930438220501 -0.043336108326911926 0.027125418186187744 -0.02528996206820011 0.03987783566117287 0.01491493172943592 -0.021312613040208817 -0.03699032589793205 -0.07960487902164459 0.008325394243001938 -0.053860049694776535 -0.0004111931484658271 -0.14246104657649994 0.08965490758419037 -0.02048644982278347 -0.05387900024652481 0.05127342417836189 -0.053109027445316315 0.005954368505626917 -0.01661352999508381 -0.061306461691856384 0.05687034875154495 -0.046513620764017105 -0.003676055232062936 0.04664728417992592 -0.0918024554848671 0.03295741230249405 -0.057365674525499344 -0.02464509755373001 -0.0037742021959275007 0.05230531841516495 0.006419110111892223 -0.023058857768774033 -0.005438187159597874 -0.03378564119338989 -0.06652689725160599 -0.01661825180053711 -0.07211242616176605 -0.042925018817186356 0.05780415236949921 0.014427305199205875 -0.015218744985759258 -0.0990150198340416 0.08417899161577225 0.02049892581999302 0.062157437205314636 0.008804385550320148 0.10856549441814423 0.06165442243218422 -0.04106514900922775 -0.09861904382705688 -0.009543666616082191 0.01556552853435278 -0.03216612711548805 -0.030366741120815277 0.05364803224802017 -0.05360211804509163 0.11528453230857849 -0.06394122540950775 0.02619054913520813 -0.08476170152425766 0.1391623318195343 0.029939256608486176 0.006242401897907257 -0.09748265892267227 0.011694609187543392 -0.031258564442396164 0.0014501794939860702 -0.03799227252602577 -0.013312684372067451 0.010074945166707039 -0.05456077307462692 0.016446884721517563 0.058978963643312454 0.05072454735636711 0.029316596686840057 -0.06750530004501343 0.009779592975974083 -0.13404996693134308 -0.09843697398900986 0.08903571963310242 0.07381673902273178 0.02543720416724682 -0.022698236629366875 -0.045918166637420654 -0.10030623525381088 -0.026197636500000954 -0.06566998362541199 -0.06591010093688965 -0.0121711241081357 0.03572027012705803 0.03200269863009453 0.045091692358255386 0.06872176378965378 -0.08767693489789963 -0.026060381904244423 0.06812615692615509 0.04362127184867859 -0.030325137078762054 -0.1248684749007225 -0.035115718841552734 0.12058869749307632 0.0608389787375927 -0.04468291252851486 -0.04253633692860603 -0.05810050666332245 -0.05154987797141075 0.06660306453704834 -0.0706280842423439 -0.042816273868083954 -0.22339585423469543 0.06199027970433235 0.06204887852072716 0.04483259841799736 -0.014623092487454414 -0.06597396731376648 0.057893965393304825 0.008098812773823738 -0.13900576531887054 -0.027500851079821587 -0.03390420600771904 -0.004694769624620676 0.11350612342357635 0.06741207838058472 0.05397067591547966 0.012711862102150917 0.09107852727174759 0.06695561856031418 0.043748728930950165 0.02236325480043888 -0.08191658556461334 -0.06493178009986877 -0.05536531284451485 -0.008632218465209007 0.0783776193857193 0.009476839564740658 0.0794074758887291 -0.005879445932805538 -0.03638126701116562 0.07038634270429611 0.06401729583740234 -0.0645858496427536 0.044151727110147476 0.006371648050844669 -0.08009456843137741 -0.00677851727232337 -0.06129281595349312 0.025201762095093727 -0.021857211366295815 -0.022699737921357155 -0.020033439621329308 0.006055014673620462 0.03534988313913345 -0.04460537061095238 0.010117893107235432 -0.04058334231376648 0.13671500980854034 0.05442200228571892 -0.04007992520928383 0.030646149069070816 0.04560320824384689 -0.006136993877589703 -0.0049347286112606525 0.0193047933280468 0.07944042235612869 0.09564421325922012 0.01945282705128193 0.050434719771146774 -0.02353537268936634 0.028266293928027153 -0.031921546906232834 0.038008976727724075 0.08315425366163254 0.10589003562927246 0.07013507187366486 -0.03580349683761597 -0.03195929154753685 -0.03253316879272461 0.005392853170633316 0.051930803805589676 -0.08666515350341797 -0.07900647819042206 0.005549859255552292 0.02307123690843582 0.07447756826877594 0.053301259875297546 0.050837453454732895 0.022398365661501884 -0.059621620923280716 -0.017224514856934547
<unk> 0.024020586162805557 -0.001306893303990364 -0.017983369529247284 0.049518316984176636 0.026685623452067375 0.018781675025820732 -0.04078294709324837 -0.04581081122159958 -0.051863979548215866 0.08258426934480667 0.07941383123397827 0.06289010494947433 -0.038177475333213806 -0.04043024405837059 -0.06926881521940231 -0.08903729915618896 -0.011324108578264713 -0.06309600919485092 -0.03900925815105438 -0.058392081409692764 -0.057049088180065155 0.03181655704975128 0.006076027639210224 -0.12027367949485779 0.11708074808120728 -0.027980947867035866 0.06981222331523895 -0.004880568478256464 0.07543877512216568 -0.04467656463384628 -0.05334360897541046 -0.10984137654304504 0.01994430087506771 0.04201775789260864 0.05848851799964905 0.021625908091664314 0.08913309127092361 -0.02700646221637726 -0.0698888748884201 -0.049434177577495575 0.05678647384047508 0.011389913968741894 0.10219758003950119 -0.06447704881429672 0.01390407606959343 0.020042188465595245 0.04123900085687637 0.05627714842557907 -0.0005662829498760402 0.027630914002656937 0.01853892020881176 -0.06136017292737961 -0.0808643326163292 -0.0054328409023582935 -0.03733488917350769 0.007456498220562935 -0.02500324510037899 0.01902392879128456 0.09048474580049515 0.03407913073897362 0.07393750548362732 0.00930024217814207 0.033934447914361954 -0.015761401504278183 0.04344592243432999 0.01990179345011711 0.011597857810556889 0.09327268600463867 -0.06539571285247803 -0.04016953334212303 0.1297583431005478 0.14199842512607574 0.008420631289482117 -0.050909485667943954 0.03897049278020859 -0.06605368107557297 0.03270278126001358 0.05122247338294983 -0.02107820101082325 0.011044367216527462 -0.0016406833892688155 0.0503104105591774 0.055729903280735016 0.024775391444563866 0.029029469937086105 0.06411965936422348 0.032739028334617615 0.09940890967845917 0.0356081947684288 0.017595693469047546 0.020575180649757385 -0.02642957679927349 0.14606016874313354 0.10203250497579575 -0.08985602855682373 0.07448650896549225 0.05297046899795532 -0.0549718476831913 -0.0478946678340435 0.12056828290224075 -0.0009079829906113446 0.03094901330769062 0.011553074233233929 0.0033854201901704073 0.01740262843668461 0.015049316920340061 -0.014013554900884628 0.10875149071216583 0.06527535617351532 -0.07821422070264816 -0.07475431263446808 -0.06870104372501373 0.001051071914844215 -0.05351615324616432 0.04444435238838196 -0.025388440117239952 0.017550062388181686 0.07674985378980637 -0.041446927934885025 -0.0986088439822197 -0.084641233086586 -0.02340969257056713 0.0650455430150032 -0.051428064703941345 0.06028134003281593 0.04812309145927429 -0.04136959835886955 -0.013890963047742844 0.07846160978078842 0.0027586687356233597 0.13242127001285553 0.07879596203565598 -0.04864826425909996 0.009748383425176144 -0.002525602700188756 0.04228343069553375 0.04304753616452217 -0.0558009147644043 -0.02146657183766365 0.024589044973254204 -0.029298994690179825 -0.0012592138955369592 0.014074458740651608 -0.04137827455997467 0.0019842693582177162 -0.03433080017566681 0.057460568845272064 -0.01397528126835823 -0.016815880313515663 0.07196104526519775 -0.02018740028142929 -0.10651680082082748 0.06035550311207771 0.012339930050075054 0.005774923134595156 -0.07315350323915482 0.003466440364718437 -0.0289164911955595 -0.03118017688393593 0.01693595014512539 -0.15214581787586212 0.08082945644855499 0.026719078421592712 0.07786806672811508 -0.0780930146574974 0.008509092032909393 -0.06421729177236557 0.050341054797172546 0.052840616554021835 0.0021846292074769735 0.046757206320762634 -0.0753665342926979 0.15898488461971283 0.045477885752916336 -0.011110435239970684 0.09933068603277206 -0.04054923728108406 0.010308531112968922 0.0003098333836533129 0.039685603231191635 0.032232366502285004 -0.059418171644210815 -0.010646232403814793 0.08346159756183624 0.04104752466082573 0.03246139734983444 0.06071034446358681 -0.06830775737762451 0.02603122405707836 7.45667566661723e-05 -0.008545816875994205 -0.04720918834209442 0.014192003756761551 0.047574128955602646 -0.15426097810268402 -0.019138189032673836 -0.08365557342767715 0.03799162805080414 -0.09946727007627487 -0.014978148974478245 -0.01059744507074356 0.026478270068764687 0.015169345773756504 0.10425188392400742 0.002331273863092065 -0.0036990370135754347 -0.019966058433055878 -0.13030920922756195 -0.0887976810336113 -0.06756798923015594 -0.003330962499603629 -0.014587823301553726 -0.059590745717287064 0.09652365744113922 -0.05855798348784447 0.04190491512417793 0.041342832148075104 0.006240378133952618 -0.0022114370949566364 -0.004214505199342966 -0.009002957493066788 -0.04707911238074303 0.003409912809729576 0.0871877372264862 -0.03430002182722092 -0.017969943583011627 0.1534850150346756 -0.0501159206032753 0.02882855385541916 -0.0805312767624855 -0.06012480705976486 0.0910174772143364 0.0629592090845108 -0.063590407371521 0.03739269822835922 -0.07744342088699341 -0.023819848895072937 0.06919700652360916 -0.031360089778900146 -0.06977178156375885 0.008582090958952904 0.06578978896141052 0.013926275074481964 0.03129468858242035 -0.10821308195590973 -0.035664137452840805 -0.035693392157554626 -0.0169029850512743 -0.06700208783149719 -0.037055958062410355 0.02669522725045681 -0.04229903221130371 -1.799206802388653e-05 0.01451125182211399 -0.03076038509607315 0.001666014431975782 -0.09964693337678909 0.08278609812259674 -0.04910692200064659 0.013096839189529419 0.09246000647544861 0.04014190286397934 -0.03435942530632019 -0.03556642308831215 0.01767524518072605 0.07208216935396194 0.06911036372184753 -0.039838433265686035 0.04888222739100456 0.029592221602797508 0.037645936012268066 -0.07431173324584961 0.026854200288653374 0.08758202940225601 -0.06728041917085648 -0.03419570252299309 -0.029138870537281036 0.04696383699774742 -0.10813122242689133 0.008179455995559692 -0.09314348548650742 0.05409570410847664 0.022348159924149513 0.007329348009079695 -0.07261018455028534 -0.0534084253013134 -0.03417209908366203 -0.05151628330349922 0.02885761857032776 -0.10109411925077438 -0.035767581313848495 -0.05721469968557358 0.013603262603282928 -0.013081884011626244 0.024496115744113922 -0.0068585495464503765 -0.15002229809761047 0.0037254977505654097 0.02740480750799179 0.04267236590385437
<unk> 0.024020586162805557 -0.001306893303990364 -0.017983369529247284 0.049518316984176636 0.026685623452067375 0.018781675025820732 -0.04078294709324837 -0.04581081122159958 -0.051863979548215866 0.08258426934480667 0.07941383123397827 0.06289010494947433 -0.038177475333213806 -0.04043024405837059 -0.06926881521940231 -0.08903729915618896 -0.011324108578264713 -0.06309600919485092 -0.03900925815105438 -0.058392081409692764 -0.057049088180065155 0.03181655704975128 0.006076027639210224 -0.12027367949485779 0.11708074808120728 -0.027980947867035866 0.06981222331523895 -0.004880568478256464 0.07543877512216568 -0.04467656463384628 -0.05334360897541046 -0.10984137654304504 0.01994430087506771 0.04201775789260864 0.05848851799964905 0.021625908091664314 0.08913309127092361 -0.02700646221637726 -0.0698888748884201 -0.049434177577495575 0.05678647384047508 0.011389913968741894 0.10219758003950119 -0.06447704881429672 0.01390407606959343 0.020042188465595245 0.04123900085687637 0.05627714842557907 -0.0005662829498760402 0.027630914002656937 0.01853892020881176 -0.06136017292737961 -0.0808643326163292 -0.0054328409023582935 -0.03733488917350769 0.007456498220562935 -0.02500324510037899 0.01902392879128456 0.09048474580049515 0.03407913073897362 0.07393750548362732 0.00930024217814207 0.033934447914361954 -0.015761401504278183 0.04344592243432999 0.01990179345011711 0.011597857810556889 0.09327268600463867 -0.06539571285247803 -0.04016953334212303 0.1297583431005478 0.14199842512607574 0.008420631289482117 -0.050909485667943954 0.03897049278020859 -0.06605368107557297 0.03270278126001358 0.05122247338294983 -0.02107820101082325 0.011044367216527462 -0.0016406833892688155 0.0503104105591774 0.055729903280735016 0.024775391444563866 0.029029469937086105 0.06411965936422348 0.032739028334617615 0.09940890967845917 0.0356081947684288 0.017595693469047546 0.020575180649757385 -0.02642957679927349 0.14606016874313354 0.10203250497579575 -0.08985602855682373 0.07448650896549225 0.05297046899795532 -0.0549718476831913 -0.0478946678340435 0.12056828290224075 -0.0009079829906113446 0.03094901330769062 0.011553074233233929 0.0033854201901704073 0.01740262843668461 0.015049316920340061 -0.014013554900884628 0.10875149071216583 0.06527535617351532 -0.07821422070264816 -0.07475431263446808 -0.06870104372501373 0.001051071914844215 -0.05351615324616432 0.04444435238838196 -0.025388440117239952 0.017550062388181686 0.07674985378980637 -0.041446927934885025 -0.0986088439822197 -0.084641233086586 -0.02340969257056713 0.0650455430150032 -0.051428064703941345 0.06028134003281593 0.04812309145927429 -0.04136959835886955 -0.013890963047742844 0.07846160978078842 0.0027586687356233597 0.13242127001285553 0.07879596203565598 -0.04864826425909996 0.009748383425176144 -0.002525602700188756 0.04228343069553375 0.04304753616452217 -0.0558009147644043 -0.02146657183766365 0.024589044973254204 -0.029298994690179825 -0.0012592138955369592 0.014074458740651608 -0.04137827455997467 0.0019842693582177162 -0.03433080017566681 0.057460568845272064 -0.01397528126835823 -0.016815880313515663 0.07196104526519775 -0.02018740028142929 -0.10651680082082748 0.06035550311207771 0.012339930050075054 0.005774923134595156 -0.07315350323915482 0.003466440364718437 -0.0289164911955595 -0.03118017688393593 0.01693595014512539 -0.15214581787586212 0.08082945644855499 0.026719078421592712 0.07786806672811508 -0.0780930146574974 0.008509092032909393 -0.06421729177236557 0.050341054797172546 0.052840616554021835 0.0021846292074769735 0.046757206320762634 -0.0753665342926979 0.15898488461971283 0.045477885752916336 -0.011110435239970684 0.09933068603277206 -0.04054923728108406 0.010308531112968922 0.0003098333836533129 0.039685603231191635 0.032232366502285004 -0.059418171644210815 -0.010646232403814793 0.08346159756183624 0.04104752466082573 0.03246139734983444 0.06071034446358681 -0.06830775737762451 0.02603122405707836 7.45667566661723e-05 -0.008545816875994205 -0.04720918834209442 0.014192003756761551 0.047574128955602646 -0.15426097810268402 -0.019138189032673836 -0.08365557342767715 0.03799162805080414 -0.09946727007627487 -0.014978148974478245 -0.01059744507074356 0.026478270068764687 0.015169345773756504 0.10425188392400742 0.002331273863092065 -0.0036990370135754347 -0.019966058433055878 -0.13030920922756195 -0.0887976810336113 -0.06756798923015594 -0.003330962499603629 -0.014587823301553726 -0.059590745717287064 0.09652365744113922 -0.05855798348784447 0.04190491512417793 0.041342832148075104 0.006240378133952618 -0.0022114370949566364 -0.004214505199342966 -0.009002957493066788 -0.04707911238074303 0.003409912809729576 0.0871877372264862 -0.03430002182722092 -0.017969943583011627 0.1534850150346756 -0.0501159206032753 0.02882855385541916 -0.0805312767624855 -0.06012480705976486 0.0910174772143364 0.0629592090845108 -0.063590407371521 0.03739269822835922 -0.07744342088699341 -0.023819848895072937 0.06919700652360916 -0.031360089778900146 -0.06977178156375885 0.008582090958952904 0.06578978896141052 0.013926275074481964 0.03129468858242035 -0.10821308195590973 -0.035664137452840805 -0.035693392157554626 -0.0169029850512743 -0.06700208783149719 -0.037055958062410355 0.02669522725045681 -0.04229903221130371 -1.799206802388653e-05 0.01451125182211399 -0.03076038509607315 0.001666014431975782 -0.09964693337678909 0.08278609812259674 -0.04910692200064659 0.013096839189529419 0.09246000647544861 0.04014190286397934 -0.03435942530632019 -0.03556642308831215 0.01767524518072605 0.07208216935396194 0.06911036372184753 -0.039838433265686035 0.04888222739100456 0.029592221602797508 0.037645936012268066 -0.07431173324584961 0.026854200288653374 0.08758202940225601 -0.06728041917085648 -0.03419570252299309 -0.029138870537281036 0.04696383699774742 -0.10813122242689133 0.008179455995559692 -0.09314348548650742 0.05409570410847664 0.022348159924149513 0.007329348009079695 -0.07261018455028534 -0.0534084253013134 -0.03417209908366203 -0.05151628330349922 0.02885761857032776 -0.10109411925077438 -0.035767581313848495 -0.05721469968557358 0.013603262603282928 -0.013081884011626244 0.024496115744113922 -0.0068585495464503765 -0.15002229809761047 0.0037254977505654097 0.02740480750799179 0.04267236590385437
door 0.0821298286318779 0.02776075154542923 -0.04257699474692345 0.07646949589252472 0.036213696002960205 -0.10395985096693039 -0.004073303192853928 -0.05603814497590065 -0.07069673389196396 0.026880165562033653 0.013139594346284866 0.06382732093334198 -0.01849648356437683 0.008175283670425415 -0.07562728971242905 -0.021858233958482742 0.012277688831090927 0.018449831753969193 0.02415335364639759 -0.003555443836376071 0.04482050612568855 -0.020890768617391586 0.10986829549074173 -0.07415122538805008 0.03143461421132088 0.04162651300430298 0.08987737447023392 -0.08321233093738556 0.06935018301010132 -0.05085483938455582 0.08335648477077484 -0.04078768193721771 0.011289912275969982 -0.02954949252307415 -0.06865786015987396 0.06913597136735916 -0.03877566382288933 0.03192074969410896 0.07836171984672546 -0.041252292692661285 0.0164505522698164 -0.03245510533452034 0.08769731968641281 -0.04496265575289726 -0.01919892430305481 -0.11348659545183182 -0.12877491116523743 0.1055547371506691 0.08536112308502197 -0.042474452406167984 -0.039419036358594894 -0.015227257274091244 0.003976828884333372 0.021800504997372627 0.044513553380966187 -0.08709816634654999 0.028468912467360497 -0.014029900543391705 0.07114080339670181 -0.026115385815501213 -0.10655446350574493 -0.03101656585931778 -0.02366012893617153 -0.06803326308727264 0.06161336228251457 0.04572122171521187 0.07872267812490463 0.0050912415608763695 0.035132620483636856 -0.0434078611433506 -0.017163626849651337 -0.009685712866485119 0.009386162273585796 0.13322997093200684 0.018324026837944984 0.05567178130149841 0.015734385699033737 -0.017205707728862762 -0.09385893493890762 -0.04038698971271515 0.04713284596800804 -0.05292904004454613 -0.009365336038172245 -0.025618266314268112 0.07834915816783905 -0.03708450868725777 -0.052166134119033813 0.03440111130475998 0.1101340726017952 0.05971945449709892 0.007722287438809872 -0.0030719025526195765 0.039371587336063385 0.03885502740740776 -0.002224493771791458 -0.0393441766500473 -0.058731865137815475 0.02879825420677662 -0.057699207216501236 -0.01874585822224617 0.020702512934803963 0.03770691156387329 -0.0020854303147643805 0.013393085449934006 -0.033595308661460876 -0.058548178523778915 -0.01828387938439846 0.018225952982902527 -0.007889927364885807 0.08620792627334595 -0.028124336153268814 -0.01921333745121956 0.06042929366230965 0.024540361016988754 -0.09693948924541473 0.10572028160095215 -0.04109775274991989 0.028657201677560806 -0.06446109712123871 -0.022222131490707397 -0.10371018201112747 -0.02748420275747776 0.031239943578839302 -0.05764566734433174 -0.002731778658926487 -0.14585484564304352 -0.03988634794950485 -0.013468511402606964 -0.0025741818826645613 -0.009622989222407341 0.013714677654206753 -0.06935540586709976 0.007327075116336346 -0.04669967666268349 -0.014280395582318306 -0.039772678166627884 -0.02185513824224472 -0.03905408829450607 -0.046692028641700745 0.09815408289432526 -0.048276446759700775 -0.02631266601383686 0.015596196986734867 0.10911689698696136 -0.04161609709262848 -0.12507864832878113 -0.03144640848040581 0.06624535471200943 0.008788762614130974 0.02236451767385006 0.043409209698438644 0.06334918737411499 -0.047164879739284515 0.08282969892024994 0.010405844077467918 -0.03313802182674408 -0.058210570365190506 0.014709440991282463 0.056157343089580536 0.006303505972027779 -0.11469653993844986 0.00846086535602808 0.025540638715028763 0.011678812094032764 0.10043476521968842 0.005022925324738026 0.05232652649283409 -0.09510934352874756 -0.029311412945389748 -0.06904914975166321 0.0372711606323719 0.022072359919548035 -0.02797411009669304 -0.16812236607074738 0.02247597835958004 -0.049847688525915146 0.0171318668872118 -0.08183407038450241 -0.03962264209985733 0.08050529658794403 -0.05281312018632889 -0.06473355740308762 -0.08879660815000534 -0.032888419926166534 0.011179616674780846 0.011168811470270157 0.08574595302343369 0.021587546914815903 -0.10600461810827255 0.0998392179608345 0.013693367131054401 0.015165765769779682 0.008427852764725685 0.004721084609627724 -0.019563114270567894 -0.011679195798933506 0.11588896811008453 0.02170492336153984 -0.07918325811624527 -0.08526153117418289 0.042898617684841156 -0.00868234969675541 0.05652158707380295 0.08925825357437134 -0.019303416833281517 -0.06142962723970413 -0.07305373251438141 -0.06409849226474762 0.032236937433481216 0.014261610805988312 -0.017989233136177063 0.05104441195726395 0.006259865593165159 -0.07801040261983871 -0.0021950765512883663 -0.031809091567993164 0.035519834607839584 0.06097353994846344 -0.004907290916889906 -0.141045942902565 -0.06424380838871002 -0.039319202303886414 0.04308177903294563 -0.01271870918571949 -0.04500115290284157 -0.006609662901610136 -0.1398015171289444 -0.05376538634300232 -0.15434947609901428 -0.002083187224343419 -0.14060814678668976 -0.03957092761993408 -0.03270474448800087 -0.10121119022369385 -0.12707404792308807 0.16898931562900543 0.11496229469776154 -0.013450569473206997 0.02369552105665207 0.02705199643969536 0.024719880893826485 -0.060790568590164185 -0.029630085453391075 -0.043576791882514954 -0.09490862488746643 -0.03170539066195488 0.04550948366522789 -0.057860489934682846 0.010483198799192905 -0.08660974353551865 -0.035602372139692307 0.06956760585308075 0.0053861187770962715 0.0035051496233791113 -0.01922137290239334 -0.037490662187337875 0.039227187633514404 -0.026103725656867027 0.021052343770861626 -0.04815142974257469 0.08814221620559692 0.03696258366107941 0.04390820860862732 0.05396818369626999 -0.05900969356298447 0.01668008416891098 -0.08189676702022552 -0.037171103060245514 -0.07649272680282593 -0.00098505022469908 -0.030069872736930847 0.039994485676288605 0.06087588518857956 0.07126659154891968 -0.043526019901037216 -0.05112047120928764 0.07130199670791626 -0.0005279788747429848 0.057057466357946396 -0.04031752049922943 -0.08667348325252533 0.002907172543928027 -0.07299491763114929 0.016652274876832962 0.03573255613446236 -0.02277926355600357 0.04249285161495209 0.03365255892276764 0.03310839459300041 0.08397918939590454 -0.057936251163482666 0.018210701644420624 0.038021270185709 0.051028091460466385 -0.05170556902885437 -0.040499117225408554 -0.00779352243989706 0.01171564869582653 -0.008879831992089748 -0.039474744349718094
<unk> 0.024020586162805557 -0.001306893303990364 -0.017983369529247284 0.049518316984176636 0.026685623452067375 0.018781675025820732 -0.04078294709324837 -0.04581081122159958 -0.051863979548215866 0.08258426934480667 0.07941383123397827 0.06289010494947433 -0.038177475333213806 -0.04043024405837059 -0.06926881521940231 -0.08903729915618896 -0.011324108578264713 -0.06309600919485092 -0.03900925815105438 -0.058392081409692764 -0.057049088180065155 0.03181655704975128 0.006076027639210224 -0.12027367949485779 0.11708074808120728 -0.027980947867035866 0.06981222331523895 -0.004880568478256464 0.07543877512216568 -0.04467656463384628 -0.05334360897541046 -0.10984137654304504 0.01994430087506771 0.04201775789260864 0.05848851799964905 0.021625908091664314 0.08913309127092361 -0.02700646221637726 -0.0698888748884201 -0.049434177577495575 0.05678647384047508 0.011389913968741894 0.10219758003950119 -0.06447704881429672 0.01390407606959343 0.020042188465595245 0.04123900085687637 0.05627714842557907 -0.0005662829498760402 0.027630914002656937 0.01853892020881176 -0.06136017292737961 -0.0808643326163292 -0.0054328409023582935 -0.03733488917350769 0.007456498220562935 -0.02500324510037899 0.01902392879128456 0.09048474580049515 0.03407913073897362 0.07393750548362732 0.00930024217814207 0.033934447914361954 -0.015761401504278183 0.04344592243432999 0.01990179345011711 0.011597857810556889 0.09327268600463867 -0.06539571285247803 -0.04016953334212303 0.1297583431005478 0.14199842512607574 0.008420631289482117 -0.050909485667943954 0.03897049278020859 -0.06605368107557297 0.03270278126001358 0.05122247338294983 -0.02107820101082325 0.011044367216527462 -0.0016406833892688155 0.0503104105591774 0.055729903280735016 0.024775391444563866 0.029029469937086105 0.06411965936422348 0.032739028334617615 0.09940890967845917 0.0356081947684288 0.017595693469047546 0.020575180649757385 -0.02642957679927349 0.14606016874313354 0.10203250497579575 -0.08985602855682373 0.07448650896549225 0.05297046899795532 -0.0549718476831913 -0.0478946678340435 0.12056828290224075 -0.0009079829906113446 0.03094901330769062 0.011553074233233929 0.0033854201901704073 0.01740262843668461 0.015049316920340061 -0.014013554900884628 0.10875149071216583 0.06527535617351532 -0.07821422070264816 -0.07475431263446808 -0.06870104372501373 0.001051071914844215 -0.05351615324616432 0.04444435238838196 -0.025388440117239952 0.017550062388181686 0.07674985378980637 -0.041446927934885025 -0.0986088439822197 -0.084641233086586 -0.02340969257056713 0.0650455430150032 -0.051428064703941345 0.06028134003281593 0.04812309145927429 -0.04136959835886955 -0.013890963047742844 0.07846160978078842 0.0027586687356233597 0.13242127001285553 0.07879596203565598 -0.04864826425909996 0.009748383425176144 -0.002525602700188756 0.04228343069553375 0.04304753616452217 -0.0558009147644043 -0.02146657183766365 0.024589044973254204 -0.029298994690179825 -0.0012592138955369592 0.014074458740651608 -0.04137827455997467 0.0019842693582177162 -0.03433080017566681 0.057460568845272064 -0.01397528126835823 -0.016815880313515663 0.07196104526519775 -0.02018740028142929 -0.10651680082082748 0.06035550311207771 0.012339930050075054 0.005774923134595156 -0.07315350323915482 0.003466440364718437 -0.0289164911955595 -0.03118017688393593 0.01693595014512539 -0.15214581787586212 0.08082945644855499 0.026719078421592712 0.07786806672811508 -0.0780930146574974 0.008509092032909393 -0.06421729177236557 0.050341054797172546 0.052840616554021835 0.0021846292074769735 0.046757206320762634 -0.0753665342926979 0.15898488461971283 0.045477885752916336 -0.011110435239970684 0.09933068603277206 -0.04054923728108406 0.010308531112968922 0.0003098333836533129 0.039685603231191635 0.032232366502285004 -0.059418171644210815 -0.010646232403814793 0.08346159756183624 0.04104752466082573 0.03246139734983444 0.06071034446358681 -0.06830775737762451 0.02603122405707836 7.45667566661723e-05 -0.008545816875994205 -0.04720918834209442 0.014192003756761551 0.047574128955602646 -0.15426097810268402 -0.019138189032673836 -0.08365557342767715 0.03799162805080414 -0.09946727007627487 -0.014978148974478245 -0.01059744507074356 0.026478270068764687 0.015169345773756504 0.10425188392400742 0.002331273863092065 -0.0036990370135754347 -0.019966058433055878 -0.13030920922756195 -0.0887976810336113 -0.06756798923015594 -0.003330962499603629 -0.014587823301553726 -0.059590745717287064 0.09652365744113922 -0.05855798348784447 0.04190491512417793 0.041342832148075104 0.006240378133952618 -0.0022114370949566364 -0.004214505199342966 -0.009002957493066788 -0.04707911238074303 0.003409912809729576 0.0871877372264862 -0.03430002182722092 -0.017969943583011627 0.1534850150346756 -0.0501159206032753 0.02882855385541916 -0.0805312767624855 -0.06012480705976486 0.0910174772143364 0.0629592090845108 -0.063590407371521 0.03739269822835922 -0.07744342088699341 -0.023819848895072937 0.06919700652360916 -0.031360089778900146 -0.06977178156375885 0.008582090958952904 0.06578978896141052 0.013926275074481964 0.03129468858242035 -0.10821308195590973 -0.035664137452840805 -0.035693392157554626 -0.0169029850512743 -0.06700208783149719 -0.037055958062410355 0.02669522725045681 -0.04229903221130371 -1.799206802388653e-05 0.01451125182211399 -0.03076038509607315 0.001666014431975782 -0.09964693337678909 0.08278609812259674 -0.04910692200064659 0.013096839189529419 0.09246000647544861 0.04014190286397934 -0.03435942530632019 -0.03556642308831215 0.01767524518072605 0.07208216935396194 0.06911036372184753 -0.039838433265686035 0.04888222739100456 0.029592221602797508 0.037645936012268066 -0.07431173324584961 0.026854200288653374 0.08758202940225601 -0.06728041917085648 -0.03419570252299309 -0.029138870537281036 0.04696383699774742 -0.10813122242689133 0.008179455995559692 -0.09314348548650742 0.05409570410847664 0.022348159924149513 0.007329348009079695 -0.07261018455028534 -0.0534084253013134 -0.03417209908366203 -0.05151628330349922 0.02885761857032776 -0.10109411925077438 -0.035767581313848495 -0.05721469968557358 0.013603262603282928 -0.013081884011626244 0.024496115744113922 -0.0068585495464503765 -0.15002229809761047 0.0037254977505654097 0.02740480750799179 0.04267236590385437
daughter 0.04781041666865349 -0.11190901696681976 0.03619173914194107 -0.07615090161561966 -0.08389207720756531 -0.007972385734319687 0.018955692648887634 -0.010259116999804974 -0.061485424637794495 -0.018298055976629257 0.01654932275414467 -0.033846043050289154 0.034101177006959915 -0.011034083552658558 0.005171466153115034 0.01871797814965248 -0.02067207358777523 0.09556273370981216 0.09237541258335114 -0.009243237785995007 0.03001212328672409 0.041643254458904266 0.02575724571943283 -0.014165340922772884 -0.02059777081012726 -0.10891425609588623 0.03544960916042328 -0.007050383370369673 -0.05885868892073631 -0.02504284307360649 -0.04755580425262451 -0.00847990158945322 -0.06828626245260239 -0.05146736279129982 -0.010620541870594025 0.07793381810188293 -0.013570197857916355 -0.031290654093027115 0.017630362883210182 -0.05439046025276184 0.04328780248761177 0.031660888344049454 -0.08694347739219666 0.020651482045650482 -0.020283235237002373 -0.0853298008441925 -0.010455134324729443 -0.016124622896313667 0.07059313356876373 -0.03975854814052582 0.04754410684108734 0.0943346843123436 -0.013312549330294132 -0.04784112423658371 0.012928816489875317 -0.1443314403295517 -0.017805133014917374 -0.05937736853957176 0.07287599891424179 0.05240534991025925 -0.02026468515396118 -0.08504892140626907 0.01403120718896389 -0.03627678379416466 0.011067235842347145 -0.06925663352012634 0.0564790777862072 0.09688203036785126 0.08611977100372314 -0.010906044393777847 -0.11114087700843811 -0.02649587392807007 0.005518148187547922 0.03755774721503258 -0.01953568495810032 0.13415679335594177 -0.004773749969899654 -0.012328781187534332 -0.09416460990905762 -0.05782832205295563 0.0028554298914968967 -0.09067651629447937 0.09332551062107086 -0.014616734348237514 0.07883407920598984 0.08246474713087082 0.05604013055562973 -0.05369607359170914 0.0032196384854614735 0.008819153532385826 0.11926485598087311 -0.06982072442770004 -0.036686886101961136 0.019990112632513046 0.014770743437111378 0.0499095544219017 0.022875746712088585 0.049241870641708374 0.07787645608186722 -0.08487343043088913 0.07186667621135712 -0.004723851103335619 0.1795542687177658 0.01663106679916382 0.05851408466696739 0.04524431750178337 -0.03918605297803879 -0.05035371333360672 0.05164128169417381 0.11187604814767838 -0.017300765961408615 0.01982393115758896 -0.06402840465307236 -0.04710392281413078 -0.07002539187669754 0.00018056404951494187 -0.008500789292156696 0.03263750299811363 0.04616466164588928 0.0032095753122121096 0.09225713461637497 -0.06873592734336853 0.04313692823052406 -0.04086236655712128 0.07050241529941559 0.007881367579102516 -0.058576181530952454 -0.014103473164141178 -0.014786740764975548 -0.05033135786652565 -0.03527048975229263 -0.03961003199219704 0.0054220883175730705 -0.07189465314149857 -0.0009014728711917996 -0.030883532017469406 0.01517707109451294 0.09648364037275314 -0.04767650365829468 0.05640352517366409 0.04353456571698189 0.12453774362802505 -0.031490083783864975 -0.062051232904195786 0.01374698244035244 0.028586532920598984 -0.0070671080611646175 -0.0946497768163681 0.09275761246681213 -0.04920186102390289 0.08949805796146393 -0.04548105597496033 0.013065655715763569 0.1143617331981659 0.008269127458333969 -0.023517610505223274 -0.09921927005052567 0.028050392866134644 0.061584677547216415 0.011231656186282635 -0.09962283819913864 -0.022075971588492393 -0.02736791968345642 0.1027766615152359 0.04757150262594223 0.04782392084598541 -0.07437767088413239 -0.04303639382123947 0.10032573342323303 0.020218990743160248 -0.010403554886579514 -0.0400727204978466 -0.06989923864603043 -0.06707201898097992 0.046300891786813736 0.014834538102149963 0.00014685059431940317 0.03836623951792717 0.13446146249771118 0.07684388756752014 -0.006207447033375502 -0.009322450496256351 -0.030872512608766556 -0.10573805123567581 -0.037449803203344345 -0.05048373341560364 -0.05790344998240471 0.004197903908789158 -0.0737687200307846 0.014733263291418552 0.06654497981071472 -0.027746468782424927 -0.015601353719830513 0.06170331686735153 0.0482637844979763 0.05090436339378357 -0.028219804167747498 -0.043246906250715256 -0.16675975918769836 0.03926192969083786 -0.05977676436305046 0.0578373447060585 -0.08764714002609253 -0.03175690397620201 -0.01770683377981186 -0.01876767724752426 -4.5583783503388986e-05 -0.052024632692337036 0.027165990322828293 0.1348203718662262 -0.017402149736881256 -0.07870731502771378 0.009800752624869347 -0.03642972931265831 0.15309859812259674 -0.013985845260322094 -0.07264211028814316 0.029673948884010315 -0.062437355518341064 -0.03596803545951843 0.07431548833847046 0.011581668630242348 0.03948448598384857 0.06770500540733337 0.06989363580942154 -0.006085155997425318 0.11739695817232132 0.08153023570775986 -0.028077295050024986 -0.06266799569129944 -0.02577478252351284 -0.00011474377970444039 -0.020250117406249046 0.0331161804497242 -0.021981462836265564 -0.02387053146958351 0.014749114401638508 -0.027893470600247383 0.011340588331222534 0.02201181836426258 0.07479845732450485 0.06130022183060646 0.011532489210367203 0.10379224270582199 0.0034125493839383125 0.008773754350841045 0.02350938878953457 0.054004669189453125 -0.10675594210624695 -0.007152354810386896 0.03973336145281792 0.02935732528567314 0.032960180193185806 0.03876280039548874 0.0334872268140316 -0.05872441455721855 -0.0572589635848999 -4.9785244300437625e-06 0.011679600924253464 -0.08161544799804688 0.0020278736483305693 -0.05972260609269142 -0.04268994554877281 0.0681561678647995 -0.013850159011781216 -0.05794669687747955 0.10137885063886642 -0.042000025510787964 -0.06435945630073547 0.1266486793756485 0.07602006942033768 -0.05933164805173874 0.0016155735356733203 -0.00741986557841301 0.00883571058511734 -0.05140889808535576 -0.06162899360060692 0.07084101438522339 -0.03570743650197983 0.05916961282491684 0.015296227298676968 -0.08200893551111221 -0.028898736461997032 -0.05546185374259949 0.12647239863872528 0.02225128747522831 -0.01674705743789673 -0.06742038577795029 -0.013155439868569374 -0.07816921174526215 0.009726276621222496 0.03739367052912712 0.03572749346494675 -0.04204694554209709 -0.03138401359319687 -0.04240059852600098 0.07517042011022568 0.0039022318087518215 0.0417822003364563 0.05505658686161041
<unk> 0.024020586162805557 -0.001306893303990364 -0.017983369529247284 0.049518316984176636 0.026685623452067375 0.018781675025820732 -0.04078294709324837 -0.04581081122159958 -0.051863979548215866 0.08258426934480667 0.07941383123397827 0.06289010494947433 -0.038177475333213806 -0.04043024405837059 -0.06926881521940231 -0.08903729915618896 -0.011324108578264713 -0.06309600919485092 -0.03900925815105438 -0.058392081409692764 -0.057049088180065155 0.03181655704975128 0.006076027639210224 -0.12027367949485779 0.11708074808120728 -0.027980947867035866 0.06981222331523895 -0.004880568478256464 0.07543877512216568 -0.04467656463384628 -0.05334360897541046 -0.10984137654304504 0.01994430087506771 0.04201775789260864 0.05848851799964905 0.021625908091664314 0.08913309127092361 -0.02700646221637726 -0.0698888748884201 -0.049434177577495575 0.05678647384047508 0.011389913968741894 0.10219758003950119 -0.06447704881429672 0.01390407606959343 0.020042188465595245 0.04123900085687637 0.05627714842557907 -0.0005662829498760402 0.027630914002656937 0.01853892020881176 -0.06136017292737961 -0.0808643326163292 -0.0054328409023582935 -0.03733488917350769 0.007456498220562935 -0.02500324510037899 0.01902392879128456 0.09048474580049515 0.03407913073897362 0.07393750548362732 0.00930024217814207 0.033934447914361954 -0.015761401504278183 0.04344592243432999 0.01990179345011711 0.011597857810556889 0.09327268600463867 -0.06539571285247803 -0.04016953334212303 0.1297583431005478 0.14199842512607574 0.008420631289482117 -0.050909485667943954 0.03897049278020859 -0.06605368107557297 0.03270278126001358 0.05122247338294983 -0.02107820101082325 0.011044367216527462 -0.0016406833892688155 0.0503104105591774 0.055729903280735016 0.024775391444563866 0.029029469937086105 0.06411965936422348 0.032739028334617615 0.09940890967845917 0.0356081947684288 0.017595693469047546 0.020575180649757385 -0.02642957679927349 0.14606016874313354 0.10203250497579575 -0.08985602855682373 0.07448650896549225 0.05297046899795532 -0.0549718476831913 -0.0478946678340435 0.12056828290224075 -0.0009079829906113446 0.03094901330769062 0.011553074233233929 0.0033854201901704073 0.01740262843668461 0.015049316920340061 -0.014013554900884628 0.10875149071216583 0.06527535617351532 -0.07821422070264816 -0.07475431263446808 -0.06870104372501373 0.001051071914844215 -0.05351615324616432 0.04444435238838196 -0.025388440117239952 0.017550062388181686 0.07674985378980637 -0.041446927934885025 -0.0986088439822197 -0.084641233086586 -0.02340969257056713 0.0650455430150032 -0.051428064703941345 0.06028134003281593 0.04812309145927429 -0.04136959835886955 -0.013890963047742844 0.07846160978078842 0.0027586687356233597 0.13242127001285553 0.07879596203565598 -0.04864826425909996 0.009748383425176144 -0.002525602700188756 0.04228343069553375 0.04304753616452217 -0.0558009147644043 -0.02146657183766365 0.024589044973254204 -0.029298994690179825 -0.0012592138955369592 0.014074458740651608 -0.04137827455997467 0.0019842693582177162 -0.03433080017566681 0.057460568845272064 -0.01397528126835823 -0.016815880313515663 0.07196104526519775 -0.02018740028142929 -0.10651680082082748 0.06035550311207771 0.012339930050075054 0.005774923134595156 -0.07315350323915482 0.003466440364718437 -0.0289164911955595 -0.03118017688393593 0.01693595014512539 -0.15214581787586212 0.08082945644855499 0.026719078421592712 0.07786806672811508 -0.0780930146574974 0.008509092032909393 -0.06421729177236557 0.050341054797172546 0.052840616554021835 0.0021846292074769735 0.046757206320762634 -0.0753665342926979 0.15898488461971283 0.045477885752916336 -0.011110435239970684 0.09933068603277206 -0.04054923728108406 0.010308531112968922 0.0003098333836533129 0.039685603231191635 0.032232366502285004 -0.059418171644210815 -0.010646232403814793 0.08346159756183624 0.04104752466082573 0.03246139734983444 0.06071034446358681 -0.06830775737762451 0.02603122405707836 7.45667566661723e-05 -0.008545816875994205 -0.04720918834209442 0.014192003756761551 0.047574128955602646 -0.15426097810268402 -0.019138189032673836 -0.08365557342767715 0.03799162805080414 -0.09946727007627487 -0.014978148974478245 -0.01059744507074356 0.026478270068764687 0.015169345773756504 0.10425188392400742 0.002331273863092065 -0.0036990370135754347 -0.019966058433055878 -0.13030920922756195 -0.0887976810336113 -0.06756798923015594 -0.003330962499603629 -0.014587823301553726 -0.059590745717287064 0.09652365744113922 -0.05855798348784447 0.04190491512417793 0.041342832148075104 0.006240378133952618 -0.0022114370949566364 -0.004214505199342966 -0.009002957493066788 -0.04707911238074303 0.003409912809729576 0.0871877372264862 -0.03430002182722092 -0.017969943583011627 0.1534850150346756 -0.0501159206032753 0.02882855385541916 -0.0805312767624855 -0.06012480705976486 0.0910174772143364 0.0629592090845108 -0.063590407371521 0.03739269822835922 -0.07744342088699341 -0.023819848895072937 0.06919700652360916 -0.031360089778900146 -0.06977178156375885 0.008582090958952904 0.06578978896141052 0.013926275074481964 0.03129468858242035 -0.10821308195590973 -0.035664137452840805 -0.035693392157554626 -0.0169029850512743 -0.06700208783149719 -0.037055958062410355 0.02669522725045681 -0.04229903221130371 -1.799206802388653e-05 0.01451125182211399 -0.03076038509607315 0.001666014431975782 -0.09964693337678909 0.08278609812259674 -0.04910692200064659 0.013096839189529419 0.09246000647544861 0.04014190286397934 -0.03435942530632019 -0.03556642308831215 0.01767524518072605 0.07208216935396194 0.06911036372184753 -0.039838433265686035 0.04888222739100456 0.029592221602797508 0.037645936012268066 -0.07431173324584961 0.026854200288653374 0.08758202940225601 -0.06728041917085648 -0.03419570252299309 -0.029138870537281036 0.04696383699774742 -0.10813122242689133 0.008179455995559692 -0.09314348548650742 0.05409570410847664 0.022348159924149513 0.007329348009079695 -0.07261018455028534 -0.0534084253013134 -0.03417209908366203 -0.05151628330349922 0.02885761857032776 -0.10109411925077438 -0.035767581313848495 -0.05721469968557358 0.013603262603282928 -0.013081884011626244 0.024496115744113922 -0.0068585495464503765 -0.15002229809761047 0.0037254977505654097 0.02740480750799179 0.04267236590385437
<unk> 0.024020586162805557 -0.001306893303990364 -0.017983369529247284 0.049518316984176636 0.026685623452067375 0.018781675025820732 -0.04078294709324837 -0.04581081122159958 -0.051863979548215866 0.08258426934480667 0.07941383123397827 0.06289010494947433 -0.038177475333213806 -0.04043024405837059 -0.06926881521940231 -0.08903729915618896 -0.011324108578264713 -0.06309600919485092 -0.03900925815105438 -0.058392081409692764 -0.057049088180065155 0.03181655704975128 0.006076027639210224 -0.12027367949485779 0.11708074808120728 -0.027980947867035866 0.06981222331523895 -0.004880568478256464 0.07543877512216568 -0.04467656463384628 -0.05334360897541046 -0.10984137654304504 0.01994430087506771 0.04201775789260864 0.05848851799964905 0.021625908091664314 0.08913309127092361 -0.02700646221637726 -0.0698888748884201 -0.049434177577495575 0.05678647384047508 0.011389913968741894 0.10219758003950119 -0.06447704881429672 0.01390407606959343 0.020042188465595245 0.04123900085687637 0.05627714842557907 -0.0005662829498760402 0.027630914002656937 0.01853892020881176 -0.06136017292737961 -0.0808643326163292 -0.0054328409023582935 -0.03733488917350769 0.007456498220562935 -0.02500324510037899 0.01902392879128456 0.09048474580049515 0.03407913073897362 0.07393750548362732 0.00930024217814207 0.033934447914361954 -0.015761401504278183 0.04344592243432999 0.01990179345011711 0.011597857810556889 0.09327268600463867 -0.06539571285247803 -0.04016953334212303 0.1297583431005478 0.14199842512607574 0.008420631289482117 -0.050909485667943954 0.03897049278020859 -0.06605368107557297 0.03270278126001358 0.05122247338294983 -0.02107820101082325 0.011044367216527462 -0.0016406833892688155 0.0503104105591774 0.055729903280735016 0.024775391444563866 0.029029469937086105 0.06411965936422348 0.032739028334617615 0.09940890967845917 0.0356081947684288 0.017595693469047546 0.020575180649757385 -0.02642957679927349 0.14606016874313354 0.10203250497579575 -0.08985602855682373 0.07448650896549225 0.05297046899795532 -0.0549718476831913 -0.0478946678340435 0.12056828290224075 -0.0009079829906113446 0.03094901330769062 0.011553074233233929 0.0033854201901704073 0.01740262843668461 0.015049316920340061 -0.014013554900884628 0.10875149071216583 0.06527535617351532 -0.07821422070264816 -0.07475431263446808 -0.06870104372501373 0.001051071914844215 -0.05351615324616432 0.04444435238838196 -0.025388440117239952 0.017550062388181686 0.07674985378980637 -0.041446927934885025 -0.0986088439822197 -0.084641233086586 -0.02340969257056713 0.0650455430150032 -0.051428064703941345 0.06028134003281593 0.04812309145927429 -0.04136959835886955 -0.013890963047742844 0.07846160978078842 0.0027586687356233597 0.13242127001285553 0.07879596203565598 -0.04864826425909996 0.009748383425176144 -0.002525602700188756 0.04228343069553375 0.04304753616452217 -0.0558009147644043 -0.02146657183766365 0.024589044973254204 -0.029298994690179825 -0.0012592138955369592 0.014074458740651608 -0.04137827455997467 0.0019842693582177162 -0.03433080017566681 0.057460568845272064 -0.01397528126835823 -0.016815880313515663 0.07196104526519775 -0.02018740028142929 -0.10651680082082748 0.06035550311207771 0.012339930050075054 0.005774923134595156 -0.07315350323915482 0.003466440364718437 -0.0289164911955595 -0.03118017688393593 0.01693595014512539 -0.15214581787586212 0.08082945644855499 0.026719078421592712 0.07786806672811508 -0.0780930146574974 0.008509092032909393 -0.06421729177236557 0.050341054797172546 0.052840616554021835 0.0021846292074769735 0.046757206320762634 -0.0753665342926979 0.15898488461971283 0.045477885752916336 -0.011110435239970684 0.09933068603277206 -0.04054923728108406 0.010308531112968922 0.0003098333836533129 0.039685603231191635 0.032232366502285004 -0.059418171644210815 -0.010646232403814793 0.08346159756183624 0.04104752466082573 0.03246139734983444 0.06071034446358681 -0.06830775737762451 0.02603122405707836 7.45667566661723e-05 -0.008545816875994205 -0.04720918834209442 0.014192003756761551 0.047574128955602646 -0.15426097810268402 -0.019138189032673836 -0.08365557342767715 0.03799162805080414 -0.09946727007627487 -0.014978148974478245 -0.01059744507074356 0.026478270068764687 0.015169345773756504 0.10425188392400742 0.002331273863092065 -0.0036990370135754347 -0.019966058433055878 -0.13030920922756195 -0.0887976810336113 -0.06756798923015594 -0.003330962499603629 -0.014587823301553726 -0.059590745717287064 0.09652365744113922 -0.05855798348784447 0.04190491512417793 0.041342832148075104 0.006240378133952618 -0.0022114370949566364 -0.004214505199342966 -0.009002957493066788 -0.04707911238074303 0.003409912809729576 0.0871877372264862 -0.03430002182722092 -0.017969943583011627 0.1534850150346756 -0.0501159206032753 0.02882855385541916 -0.0805312767624855 -0.06012480705976486 0.0910174772143364 0.0629592090845108 -0.063590407371521 0.03739269822835922 -0.07744342088699341 -0.023819848895072937 0.06919700652360916 -0.031360089778900146 -0.06977178156375885 0.008582090958952904 0.06578978896141052 0.013926275074481964 0.03129468858242035 -0.10821308195590973 -0.035664137452840805 -0.035693392157554626 -0.0169029850512743 -0.06700208783149719 -0.037055958062410355 0.02669522725045681 -0.04229903221130371 -1.799206802388653e-05 0.01451125182211399 -0.03076038509607315 0.001666014431975782 -0.09964693337678909 0.08278609812259674 -0.04910692200064659 0.013096839189529419 0.09246000647544861 0.04014190286397934 -0.03435942530632019 -0.03556642308831215 0.01767524518072605 0.07208216935396194 0.06911036372184753 -0.039838433265686035 0.04888222739100456 0.029592221602797508 0.037645936012268066 -0.07431173324584961 0.026854200288653374 0.08758202940225601 -0.06728041917085648 -0.03419570252299309 -0.029138870537281036 0.04696383699774742 -0.10813122242689133 0.008179455995559692 -0.09314348548650742 0.05409570410847664 0.022348159924149513 0.007329348009079695 -0.07261018455028534 -0.0534084253013134 -0.03417209908366203 -0.05151628330349922 0.02885761857032776 -0.10109411925077438 -0.035767581313848495 -0.05721469968557358 0.013603262603282928 -0.013081884011626244 0.024496115744113922 -0.0068585495464503765 -0.15002229809761047 0.0037254977505654097 0.02740480750799179 0.04267236590385437
determine 0.05237279832363129 0.019378185272216797 -0.00725045008584857 0.04913284257054329 -0.12600170075893402 -0.03558768704533577 0.045406363904476166 -0.04495485872030258 -0.0008141302387230098 0.038808565586805344 0.007044500205665827 0.014812135137617588 -0.020229613408446312 0.06558828055858612 -0.07816430926322937 0.04030007869005203 0.039676014333963394 0.06463383138179779 -0.017664220184087753 -0.06906750053167343 0.042935218662023544 -0.005253380164504051 -0.029571248218417168 0.035800736397504807 0.00047922536032274365 0.041550230234861374 0.07580597698688507 0.04590799659490585 0.04471280798316002 -0.03999967873096466 0.03802774101495743 0.07259243726730347 -0.054280638694763184 -0.01025129109621048 0.014165121130645275 0.08376907557249069 0.0037414971739053726 -0.01157313771545887 -0.06721265614032745 0.006892164703458548 -0.11044643074274063 0.0511438213288784 0.028806477785110474 -0.10139497369527817 -0.02390199899673462 0.03044828213751316 -0.0772533044219017 0.05498576536774635 -0.004567358642816544 -0.03498806059360504 -0.04003655165433884 -0.04045744240283966 -0.09986115247011185 0.06288765370845795 -0.011398625560104847 0.016251210123300552 -0.031245511025190353 -0.10257935523986816 0.019816238433122635 -0.0010725109605118632 -0.025706449523568153 -0.012841102667152882 -0.039806246757507324 0.06015186756849289 0.07569202035665512 -0.038419514894485474 -0.03871753066778183 -0.020533757284283638 0.014767736196517944 0.028293706476688385 -0.023251619189977646 -0.03075290285050869 0.06951318681240082 -0.07277833670377731 0.17374879121780396 0.06486888974905014 0.057417601346969604 0.013552806340157986 -0.027215057983994484 -0.022299380972981453 -0.05202576518058777 0.008607970550656319 0.02613501437008381 -0.0013581702951341867 -0.030353611335158348 -0.08692166954278946 -0.1064629778265953 0.0417044535279274 0.022823017090559006 -0.07508386671543121 -0.1027907058596611 -0.008267266675829887 0.08255303651094437 0.031264614313840866 -0.037804823368787766 0.1333385407924652 0.024772074073553085 0.06444011628627777 -0.003890327177941799 0.08648145198822021 0.06773602217435837 0.031115781515836716 -0.009969820268452168 -0.017560046166181564 -0.04386492073535919 0.045853640884160995 0.11939172446727753 0.10016617178916931 -0.13562162220478058 0.0033109053038060665 0.03325444459915161 -0.09143931418657303 0.12341275811195374 -0.0006793244392611086 0.02640608139336109 -0.017040351405739784 0.02701828069984913 -0.013364086858928204 -0.06583922356367111 0.039649106562137604 0.003975209314376116 0.03578581288456917 0.13247033953666687 0.015879295766353607 0.011040971614420414 0.0019454250577837229 -0.008221622556447983 -0.05026222765445709 0.026127293705940247 0.09879890084266663 0.04060419648885727 0.04782695695757866 -0.0040434557013213634 0.024798281490802765 0.04057953134179115 0.09849011898040771 0.07405602186918259 0.015792138874530792 0.07474743574857712 0.014554421417415142 0.008457623422145844 0.019583813846111298 0.040244992822408676 0.028358612209558487 0.04012960195541382 -0.06348307430744171 0.01717076450586319 0.06074368581175804 0.0663275420665741 -0.05194167047739029 0.01861984096467495 -0.013328091241419315 0.12626968324184418 -0.10304960608482361 0.007703874260187149 0.06307169049978256 0.01038256473839283 0.10710079967975616 -0.051969390362501144 -0.013498514890670776 0.009766783565282822 0.03723194822669029 -0.00031056712032295763 0.004922507330775261 0.05969131365418434 -0.03577001020312309 0.025217698886990547 0.01954331062734127 0.0411514937877655 0.023684991523623466 0.05993654206395149 0.05863892659544945 -0.036965835839509964 -0.05993996560573578 -0.0015074595576152205 0.0014162376755848527 -0.040939316153526306 -0.0968542993068695 -0.10642030090093613 -0.00974106416106224 -0.11355183273553848 0.0547545962035656 0.03609438240528107 -0.1726706176996231 -0.030146140605211258 -0.03794009983539581 0.04935050755739212 -0.07449901103973389 0.041146326810121536 -0.005045174155384302 0.0367843434214592 0.13033759593963623 -0.0663631409406662 -0.05399050936102867 -0.05236983671784401 0.03153472766280174 -0.01744309440255165 -0.0988154262304306 -0.0583319254219532 0.06755934655666351 0.012534178793430328 0.05407758429646492 -0.09300438314676285 -0.03362087532877922 -0.023538995534181595 -0.09657716751098633 0.004596205893903971 -0.014695926569402218 0.0245132464915514 -0.0776534229516983 0.06959224492311478 0.039294108748435974 -0.005781752523034811 0.1487465798854828 -0.08990034461021423 -0.03544281795620918 0.05635448545217514 -0.04019717499613762 0.039493460208177567 -0.02224148064851761 -0.040809035301208496 -0.013824110850691795 0.011419185437262058 -0.0995059460401535 5.306204184307717e-05 0.07667344808578491 0.005693066865205765 0.049934543669223785 0.0745307207107544 -0.03472153842449188 -0.029096748679876328 -0.10697957873344421 -0.015188782475888729 0.0353199727833271 0.032735176384449005 -0.011312132701277733 -0.06324853003025055 -0.02421952784061432 -0.06658488512039185 -0.09041748940944672 0.008510636165738106 -0.0223526731133461 0.09345731139183044 -0.003494406118988991 0.02765975520014763 0.015236591920256615 -0.06231623888015747 0.18670327961444855 0.04623445123434067 0.03640848398208618 0.04508528485894203 0.005785536952316761 -0.06667009741067886 -0.030174849554896355 0.03668421134352684 0.05376579612493515 0.016537347808480263 -0.012571016326546669 -0.004231764003634453 0.03387076407670975 0.03620307520031929 0.11969105154275894 -0.052985623478889465 -0.004474869463592768 -0.08517303317785263 0.027244053781032562 -0.008042584173381329 -0.051854267716407776 0.09828482568264008 0.06644189357757568 -0.011909740045666695 -0.05002404749393463 -0.0014842181699350476 -0.1279483288526535 -0.05257305130362511 0.01691383868455887 -0.006586156785488129 0.03144321218132973 -0.06573870033025742 -0.0005696358857676387 -0.006859204266220331 0.0037585769314318895 -0.05010996013879776 -0.022208699956536293 -0.11084062606096268 -0.008936676196753979 0.0442640595138073 -0.08751583099365234 -0.016146697103977203 0.02694040723145008 0.015300123952329159 0.056627482175827026 0.04277455434203148 0.10288935899734497 -0.038787152618169785 -0.12183044105768204 -0.009233531542122364 0.04897875338792801 0.01775994896888733 -0.048915084451436996
<unk> 0.024020586162805557 -0.001306893303990364 -0.017983369529247284 0.049518316984176636 0.026685623452067375 0.018781675025820732 -0.04078294709324837 -0.04581081122159958 -0.051863979548215866 0.08258426934480667 0.07941383123397827 0.06289010494947433 -0.038177475333213806 -0.04043024405837059 -0.06926881521940231 -0.08903729915618896 -0.011324108578264713 -0.06309600919485092 -0.03900925815105438 -0.058392081409692764 -0.057049088180065155 0.03181655704975128 0.006076027639210224 -0.12027367949485779 0.11708074808120728 -0.027980947867035866 0.06981222331523895 -0.004880568478256464 0.07543877512216568 -0.04467656463384628 -0.05334360897541046 -0.10984137654304504 0.01994430087506771 0.04201775789260864 0.05848851799964905 0.021625908091664314 0.08913309127092361 -0.02700646221637726 -0.0698888748884201 -0.049434177577495575 0.05678647384047508 0.011389913968741894 0.10219758003950119 -0.06447704881429672 0.01390407606959343 0.020042188465595245 0.04123900085687637 0.05627714842557907 -0.0005662829498760402 0.027630914002656937 0.01853892020881176 -0.06136017292737961 -0.0808643326163292 -0.0054328409023582935 -0.03733488917350769 0.007456498220562935 -0.02500324510037899 0.01902392879128456 0.09048474580049515 0.03407913073897362 0.07393750548362732 0.00930024217814207 0.033934447914361954 -0.015761401504278183 0.04344592243432999 0.01990179345011711 0.011597857810556889 0.09327268600463867 -0.06539571285247803 -0.04016953334212303 0.1297583431005478 0.14199842512607574 0.008420631289482117 -0.050909485667943954 0.03897049278020859 -0.06605368107557297 0.03270278126001358 0.05122247338294983 -0.02107820101082325 0.011044367216527462 -0.0016406833892688155 0.0503104105591774 0.055729903280735016 0.024775391444563866 0.029029469937086105 0.06411965936422348 0.032739028334617615 0.09940890967845917 0.0356081947684288 0.017595693469047546 0.020575180649757385 -0.02642957679927349 0.14606016874313354 0.10203250497579575 -0.08985602855682373 0.07448650896549225 0.05297046899795532 -0.0549718476831913 -0.0478946678340435 0.12056828290224075 -0.0009079829906113446 0.03094901330769062 0.011553074233233929 0.0033854201901704073 0.01740262843668461 0.015049316920340061 -0.014013554900884628 0.10875149071216583 0.06527535617351532 -0.07821422070264816 -0.07475431263446808 -0.06870104372501373 0.001051071914844215 -0.05351615324616432 0.04444435238838196 -0.025388440117239952 0.017550062388181686 0.07674985378980637 -0.041446927934885025 -0.0986088439822197 -0.084641233086586 -0.02340969257056713 0.0650455430150032 -0.051428064703941345 0.06028134003281593 0.04812309145927429 -0.04136959835886955 -0.013890963047742844 0.07846160978078842 0.0027586687356233597 0.13242127001285553 0.07879596203565598 -0.04864826425909996 0.009748383425176144 -0.002525602700188756 0.04228343069553375 0.04304753616452217 -0.0558009147644043 -0.02146657183766365 0.024589044973254204 -0.029298994690179825 -0.0012592138955369592 0.014074458740651608 -0.04137827455997467 0.0019842693582177162 -0.03433080017566681 0.057460568845272064 -0.01397528126835823 -0.016815880313515663 0.07196104526519775 -0.02018740028142929 -0.10651680082082748 0.06035550311207771 0.012339930050075054 0.005774923134595156 -0.07315350323915482 0.003466440364718437 -0.0289164911955595 -0.03118017688393593 0.01693595014512539 -0.15214581787586212 0.08082945644855499 0.026719078421592712 0.07786806672811508 -0.0780930146574974 0.008509092032909393 -0.06421729177236557 0.050341054797172546 0.052840616554021835 0.0021846292074769735 0.046757206320762634 -0.0753665342926979 0.15898488461971283 0.045477885752916336 -0.011110435239970684 0.09933068603277206 -0.04054923728108406 0.010308531112968922 0.0003098333836533129 0.039685603231191635 0.032232366502285004 -0.059418171644210815 -0.010646232403814793 0.08346159756183624 0.04104752466082573 0.03246139734983444 0.06071034446358681 -0.06830775737762451 0.02603122405707836 7.45667566661723e-05 -0.008545816875994205 -0.04720918834209442 0.014192003756761551 0.047574128955602646 -0.15426097810268402 -0.019138189032673836 -0.08365557342767715 0.03799162805080414 -0.09946727007627487 -0.014978148974478245 -0.01059744507074356 0.026478270068764687 0.015169345773756504 0.10425188392400742 0.002331273863092065 -0.0036990370135754347 -0.019966058433055878 -0.13030920922756195 -0.0887976810336113 -0.06756798923015594 -0.003330962499603629 -0.014587823301553726 -0.059590745717287064 0.09652365744113922 -0.05855798348784447 0.04190491512417793 0.041342832148075104 0.006240378133952618 -0.0022114370949566364 -0.004214505199342966 -0.009002957493066788 -0.04707911238074303 0.003409912809729576 0.0871877372264862 -0.03430002182722092 -0.017969943583011627 0.1534850150346756 -0.0501159206032753 0.02882855385541916 -0.0805312767624855 -0.06012480705976486 0.0910174772143364 0.0629592090845108 -0.063590407371521 0.03739269822835922 -0.07744342088699341 -0.023819848895072937 0.06919700652360916 -0.031360089778900146 -0.06977178156375885 0.008582090958952904 0.06578978896141052 0.013926275074481964 0.03129468858242035 -0.10821308195590973 -0.035664137452840805 -0.035693392157554626 -0.0169029850512743 -0.06700208783149719 -0.037055958062410355 0.02669522725045681 -0.04229903221130371 -1.799206802388653e-05 0.01451125182211399 -0.03076038509607315 0.001666014431975782 -0.09964693337678909 0.08278609812259674 -0.04910692200064659 0.013096839189529419 0.09246000647544861 0.04014190286397934 -0.03435942530632019 -0.03556642308831215 0.01767524518072605 0.07208216935396194 0.06911036372184753 -0.039838433265686035 0.04888222739100456 0.029592221602797508 0.037645936012268066 -0.07431173324584961 0.026854200288653374 0.08758202940225601 -0.06728041917085648 -0.03419570252299309 -0.029138870537281036 0.04696383699774742 -0.10813122242689133 0.008179455995559692 -0.09314348548650742 0.05409570410847664 0.022348159924149513 0.007329348009079695 -0.07261018455028534 -0.0534084253013134 -0.03417209908366203 -0.05151628330349922 0.02885761857032776 -0.10109411925077438 -0.035767581313848495 -0.05721469968557358 0.013603262603282928 -0.013081884011626244 0.024496115744113922 -0.0068585495464503765 -0.15002229809761047 0.0037254977505654097 0.02740480750799179 0.04267236590385437
give -0.050575677305459976 0.08827260881662369 -0.035582657903432846 0.02468392811715603 -0.04507733881473541 -0.030714133754372597 0.04651419445872307 -0.018116222694516182 0.023561758920550346 -0.06820090115070343 -0.041494932025671005 -0.1230015754699707 0.04572411626577377 0.014529990032315254 -0.036171671003103256 0.03220411390066147 -0.05449393019080162 0.004496321082115173 -0.0691150575876236 0.05692321062088013 0.1402481347322464 -0.04269795119762421 0.08189819753170013 0.000622825522441417 -0.041851624846458435 -0.09714721143245697 0.06271955370903015 -0.07411357015371323 0.052318599075078964 0.005960802081972361 -0.1226293072104454 0.05257301777601242 0.05897528678178787 -0.038088519126176834 0.004480843897908926 0.0018543916521593928 0.013748092576861382 0.05448688194155693 -0.06828209012746811 0.0681232437491417 -0.024681510403752327 -0.024754412472248077 0.048023391515016556 0.013999344781041145 -0.021302811801433563 -0.07099700719118118 0.00838515255600214 0.057088702917099 0.03780302405357361 -0.003638928523287177 -0.057013679295778275 0.03661400079727173 0.005464653484523296 -0.05037173628807068 0.005274128634482622 -0.03415851667523384 -0.06787575036287308 -0.017669761553406715 -0.008508567698299885 0.0681152194738388 0.06177235022187233 0.06670889258384705 -0.05310400575399399 -0.017029033973813057 -0.16478116810321808 0.024798201397061348 -0.0012201510835438967 0.014254027046263218 0.11615636944770813 -0.12242891639471054 -0.0012147973757237196 -0.012370112352073193 0.04750341549515724 -0.051050763577222824 0.02718154340982437 0.029908476397395134 0.0295510645955801 0.01303135883063078 0.013058249838650227 0.00681752385571599 -0.006656982004642487 0.0023644615430384874 0.06857745349407196 -0.058620303869247437 0.051405876874923706 0.004358196631073952 -0.008907681331038475 -0.08251912891864777 0.034002311527729034 0.011773786507546902 0.03703780472278595 0.05718483775854111 0.02268078550696373 -0.06777732074260712 0.06658085435628891 0.05435118451714516 0.06634167581796646 0.009437902830541134 0.08148644119501114 0.011783498339354992 0.08895105123519897 -0.03464600816369057 0.07400453090667725 0.01039832178503275 -0.05387939140200615 -0.026737062260508537 -0.04639124497771263 -0.017994238063693047 0.05070142820477486 0.00732933497056365 0.021068165078759193 0.006111338268965483 -0.005029888357967138 0.033786434680223465 0.06645224988460541 -0.0713077262043953 0.1022304892539978 0.08689722418785095 0.022042229771614075 -0.021642789244651794 0.1303434669971466 -0.1348915696144104 -0.06134884059429169 -0.14021548628807068 -0.011000952683389187 -0.03699060529470444 0.07864458113908768 -0.04009553790092468 0.024133378639817238 -0.03419569879770279 0.0274489875882864 0.10185123234987259 -0.019728589802980423 -0.12202192097902298 0.039358824491500854 -0.03551824018359184 -0.005425742361694574 0.009428179822862148 0.0281806793063879 0.002818486886098981 -0.07029251754283905 -0.026875067502260208 -0.02475929446518421 -0.0649479553103447 -0.02908974140882492 0.053217608481645584 0.060905423015356064 0.07916715741157532 -0.060844700783491135 -0.029027508571743965 -0.0017917880322784185 0.05365074798464775 -0.026897339150309563 0.13127273321151733 -0.050327882170677185 -0.002173085929825902 0.11407965421676636 -0.10371403396129608 -0.020058244466781616 0.013438277877867222 0.015092091634869576 0.022151648998260498 -0.13078254461288452 0.013517215847969055 -0.0670231357216835 0.07843492925167084 -0.012918916530907154 -0.020986538380384445 -0.043444499373435974 0.026902081444859505 0.010596554726362228 -0.04030032455921173 0.030323045328259468 -0.009267558343708515 0.04486891254782677 0.06787746399641037 0.028368156403303146 0.050020214170217514 -0.04803510382771492 -0.008219541981816292 -0.05244295671582222 0.037726618349552155 0.01475368533283472 0.037856657058000565 0.0667119175195694 -0.04647970199584961 0.019023247063159943 -0.057433150708675385 0.14515231549739838 0.01585087925195694 0.015798887237906456 0.004352318588644266 -0.035304076969623566 0.022871803492307663 -0.105791836977005 -0.05594300478696823 0.13773593306541443 -0.059354424476623535 0.07239105552434921 -0.05466014891862869 0.0138593390583992 -0.04741906002163887 0.13023041188716888 -0.01346550602465868 0.02619687095284462 0.062022071331739426 -0.055988337844610214 0.03045719489455223 0.0787903219461441 -0.0413384735584259 0.05734633654356003 -0.06747500598430634 -0.0011382726952433586 0.06479232013225555 -0.04694599658250809 0.05433112755417824 0.024643247947096825 0.06678600609302521 0.05132359266281128 -0.05763430520892143 -0.03469818830490112 0.025024965405464172 0.004918008577078581 0.023352185264229774 0.014680780470371246 0.050173308700323105 -0.08824550360441208 -0.007803545333445072 -0.06931387633085251 0.12656651437282562 -0.04350632429122925 -0.030119910836219788 -0.06120976433157921 -0.04795633628964424 -0.05004259943962097 0.012851455248892307 0.044645268470048904 0.019472844898700714 -0.01406108308583498 -0.03442429378628731 0.06265639513731003 -0.08252820372581482 -0.009688510559499264 -0.013122311793267727 -0.09281091392040253 -0.033364348113536835 -0.10443807393312454 -0.07030199468135834 -0.015156244859099388 -0.04312436655163765 0.09330563992261887 0.01944033056497574 -0.01677287183701992 -0.15151099860668182 0.0032230475917458534 0.017351681366562843 0.1179690733551979 0.11953199654817581 0.04508153349161148 0.02110229805111885 0.028999919071793556 -0.049931954592466354 -0.010901877656579018 0.049962952733039856 -0.002530068624764681 0.02799219824373722 -0.11674651503562927 -0.03499628230929375 -0.07134312391281128 0.02342858351767063 -0.04789382964372635 -0.013824462890625 0.10307080298662186 -0.054615046828985214 -0.05404410883784294 0.016260402277112007 -0.018449846655130386 -0.09362483769655228 -0.0690973624587059 0.025134894996881485 -0.03761739283800125 -0.015229910612106323 -0.013356059789657593 -0.07331514358520508 -0.06982797384262085 0.05950954183936119 0.03820868954062462 -0.024845624342560768 0.05558840185403824 0.08029840886592865 -0.016473473981022835 -0.06059291586279869 -0.04637236148118973 -0.06902394443750381 -0.02833651565015316 0.14333464205265045 -0.07077828049659729 -0.018414601683616638 0.012201190926134586 -0.013126848265528679
beer -0.04181579872965813 -0.025736117735505104 0.007085089571774006 -0.08848818391561508 0.14487217366695404 -0.08570127934217453 0.04678207263350487 4.448511390364729e-05 0.021765992045402527 -0.013921810314059258 0.006009727716445923 0.055764950811862946 0.021388057619333267 -0.06501586735248566 -0.09861454367637634 0.024188021197915077 -0.007356227841228247 0.05720197781920433 -0.06054678186774254 -0.04536157101392746 -0.12148484587669373 -0.09292909502983093 0.020990489050745964 -0.07076778262853622 0.0900353491306305 0.11079700291156769 -0.0411994606256485 0.013078021816909313 -0.019658636301755905 0.0924757868051529 -0.06106695905327797 0.06513605266809464 0.06972123682498932 0.09759363532066345 0.061628613620996475 -0.043999601155519485 0.07509670406579971 -0.0711236372590065 0.06626757979393005 -0.11840906739234924 -0.0421932116150856 0.1210862323641777 -0.022104065865278244 0.05483877658843994 0.009345069527626038 -0.013289736583828926 -0.08832982182502747 -0.07960661500692368 0.0375053770840168 -0.13341979682445526 -0.0791812464594841 -0.02604766935110092 -0.02237505279481411 0.01880674436688423 -0.004384596832096577 -0.029135629534721375 -0.03206237778067589 -0.00458499975502491 0.049165159463882446 0.10502547025680542 0.022014789283275604 0.018218934535980225 -0.08492081612348557 -0.029590168967843056 0.01213280763477087 0.005245586391538382 -0.023257941007614136 -0.02107456885278225 -0.006367664784193039 0.003906864672899246 0.05546073615550995 -0.0014168490888550878 0.04057956114411354 0.03296269476413727 -0.10998868197202682 0.03579308092594147 -0.027693191543221474 -0.12356822192668915 -0.011319225654006004 0.06963255256414413 -0.053799502551555634 0.016273831948637962 0.03449622169137001 0.04909238964319229 -0.00700370455160737 -0.0524878092110157 0.040302298963069916 0.00047710080980323255 0.01961372420191765 -0.004882444627583027 -0.04627853259444237 0.019472870975732803 -0.014819241128861904 0.023943552747368813 0.06022999808192253 0.003927652258425951 0.020959898829460144 0.08434581756591797 0.0002608694776427001 -0.03787809982895851 0.08751942962408066 0.06800711899995804 -0.09763175994157791 0.029982633888721466 -0.06284818053245544 0.005879139993339777 -0.06343495845794678 0.014099033549427986 -0.04408077523112297 0.005356611683964729 0.03844025731086731 0.04220040887594223 -0.0440494678914547 0.049200158566236496 0.0006167020765133202 0.04273349419236183 -0.0519237145781517 0.008291084319353104 -0.04372463747859001 -0.007737065199762583 -0.09175942838191986 0.09459985047578812 0.02352914772927761 0.024319902062416077 -0.024030886590480804 0.024999303743243217 -0.07246425747871399 -0.05463629215955734 -0.023221420124173164 -0.010714206844568253 0.01452503353357315 0.04073772579431534 -0.009672451764345169 -0.09191974252462387 -0.04752166569232941 -0.03996613621711731 0.08850293606519699 -0.03852870687842369 0.017826925963163376 0.06894174963235855 -0.008316952735185623 0.10327926278114319 0.13668982684612274 0.06318765878677368 0.04742332920432091 0.006840880960226059 0.04318804293870926 0.01688750460743904 0.034421682357788086 -0.11981300264596939 0.009446528740227222 -0.0464412197470665 -0.016833513975143433 -0.07995154708623886 0.14983178675174713 0.03645850345492363 -0.0428733304142952 -0.03598254546523094 -0.03010820597410202 0.015835141763091087 0.014794697985053062 -0.038059841841459274 0.030338646844029427 0.021710561588406563 0.014976251870393753 -0.02473575808107853 0.033316511660814285 0.07873623818159103 -0.023778129369020462 -0.1090196967124939 -0.012899121269583702 0.015539643354713917 -0.08730347454547882 -0.03180612251162529 0.06258002668619156 0.05518127977848053 0.0063060251995921135 0.027218850329518318 0.058844320476055145 0.046817682683467865 0.008705814369022846 0.07931409776210785 0.00023389386478811502 -0.06072968617081642 -0.04582575708627701 0.00036743449163623154 -0.03632593899965286 -0.01151673961430788 0.08161156624555588 0.05205656215548515 0.039779774844646454 0.1296226978302002 -0.04265134036540985 -0.01898415945470333 -0.015894023701548576 -0.04363545775413513 0.005187175236642361 -0.008095177821815014 0.004176697228103876 0.024308733642101288 0.10137060284614563 0.015245368704199791 -0.08756893873214722 0.011361724697053432 0.10405188053846359 0.006857291329652071 0.03732405975461006 0.04855778440833092 0.02422044239938259 -0.019909976050257683 0.0072130728513002396 0.04567530378699303 -0.028581753373146057 -0.1417226940393448 0.05652422085404396 0.024929679930210114 0.09875296801328659 0.025121212005615234 0.009448431432247162 -0.09079721570014954 0.11204493045806885 0.06205064430832863 0.08973865956068039 -0.06931498646736145 0.03876810520887375 0.03299164026975632 -0.05187114328145981 -0.07515647262334824 -0.010889573022723198 -0.09183456748723984 0.013872564770281315 -0.012127871625125408 0.016308214515447617 -0.09709500521421432 0.05828334018588066 -0.007893510162830353 -0.036141686141490936 -0.014970388263463974 0.03942234814167023 0.01092112623155117 -0.020468292757868767 0.057411205023527145 0.01389605924487114 0.015087581239640713 0.04732130840420723 -0.03348114714026451 0.14566904306411743 -0.0027080054860562086 0.17161063849925995 -0.0050521958619356155 0.04759221524000168 0.021090930327773094 0.025546617805957794 0.041475389152765274 0.008346562273800373 0.06588595360517502 0.09670723974704742 -0.015150466002523899 0.1220172643661499 0.007502615451812744 0.04449884220957756 0.03418093919754028 -0.05143261328339577 0.013912009075284004 0.11179552227258682 0.07493384927511215 0.07474429905414581 0.029959455132484436 -0.014317077584564686 0.05136432871222496 -0.06949833035469055 0.04183356091380119 -0.02605348266661167 -0.07259718328714371 -0.018745211884379387 0.054298680275678635 -0.0036593410186469555 -0.00964736845344305 -0.0020957044325768948 0.02822389453649521 -0.006451202090829611 -0.040262628346681595 -0.04301967844367027 0.022709868848323822 -0.005173787474632263 0.019558263942599297 -0.022699184715747833 -0.08990653604269028 0.002791563281789422 -0.08483642339706421 0.06690806895494461 -0.0319189615547657 0.02137392945587635 -0.06237627938389778 0.03929071128368378 -0.20600460469722748 0.04825302213430405 -0.08415119349956512 -0.03215751796960831 0.021757982671260834
<unk> 0.024020586162805557 -0.001306893303990364 -0.017983369529247284 0.049518316984176636 0.026685623452067375 0.018781675025820732 -0.04078294709324837 -0.04581081122159958 -0.051863979548215866 0.08258426934480667 0.07941383123397827 0.06289010494947433 -0.038177475333213806 -0.04043024405837059 -0.06926881521940231 -0.08903729915618896 -0.011324108578264713 -0.06309600919485092 -0.03900925815105438 -0.058392081409692764 -0.057049088180065155 0.03181655704975128 0.006076027639210224 -0.12027367949485779 0.11708074808120728 -0.027980947867035866 0.06981222331523895 -0.004880568478256464 0.07543877512216568 -0.04467656463384628 -0.05334360897541046 -0.10984137654304504 0.01994430087506771 0.04201775789260864 0.05848851799964905 0.021625908091664314 0.08913309127092361 -0.02700646221637726 -0.0698888748884201 -0.049434177577495575 0.05678647384047508 0.011389913968741894 0.10219758003950119 -0.06447704881429672 0.01390407606959343 0.020042188465595245 0.04123900085687637 0.05627714842557907 -0.0005662829498760402 0.027630914002656937 0.01853892020881176 -0.06136017292737961 -0.0808643326163292 -0.0054328409023582935 -0.03733488917350769 0.007456498220562935 -0.02500324510037899 0.01902392879128456 0.09048474580049515 0.03407913073897362 0.07393750548362732 0.00930024217814207 0.033934447914361954 -0.015761401504278183 0.04344592243432999 0.01990179345011711 0.011597857810556889 0.09327268600463867 -0.06539571285247803 -0.04016953334212303 0.1297583431005478 0.14199842512607574 0.008420631289482117 -0.050909485667943954 0.03897049278020859 -0.06605368107557297 0.03270278126001358 0.05122247338294983 -0.02107820101082325 0.011044367216527462 -0.0016406833892688155 0.0503104105591774 0.055729903280735016 0.024775391444563866 0.029029469937086105 0.06411965936422348 0.032739028334617615 0.09940890967845917 0.0356081947684288 0.017595693469047546 0.020575180649757385 -0.02642957679927349 0.14606016874313354 0.10203250497579575 -0.08985602855682373 0.07448650896549225 0.05297046899795532 -0.0549718476831913 -0.0478946678340435 0.12056828290224075 -0.0009079829906113446 0.03094901330769062 0.011553074233233929 0.0033854201901704073 0.01740262843668461 0.015049316920340061 -0.014013554900884628 0.10875149071216583 0.06527535617351532 -0.07821422070264816 -0.07475431263446808 -0.06870104372501373 0.001051071914844215 -0.05351615324616432 0.04444435238838196 -0.025388440117239952 0.017550062388181686 0.07674985378980637 -0.041446927934885025 -0.0986088439822197 -0.084641233086586 -0.02340969257056713 0.0650455430150032 -0.051428064703941345 0.06028134003281593 0.04812309145927429 -0.04136959835886955 -0.013890963047742844 0.07846160978078842 0.0027586687356233597 0.13242127001285553 0.07879596203565598 -0.04864826425909996 0.009748383425176144 -0.002525602700188756 0.04228343069553375 0.04304753616452217 -0.0558009147644043 -0.02146657183766365 0.024589044973254204 -0.029298994690179825 -0.0012592138955369592 0.014074458740651608 -0.04137827455997467 0.0019842693582177162 -0.03433080017566681 0.057460568845272064 -0.01397528126835823 -0.016815880313515663 0.07196104526519775 -0.02018740028142929 -0.10651680082082748 0.06035550311207771 0.012339930050075054 0.005774923134595156 -0.07315350323915482 0.003466440364718437 -0.0289164911955595 -0.03118017688393593 0.01693595014512539 -0.15214581787586212 0.08082945644855499 0.026719078421592712 0.07786806672811508 -0.0780930146574974 0.008509092032909393 -0.06421729177236557 0.050341054797172546 0.052840616554021835 0.0021846292074769735 0.046757206320762634 -0.0753665342926979 0.15898488461971283 0.045477885752916336 -0.011110435239970684 0.09933068603277206 -0.04054923728108406 0.010308531112968922 0.0003098333836533129 0.039685603231191635 0.032232366502285004 -0.059418171644210815 -0.010646232403814793 0.08346159756183624 0.04104752466082573 0.03246139734983444 0.06071034446358681 -0.06830775737762451 0.02603122405707836 7.45667566661723e-05 -0.008545816875994205 -0.04720918834209442 0.014192003756761551 0.047574128955602646 -0.15426097810268402 -0.019138189032673836 -0.08365557342767715 0.03799162805080414 -0.09946727007627487 -0.014978148974478245 -0.01059744507074356 0.026478270068764687 0.015169345773756504 0.10425188392400742 0.002331273863092065 -0.0036990370135754347 -0.019966058433055878 -0.13030920922756195 -0.0887976810336113 -0.06756798923015594 -0.003330962499603629 -0.014587823301553726 -0.059590745717287064 0.09652365744113922 -0.05855798348784447 0.04190491512417793 0.041342832148075104 0.006240378133952618 -0.0022114370949566364 -0.004214505199342966 -0.009002957493066788 -0.04707911238074303 0.003409912809729576 0.0871877372264862 -0.03430002182722092 -0.017969943583011627 0.1534850150346756 -0.0501159206032753 0.02882855385541916 -0.0805312767624855 -0.06012480705976486 0.0910174772143364 0.0629592090845108 -0.063590407371521 0.03739269822835922 -0.07744342088699341 -0.023819848895072937 0.06919700652360916 -0.031360089778900146 -0.06977178156375885 0.008582090958952904 0.06578978896141052 0.013926275074481964 0.03129468858242035 -0.10821308195590973 -0.035664137452840805 -0.035693392157554626 -0.0169029850512743 -0.06700208783149719 -0.037055958062410355 0.02669522725045681 -0.04229903221130371 -1.799206802388653e-05 0.01451125182211399 -0.03076038509607315 0.001666014431975782 -0.09964693337678909 0.08278609812259674 -0.04910692200064659 0.013096839189529419 0.09246000647544861 0.04014190286397934 -0.03435942530632019 -0.03556642308831215 0.01767524518072605 0.07208216935396194 0.06911036372184753 -0.039838433265686035 0.04888222739100456 0.029592221602797508 0.037645936012268066 -0.07431173324584961 0.026854200288653374 0.08758202940225601 -0.06728041917085648 -0.03419570252299309 -0.029138870537281036 0.04696383699774742 -0.10813122242689133 0.008179455995559692 -0.09314348548650742 0.05409570410847664 0.022348159924149513 0.007329348009079695 -0.07261018455028534 -0.0534084253013134 -0.03417209908366203 -0.05151628330349922 0.02885761857032776 -0.10109411925077438 -0.035767581313848495 -0.05721469968557358 0.013603262603282928 -0.013081884011626244 0.024496115744113922 -0.0068585495464503765 -0.15002229809761047 0.0037254977505654097 0.02740480750799179 0.04267236590385437
easy -0.02500048093497753 0.05009733885526657 0.12468720972537994 0.03903193026781082 0.0801631435751915 -0.007747444789856672 0.06510987132787704 -0.06645705550909042 0.009118876419961452 0.04917530342936516 0.061523374170064926 0.06577666103839874 0.0915798470377922 -0.06316611915826797 -0.041230928152799606 -0.0032922844402492046 0.017856767401099205 -0.011184168979525566 -0.08283375203609467 0.10917279124259949 0.02515539340674877 -0.00422095600515604 -0.12640073895454407 0.0440605953335762 -0.03437728434801102 0.12895815074443817 -0.04650265350937843 -0.07223162800073624 0.0005272615235298872 -0.016186751425266266 -0.046404287219047546 0.012584026902914047 -0.03419565409421921 -0.03727426752448082 -0.04131295159459114 -0.10721316188573837 0.03738471865653992 -0.06661591678857803 0.04030003026127815 -0.042093850672245026 0.028476238250732422 -0.03279225528240204 0.0032269549556076527 -0.10833009332418442 -0.024601340293884277 -0.07664783298969269 -0.06594986468553543 -0.05268410965800285 -0.02538001537322998 -0.0797656923532486 -0.07810422778129578 -0.02270606718957424 -0.048772428184747696 -0.034736160188913345 0.0765569731593132 0.0011792297009378672 0.03371095284819603 0.01910209096968174 0.027452560141682625 0.004194929264485836 0.05013563856482506 0.004563747439533472 -0.012264496646821499 -0.0029177486430853605 0.01499026920646429 -0.02311413735151291 -0.03575987368822098 0.0005833160248585045 -0.004700453020632267 0.03907382860779762 0.02208053506910801 -0.08357270061969757 -0.011506044305860996 0.15524491667747498 0.01671326719224453 -0.11458200961351395 0.028206683695316315 -0.03146893158555031 0.0663142129778862 0.055140383541584015 0.05436616763472557 -0.06181829795241356 -0.030150752514600754 -0.09720723330974579 -0.026117553934454918 -0.0839286595582962 -0.07631925493478775 -0.04599238559603691 -0.0436844527721405 0.002664377447217703 -0.006370448973029852 -0.07205378264188766 -0.014440993778407574 0.028695544227957726 0.1091274842619896 -0.01765347458422184 0.02454790659248829 -0.03187097981572151 0.011100628413259983 0.08993107825517654 0.03184859827160835 -0.005445470102131367 -0.046580493450164795 0.10137058049440384 -0.0012267737183719873 -0.019252903759479523 0.006461769342422485 -0.01705283857882023 0.07900232821702957 0.047695185989141464 0.02929631620645523 0.0035320192109793425 0.09473211318254471 -0.0072736116126179695 0.04400956630706787 0.07898876816034317 0.10020337998867035 0.033842749893665314 0.06827067583799362 -0.06212348863482475 0.02528735063970089 -0.06023533269762993 0.06571158766746521 -0.07432689517736435 0.008622081018984318 0.11025474220514297 0.06686964631080627 -0.06736509501934052 -0.0033045269083231688 -0.009715552441775799 0.0023559664841741323 -0.10887504369020462 -0.13459643721580505 0.03987589478492737 -0.024561800062656403 0.06987117975950241 0.043489664793014526 -0.014872773550450802 -0.009307051077485085 0.01981429196894169 -0.0010193700436502695 0.015470237471163273 -0.024057742208242416 0.018770895898342133 -0.015995530411601067 0.041725993156433105 0.12468523532152176 0.01642387919127941 -0.003468080423772335 0.08833816647529602 0.08832938224077225 0.0737283006310463 0.07298687845468521 -0.042320746928453445 0.006911148317158222 -0.09315922111272812 -0.08073420822620392 0.06852256506681442 -0.06084054335951805 -0.0022339471615850925 0.0890417993068695 -0.0007530335569754243 -0.01500451099127531 -0.05555473640561104 -0.013912965543568134 0.0010217231465503573 -0.054198283702135086 -0.0957697331905365 -0.03100712224841118 0.016539735719561577 0.04049959033727646 0.008738568052649498 0.0017222084570676088 -0.05633845552802086 -0.12714175879955292 -0.045750658959150314 -0.06570306420326233 0.03865029290318489 -0.047635480761528015 -0.03953632712364197 -0.021775422617793083 -0.11721615493297577 0.046097613871097565 0.06754480302333832 -0.012344101443886757 0.012948145158588886 0.06365224719047546 0.06048188358545303 -0.07938960194587708 0.03552299737930298 0.11225633323192596 -0.08032815903425217 -0.007970093749463558 0.04143361374735832 0.07145421206951141 -0.08584792912006378 -0.11519138514995575 0.006661430932581425 0.012046064250171185 -0.005775869358330965 0.018124114722013474 -0.020679496228694916 -0.015592226758599281 -0.06706829369068146 0.06059536710381508 0.10913768410682678 0.09563202410936356 0.044380318373441696 0.03446643427014351 0.0038377742748707533 -0.10012299567461014 -0.0732535645365715 0.02749186009168625 0.05949581041932106 0.03960397094488144 0.08124440163373947 -0.0906386449933052 0.011720090173184872 0.021198531612753868 0.02807287685573101 -0.03229305148124695 0.01216091774404049 -0.03327552601695061 0.028744719922542572 -0.03854866698384285 -0.008394933305680752 0.05203896388411522 0.09158622473478317 0.05896628275513649 -0.08593492954969406 -0.06863074004650116 -0.09625012427568436 0.016964005306363106 -0.04030691459774971 -0.013162605464458466 -0.08564990013837814 0.005451123230159283 -0.013855110853910446 0.025007756426930428 0.03386496752500534 -0.024123508483171463 0.009905252605676651 -0.007895228452980518 -0.006488195154815912 0.02122102677822113 -0.05131641775369644 0.003353518433868885 0.047630347311496735 0.0047110626474022865 0.11784757673740387 0.042016178369522095 0.04651392251253128 0.10937628895044327 0.18776699900627136 -0.12438240647315979 -0.005948452278971672 0.025417955592274666 -0.015373694710433483 -0.07092591375112534 -0.013472610153257847 0.0013183144619688392 -0.047794539481401443 -0.014020269736647606 0.02249947562813759 -0.057262346148490906 -0.008569283410906792 0.005881062708795071 -0.03294838219881058 0.000916291493922472 0.020187804475426674 0.036662209779024124 0.09931676834821701 -0.11823254823684692 0.01452205702662468 0.09059004485607147 -0.08754647523164749 -0.025703657418489456 -0.10848415642976761 0.026792295277118683 0.024638706818223 -0.010314904153347015 0.006611260119825602 0.039786290377378464 0.02353997714817524 0.06450153142213821 -0.014733059331774712 0.04790916666388512 -0.014981186017394066 -0.061294957995414734 0.025435853749513626 -0.0432765819132328 0.07054459303617477 -0.04321844503283501 0.09506510198116302 0.03504863753914833 0.04622329771518707 0.07301058620214462 0.0393192432820797 -0.03158080577850342 0.06895844638347626
